<?xml version="1.0"?>
<MethodSetup Method="BDT::PUDisc_exp_pftype4">
  <GeneralInfo>
    <Info name="TMVA Release" value="4.1.4 [262404]"/>
    <Info name="ROOT Release" value="5.34/05 [336389]"/>
    <Info name="Creator" value="Phil"/>
    <Info name="Date" value="Wed Mar  5 21:19:15 2014"/>
    <Info name="Host" value="Darwin pb-d-128-141-154-76.cern.ch 12.2.1 Darwin Kernel Version 12.2.1: Thu Oct 18 16:32:48 PDT 2012; root:xnu-2050.20.9~2/RELEASE_X86_64 x86_64"/>
    <Info name="Dir" value="/Users/Phil/Physics/JWJ/git_v2/ProjectPUPPI/ana_cms/Bacon/TMVA"/>
    <Info name="Training events" value="206443"/>
    <Info name="TrainingTime" value="7.59032459e+01"/>
    <Info name="AnalysisType" value="Classification"/>
  </GeneralInfo>
  <Options>
    <Option name="V" modified="Yes">False</Option>
    <Option name="VerbosityLevel" modified="No">Default</Option>
    <Option name="VarTransform" modified="No">None</Option>
    <Option name="H" modified="Yes">False</Option>
    <Option name="CreateMVAPdfs" modified="No">False</Option>
    <Option name="IgnoreNegWeightsInTraining" modified="No">False</Option>
    <Option name="NTrees" modified="Yes">100</Option>
    <Option name="RenormByClass" modified="No">False</Option>
    <Option name="BoostType" modified="Yes">Grad</Option>
    <Option name="AdaBoostR2Loss" modified="No">quadratic</Option>
    <Option name="UseBaggedGrad" modified="Yes">False</Option>
    <Option name="GradBaggingFraction" modified="No">6.000000e-01</Option>
    <Option name="Shrinkage" modified="Yes">1.000000e-01</Option>
    <Option name="AdaBoostBeta" modified="No">1.000000e+00</Option>
    <Option name="UseRandomisedTrees" modified="No">False</Option>
    <Option name="UseNvars" modified="No">2</Option>
    <Option name="UsePoissonNvars" modified="No">True</Option>
    <Option name="UseNTrainEvents" modified="No">206443</Option>
    <Option name="UseWeightedTrees" modified="No">True</Option>
    <Option name="UseYesNoLeaf" modified="No">True</Option>
    <Option name="NodePurityLimit" modified="No">5.000000e-01</Option>
    <Option name="SeparationType" modified="Yes">giniindex</Option>
    <Option name="nEventsMin" modified="No">5161</Option>
    <Option name="nCuts" modified="Yes">2000</Option>
    <Option name="UseFisherCuts" modified="No">False</Option>
    <Option name="MinLinCorrForFisher" modified="No">8.000000e-01</Option>
    <Option name="UseExclusiveVars" modified="No">False</Option>
    <Option name="PruneStrength" modified="No">0.000000e+00</Option>
    <Option name="PruneMethod" modified="No">nopruning</Option>
    <Option name="PruneBeforeBoost" modified="No">False</Option>
    <Option name="PruningValFraction" modified="No">5.000000e-01</Option>
    <Option name="NNodesMax" modified="Yes">10000</Option>
    <Option name="MaxDepth" modified="Yes">10</Option>
    <Option name="DoBoostMonitor" modified="No">False</Option>
    <Option name="NegWeightTreatment" modified="No">ignorenegweights</Option>
  </Options>
  <Variables NVar="2">
    <Variable VarIndex="0" Expression="depth" Label="depth" Title="depth" Unit="" Internal="depth" Type="F" Min="-1.96370564e+01" Max="3.90000031e+02"/>
    <Variable VarIndex="1" Expression="time" Label="time" Title="time" Unit="" Internal="time" Type="F" Min="-9.99000000e+02" Max="6.90000000e+01"/>
  </Variables>
  <Spectators NSpec="0"/>
  <Classes NClass="2">
    <Class Name="Signal" Index="0"/>
    <Class Name="Background" Index="1"/>
  </Classes>
  <Transformations NTransformations="0"/>
  <MVAPdfs/>
  <Weights NTrees="100" AnalysisType="1">
    <BinaryTree type="DecisionTree" boostWeight="1.0000000000000000e+00" itree="0">
      <Node pos="s" depth="0" NCoef="0" IVar="0" Cut="-6.1257882118225098e+00" cType="1" res="-3.7753036618232727e-01" rms="3.2782742381095886e-01" purity="1.2246964126825333e-01" nType="0">
        <Node pos="l" depth="1" NCoef="0" IVar="-1" Cut="0.0000000000000000e+00" cType="1" res="-3.3085897564888000e-02" rms="4.7184011340141296e-01" purity="3.3457052707672119e-01" nType="-99"/>
        <Node pos="r" depth="1" NCoef="0" IVar="1" Cut="4.4182910919189453e+00" cType="1" res="-3.8557508587837219e-01" rms="3.1832665205001831e-01" purity="1.1442490667104721e-01" nType="0">
          <Node pos="l" depth="2" NCoef="0" IVar="1" Cut="-2.1012387275695801e+00" cType="0" res="-3.6470627784729004e-01" rms="3.4203705191612244e-01" purity="1.3529372215270996e-01" nType="0">
            <Node pos="l" depth="3" NCoef="0" IVar="1" Cut="4.6922141313552856e-01" cType="1" res="-3.4148940443992615e-01" rms="3.6521911621093750e-01" purity="1.5851061046123505e-01" nType="0">
              <Node pos="l" depth="4" NCoef="0" IVar="0" Cut="1.4393329620361328e-01" cType="0" res="-2.7952075004577637e-01" rms="4.1456982493400574e-01" purity="2.2047923505306244e-01" nType="0">
                <Node pos="l" depth="5" NCoef="0" IVar="-1" Cut="0.0000000000000000e+00" cType="1" res="-3.5512838512659073e-02" rms="4.6740877628326416e-01" purity="3.2243579626083374e-01" nType="-99"/>
                <Node pos="r" depth="5" NCoef="0" IVar="1" Cut="-8.3336728811264038e-01" cType="0" res="-3.0697447061538696e-01" rms="3.9467287063598633e-01" purity="1.9302554428577423e-01" nType="0">
                  <Node pos="l" depth="6" NCoef="0" IVar="0" Cut="-4.6092233657836914e+00" cType="1" res="-2.7558183670043945e-01" rms="4.1719856858253479e-01" purity="2.2441817820072174e-01" nType="0">
                    <Node pos="l" depth="7" NCoef="0" IVar="-1" Cut="0.0000000000000000e+00" cType="1" res="-4.7946646809577942e-02" rms="4.3878009915351868e-01" purity="2.6026675105094910e-01" nType="-99"/>
                    <Node pos="r" depth="7" NCoef="0" IVar="1" Cut="-1.4592222869396210e-01" cType="1" res="-2.9495447874069214e-01" rms="4.0373489260673523e-01" purity="2.0504552125930786e-01" nType="0">
                      <Node pos="l" depth="8" NCoef="0" IVar="-1" Cut="0.0000000000000000e+00" cType="1" res="-5.5739555507898331e-02" rms="4.1512352228164673e-01" purity="2.2130222618579865e-01" nType="-99"/>
                      <Node pos="r" depth="8" NCoef="0" IVar="-1" Cut="0.0000000000000000e+00" cType="1" res="-6.2294453382492065e-02" rms="3.9113301038742065e-01" purity="1.8852771818637848e-01" nType="-99"/>
                    </Node>
                  </Node>
                  <Node pos="r" depth="6" NCoef="0" IVar="-1" Cut="0.0000000000000000e+00" cType="1" res="-7.1367099881172180e-02" rms="3.5024049878120422e-01" purity="1.4316448569297791e-01" nType="-99"/>
                </Node>
              </Node>
              <Node pos="r" depth="4" NCoef="0" IVar="0" Cut="1.0406902313232422e+01" cType="0" res="-3.6797180771827698e-01" rms="3.3852142095565796e-01" purity="1.3202819228172302e-01" nType="0">
                <Node pos="l" depth="5" NCoef="0" IVar="0" Cut="1.5086448669433594e+01" cType="0" res="-3.1720748543739319e-01" rms="3.8649633526802063e-01" purity="1.8279251456260681e-01" nType="0">
                  <Node pos="l" depth="6" NCoef="0" IVar="0" Cut="2.7469123840332031e+01" cType="1" res="-3.1470984220504761e-01" rms="3.8853275775909424e-01" purity="1.8529015779495239e-01" nType="0">
                    <Node pos="l" depth="7" NCoef="0" IVar="0" Cut="2.1435489654541016e+01" cType="0" res="-3.0860123038291931e-01" rms="3.9340218901634216e-01" purity="1.9139878451824188e-01" nType="0">
                      <Node pos="l" depth="8" NCoef="0" IVar="-1" Cut="0.0000000000000000e+00" cType="1" res="-6.0495737940073013e-02" rms="3.9812892675399780e-01" purity="1.9752129912376404e-01" nType="-99"/>
                      <Node pos="r" depth="8" NCoef="0" IVar="-1" Cut="0.0000000000000000e+00" cType="1" res="-6.2716670334339142e-02" rms="3.8944253325462341e-01" purity="1.8641664087772369e-01" nType="-99"/>
                    </Node>
                    <Node pos="r" depth="7" NCoef="0" IVar="-1" Cut="0.0000000000000000e+00" cType="1" res="-6.4346350729465485e-02" rms="3.8273841142654419e-01" purity="1.7826825380325317e-01" nType="-99"/>
                  </Node>
                  <Node pos="r" depth="6" NCoef="0" IVar="-1" Cut="0.0000000000000000e+00" cType="1" res="-6.5417125821113586e-02" rms="3.7817323207855225e-01" purity="1.7291437089443207e-01" nType="-99"/>
                </Node>
                <Node pos="r" depth="5" NCoef="0" IVar="0" Cut="-4.6219787597656250e+00" cType="1" res="-3.9447596669197083e-01" rms="3.0722746253013611e-01" purity="1.0552404075860977e-01" nType="0">
                  <Node pos="l" depth="6" NCoef="0" IVar="1" Cut="1.7835220098495483e+00" cType="1" res="-3.4634551405906677e-01" rms="3.6061722040176392e-01" purity="1.5365448594093323e-01" nType="0">
                    <Node pos="l" depth="7" NCoef="0" IVar="-1" Cut="0.0000000000000000e+00" cType="1" res="-6.3997007906436920e-02" rms="3.8419991731643677e-01" purity="1.8001496791839600e-01" nType="-99"/>
                    <Node pos="r" depth="7" NCoef="0" IVar="-1" Cut="0.0000000000000000e+00" cType="1" res="-7.3476701974868774e-02" rms="3.3915978670120239e-01" purity="1.3261649012565613e-01" nType="-99"/>
                  </Node>
                  <Node pos="r" depth="6" NCoef="0" IVar="1" Cut="9.9809962511062622e-01" cType="1" res="-4.0910696983337402e-01" rms="2.8745692968368530e-01" purity="9.0893022716045380e-02" nType="0">
                    <Node pos="l" depth="7" NCoef="0" IVar="-1" Cut="0.0000000000000000e+00" cType="1" res="-7.1515150368213654e-02" rms="3.4948474168777466e-01" purity="1.4242424070835114e-01" nType="-99"/>
                    <Node pos="r" depth="7" NCoef="0" IVar="0" Cut="6.9219174385070801e+00" cType="0" res="-4.1703322529792786e-01" rms="2.7583196759223938e-01" purity="8.2966759800910950e-02" nType="0">
                      <Node pos="l" depth="8" NCoef="0" IVar="-1" Cut="0.0000000000000000e+00" cType="1" res="-7.7098943293094635e-02" rms="3.1842395663261414e-01" purity="1.1450528353452682e-01" nType="-99"/>
                      <Node pos="r" depth="8" NCoef="0" IVar="1" Cut="1.0001685619354248e+00" cType="0" res="-4.2267015576362610e-01" rms="2.6711410284042358e-01" purity="7.7329851686954498e-02" nType="0">
                        <Node pos="l" depth="9" NCoef="0" IVar="1" Cut="1.7553131580352783e+00" cType="1" res="-4.0888437628746033e-01" rms="2.8777346014976501e-01" purity="9.1115608811378479e-02" nType="0">
                          <Node pos="l" depth="10" NCoef="0" IVar="-1" Cut="0.0000000000000000e+00" cType="1" res="-7.8126579523086548e-02" rms="3.1209921836853027e-01" purity="1.0936708748340607e-01" nType="-99"/>
                          <Node pos="r" depth="10" NCoef="0" IVar="-1" Cut="0.0000000000000000e+00" cType="1" res="-8.3286792039871216e-02" rms="2.7673590183258057e-01" purity="8.3566039800643921e-02" nType="-99"/>
                        </Node>
                        <Node pos="r" depth="9" NCoef="0" IVar="-1" Cut="0.0000000000000000e+00" cType="1" res="-9.0826101601123810e-02" rms="2.0920200645923615e-01" purity="4.5869491994380951e-02" nType="-99"/>
                      </Node>
                    </Node>
                  </Node>
                </Node>
              </Node>
            </Node>
            <Node pos="r" depth="3" NCoef="0" IVar="1" Cut="-1.1567210197448730e+01" cType="0" res="-4.3100553750991821e-01" rms="2.5344476103782654e-01" purity="6.8994477391242981e-02" nType="0">
              <Node pos="l" depth="4" NCoef="0" IVar="0" Cut="-4.2548255920410156e+00" cType="1" res="-4.1213855147361755e-01" rms="2.8309330344200134e-01" purity="8.7861463427543640e-02" nType="0">
                <Node pos="l" depth="5" NCoef="0" IVar="-1" Cut="0.0000000000000000e+00" cType="1" res="-7.5146980583667755e-02" rms="3.2988375425338745e-01" purity="1.2426509708166122e-01" nType="-99"/>
                <Node pos="r" depth="5" NCoef="0" IVar="1" Cut="-4.3087024688720703e+00" cType="0" res="-4.2832946777343750e-01" rms="2.5794160366058350e-01" purity="7.1670532226562500e-02" nType="0">
                  <Node pos="l" depth="6" NCoef="0" IVar="-1" Cut="0.0000000000000000e+00" cType="1" res="-8.2770898938179016e-02" rms="2.8057882189750671e-01" purity="8.6145520210266113e-02" nType="-99"/>
                  <Node pos="r" depth="6" NCoef="0" IVar="-1" Cut="0.0000000000000000e+00" cType="1" res="-8.7739698588848114e-02" rms="2.3988254368305206e-01" purity="6.1301510781049728e-02" nType="-99"/>
                </Node>
              </Node>
              <Node pos="r" depth="4" NCoef="0" IVar="1" Cut="-3.1306230545043945e+01" cType="0" res="-4.6162059903144836e-01" rms="1.9211041927337646e-01" purity="3.8379389792680740e-02" nType="0">
                <Node pos="l" depth="5" NCoef="0" IVar="-1" Cut="0.0000000000000000e+00" cType="1" res="-9.0108193457126617e-02" rms="2.1682445704936981e-01" purity="4.9459040164947510e-02" nType="-99"/>
                <Node pos="r" depth="5" NCoef="0" IVar="-1" Cut="0.0000000000000000e+00" cType="1" res="-9.3493781983852386e-02" rms="1.7740583419799805e-01" purity="3.2531104981899261e-02" nType="-99"/>
              </Node>
            </Node>
          </Node>
          <Node pos="r" depth="2" NCoef="0" IVar="1" Cut="1.8490077972412109e+01" cType="1" res="-4.5227748155593872e-01" rms="2.1317853033542633e-01" purity="4.7722525894641876e-02" nType="0">
            <Node pos="l" depth="3" NCoef="0" IVar="0" Cut="-3.8211631774902344e+00" cType="1" res="-4.2714291810989380e-01" rms="2.5990176200866699e-01" purity="7.2857074439525604e-02" nType="0">
              <Node pos="l" depth="4" NCoef="0" IVar="-1" Cut="0.0000000000000000e+00" cType="1" res="-8.1037193536758423e-02" rms="2.9295790195465088e-01" purity="9.4814039766788483e-02" nType="-99"/>
              <Node pos="r" depth="4" NCoef="0" IVar="1" Cut="7.5519380569458008e+00" cType="1" res="-4.3893775343894958e-01" rms="2.3944447934627533e-01" purity="6.1062257736921310e-02" nType="0">
                <Node pos="l" depth="5" NCoef="0" IVar="-1" Cut="0.0000000000000000e+00" cType="1" res="-8.6908154189586639e-02" rms="2.4733439087867737e-01" purity="6.5459214150905609e-02" nType="-99"/>
                <Node pos="r" depth="5" NCoef="0" IVar="-1" Cut="0.0000000000000000e+00" cType="1" res="-8.8643617928028107e-02" rms="2.3142538964748383e-01" purity="5.6781895458698273e-02" nType="-99"/>
              </Node>
            </Node>
            <Node pos="r" depth="3" NCoef="0" IVar="1" Cut="4.4287971496582031e+01" cType="1" res="-4.7377485036849976e-01" rms="1.5980421006679535e-01" purity="2.6225144043564796e-02" nType="0">
              <Node pos="l" depth="4" NCoef="0" IVar="-1" Cut="0.0000000000000000e+00" cType="1" res="-9.3334212899208069e-02" rms="1.7949408292770386e-01" purity="3.3328942954540253e-02" nType="-99"/>
              <Node pos="r" depth="4" NCoef="0" IVar="0" Cut="-4.0963020324707031e+00" cType="0" res="-4.7677785158157349e-01" rms="1.5060834586620331e-01" purity="2.3222140967845917e-02" nType="0">
                <Node pos="l" depth="5" NCoef="0" IVar="0" Cut="-2.6567742824554443e+00" cType="1" res="-4.7495362162590027e-01" rms="1.5626598894596100e-01" purity="2.5046382099390030e-02" nType="0">
                  <Node pos="l" depth="6" NCoef="0" IVar="-1" Cut="0.0000000000000000e+00" cType="1" res="-9.4007492065429688e-02" rms="1.7048399150371552e-01" purity="2.9962547123432159e-02" nType="-99"/>
                  <Node pos="r" depth="6" NCoef="0" IVar="-1" Cut="0.0000000000000000e+00" cType="1" res="-9.5872662961483002e-02" rms="1.4216478168964386e-01" purity="2.0636698231101036e-02" nType="-99"/>
                </Node>
                <Node pos="r" depth="5" NCoef="0" IVar="-1" Cut="0.0000000000000000e+00" cType="1" res="-9.6064925193786621e-02" rms="1.3888210058212280e-01" purity="1.9675357267260551e-02" nType="-99"/>
              </Node>
            </Node>
          </Node>
        </Node>
      </Node>
    </BinaryTree>
    <BinaryTree type="DecisionTree" boostWeight="1.0000000000000000e+00" itree="1">
      <Node pos="s" depth="0" NCoef="0" IVar="1" Cut="2.8170914649963379e+00" cType="1" res="-3.3985877037048340e-01" rms="3.2578450441360474e-01" purity="1.2246964126825333e-01" nType="0">
        <Node pos="l" depth="1" NCoef="0" IVar="0" Cut="-6.1366572380065918e+00" cType="1" res="-3.1596684455871582e-01" rms="3.5393947362899780e-01" purity="1.4877301454544067e-01" nType="0">
          <Node pos="l" depth="2" NCoef="0" IVar="-1" Cut="0.0000000000000000e+00" cType="1" res="-2.1235153079032898e-02" rms="4.8473712801933289e-01" purity="3.7740346789360046e-01" nType="-99"/>
          <Node pos="r" depth="2" NCoef="0" IVar="1" Cut="-2.1895837783813477e+00" cType="0" res="-3.2538294792175293e-01" rms="3.4392899274826050e-01" purity="1.3851702213287354e-01" nType="0">
            <Node pos="l" depth="3" NCoef="0" IVar="1" Cut="4.6789762377738953e-01" cType="1" res="-3.0133557319641113e-01" rms="3.7017142772674561e-01" purity="1.6519874334335327e-01" nType="0">
              <Node pos="l" depth="4" NCoef="0" IVar="1" Cut="-8.3207595348358154e-01" cType="0" res="-2.5365272164344788e-01" rms="4.1197022795677185e-01" purity="2.1821205317974091e-01" nType="0">
                <Node pos="l" depth="5" NCoef="0" IVar="0" Cut="-3.1461969017982483e-01" cType="0" res="-2.1500019729137421e-01" rms="4.3775656819343567e-01" purity="2.5973349809646606e-01" nType="0">
                  <Node pos="l" depth="6" NCoef="0" IVar="-1" Cut="0.0000000000000000e+00" cType="1" res="-2.2024607285857201e-02" rms="4.8303461074829102e-01" purity="3.7141764163970947e-01" nType="-99"/>
                  <Node pos="r" depth="6" NCoef="0" IVar="0" Cut="-4.1728491783142090e+00" cType="1" res="-2.4967806041240692e-01" rms="4.1595801711082458e-01" purity="2.2286002337932587e-01" nType="0">
                    <Node pos="l" depth="7" NCoef="0" IVar="-1" Cut="0.0000000000000000e+00" cType="1" res="-4.4495202600955963e-02" rms="4.3459859490394592e-01" purity="2.5289836525917053e-01" nType="-99"/>
                    <Node pos="r" depth="7" NCoef="0" IVar="-1" Cut="0.0000000000000000e+00" cType="1" res="-5.5011928081512451e-02" rms="3.9724418520927429e-01" purity="1.9644339382648468e-01" nType="-99"/>
                  </Node>
                </Node>
                <Node pos="r" depth="5" NCoef="0" IVar="1" Cut="-1.3841432332992554e+00" cType="0" res="-3.1546100974082947e-01" rms="3.5843026638031006e-01" purity="1.5181618928909302e-01" nType="0">
                  <Node pos="l" depth="6" NCoef="0" IVar="-1" Cut="0.0000000000000000e+00" cType="1" res="-5.8224279433488846e-02" rms="3.8191348314285278e-01" purity="1.7800797522068024e-01" nType="-99"/>
                  <Node pos="r" depth="6" NCoef="0" IVar="-1" Cut="0.0000000000000000e+00" cType="1" res="-6.8054080009460449e-02" rms="3.3399659395217896e-01" purity="1.2803819775581360e-01" nType="-99"/>
                </Node>
              </Node>
              <Node pos="r" depth="4" NCoef="0" IVar="0" Cut="9.8956565856933594e+00" cType="0" res="-3.2560360431671143e-01" rms="3.4444448351860046e-01" purity="1.3821777701377869e-01" nType="0">
                <Node pos="l" depth="5" NCoef="0" IVar="0" Cut="1.4353148460388184e+01" cType="0" res="-2.8566047549247742e-01" rms="3.8623076677322388e-01" purity="1.8250811100006104e-01" nType="0">
                  <Node pos="l" depth="6" NCoef="0" IVar="0" Cut="2.7464673995971680e+01" cType="1" res="-2.8201052546501160e-01" rms="3.8951298594474792e-01" purity="1.8651868402957916e-01" nType="0">
                    <Node pos="l" depth="7" NCoef="0" IVar="0" Cut="2.1416540145874023e+01" cType="0" res="-2.7615711092948914e-01" rms="3.9458078145980835e-01" purity="1.9291047751903534e-01" nType="0">
                      <Node pos="l" depth="8" NCoef="0" IVar="-1" Cut="0.0000000000000000e+00" cType="1" res="-5.4620094597339630e-02" rms="3.9825013279914856e-01" purity="1.9768115878105164e-01" nType="-99"/>
                      <Node pos="r" depth="8" NCoef="0" IVar="-1" Cut="0.0000000000000000e+00" cType="1" res="-5.6051775813102722e-02" rms="3.9182376861572266e-01" purity="1.8938961625099182e-01" nType="-99"/>
                    </Node>
                    <Node pos="r" depth="7" NCoef="0" IVar="-1" Cut="0.0000000000000000e+00" cType="1" res="-5.8071877807378769e-02" rms="3.8311037421226501e-01" purity="1.7871104180812836e-01" nType="-99"/>
                  </Node>
                  <Node pos="r" depth="6" NCoef="0" IVar="-1" Cut="0.0000000000000000e+00" cType="1" res="-6.0488093644380569e-02" rms="3.7164005637168884e-01" purity="1.6555407643318176e-01" nType="-99"/>
                </Node>
                <Node pos="r" depth="5" NCoef="0" IVar="0" Cut="-3.8932607173919678e+00" cType="1" res="-3.5301551222801208e-01" rms="3.0958399176597595e-01" purity="1.0782251507043839e-01" nType="0">
                  <Node pos="l" depth="6" NCoef="0" IVar="1" Cut="1.3778810501098633e+00" cType="1" res="-3.1367123126983643e-01" rms="3.5775607824325562e-01" purity="1.5094779431819916e-01" nType="0">
                    <Node pos="l" depth="7" NCoef="0" IVar="-1" Cut="0.0000000000000000e+00" cType="1" res="-5.9102278202772141e-02" rms="3.7745031714439392e-01" purity="1.7226964235305786e-01" nType="-99"/>
                    <Node pos="r" depth="7" NCoef="0" IVar="-1" Cut="0.0000000000000000e+00" cType="1" res="-6.6237151622772217e-02" rms="3.4026432037353516e-01" purity="1.3378207385540009e-01" nType="-99"/>
                  </Node>
                  <Node pos="r" depth="6" NCoef="0" IVar="0" Cut="6.6017580032348633e+00" cType="0" res="-3.7172818183898926e-01" rms="2.8189757466316223e-01" purity="8.7311558425426483e-02" nType="0">
                    <Node pos="l" depth="7" NCoef="0" IVar="-1" Cut="0.0000000000000000e+00" cType="1" res="-7.0713147521018982e-02" rms="3.1219181418418884e-01" purity="1.0952564328908920e-01" nType="-99"/>
                    <Node pos="r" depth="7" NCoef="0" IVar="0" Cut="2.0806035995483398e+00" cType="1" res="-3.7654680013656616e-01" rms="2.7400532364845276e-01" purity="8.2045890390872955e-02" nType="0">
                      <Node pos="l" depth="8" NCoef="0" IVar="1" Cut="1.3695105314254761e+00" cType="1" res="-3.6272993683815002e-01" rms="2.9717409610748291e-01" purity="9.8008468747138977e-02" nType="0">
                        <Node pos="l" depth="9" NCoef="0" IVar="-1" Cut="0.0000000000000000e+00" cType="1" res="-6.9360166788101196e-02" rms="3.2206782698631287e-01" purity="1.1764705926179886e-01" nType="-99"/>
                        <Node pos="r" depth="9" NCoef="0" IVar="-1" Cut="0.0000000000000000e+00" cType="1" res="-7.6114967465400696e-02" rms="2.7314731478691101e-01" purity="8.1199072301387787e-02" nType="-99"/>
                      </Node>
                      <Node pos="r" depth="8" NCoef="0" IVar="-1" Cut="0.0000000000000000e+00" cType="1" res="-7.9803504049777985e-02" rms="2.3651742935180664e-01" purity="5.9732574969530106e-02" nType="-99"/>
                    </Node>
                  </Node>
                </Node>
              </Node>
            </Node>
            <Node pos="r" depth="3" NCoef="0" IVar="1" Cut="-1.1654848098754883e+01" cType="0" res="-3.8857623934745789e-01" rms="2.5204879045486450e-01" purity="6.8401046097278595e-02" nType="0">
              <Node pos="l" depth="4" NCoef="0" IVar="0" Cut="-4.2652826309204102e+00" cType="1" res="-3.7155047059059143e-01" rms="2.8205168247222900e-01" purity="8.7309941649436951e-02" nType="0">
                <Node pos="l" depth="5" NCoef="0" IVar="-1" Cut="0.0000000000000000e+00" cType="1" res="-6.8059273064136505e-02" rms="3.2975462079048157e-01" purity="1.2415599077939987e-01" nType="-99"/>
                <Node pos="r" depth="5" NCoef="0" IVar="1" Cut="-4.3088726997375488e+00" cType="0" res="-3.8614982366561890e-01" rms="2.5692185759544373e-01" purity="7.1090623736381531e-02" nType="0">
                  <Node pos="l" depth="6" NCoef="0" IVar="-1" Cut="0.0000000000000000e+00" cType="1" res="-7.5083926320075989e-02" rms="2.8015348315238953e-01" purity="8.5857056081295013e-02" nType="-99"/>
                  <Node pos="r" depth="6" NCoef="0" IVar="-1" Cut="0.0000000000000000e+00" cType="1" res="-7.9615697264671326e-02" rms="2.3973661661148071e-01" purity="6.1222422868013382e-02" nType="-99"/>
                </Node>
              </Node>
              <Node pos="r" depth="4" NCoef="0" IVar="0" Cut="-7.6260946691036224e-02" cType="0" res="-4.1565936803817749e-01" rms="1.9194655120372772e-01" purity="3.8322389125823975e-02" nType="0">
                <Node pos="l" depth="5" NCoef="0" IVar="-1" Cut="0.0000000000000000e+00" cType="1" res="-8.1879608333110809e-02" rms="2.1357059478759766e-01" purity="4.7918163239955902e-02" nType="-99"/>
                <Node pos="r" depth="5" NCoef="0" IVar="-1" Cut="0.0000000000000000e+00" cType="1" res="-8.5011601448059082e-02" rms="1.7756569385528564e-01" purity="3.2606370747089386e-02" nType="-99"/>
              </Node>
            </Node>
          </Node>
        </Node>
        <Node pos="r" depth="1" NCoef="0" IVar="1" Cut="1.2772896766662598e+01" cType="1" res="-3.9835888147354126e-01" rms="2.3335926234722137e-01" purity="5.8064948767423630e-02" nType="0">
          <Node pos="l" depth="2" NCoef="0" IVar="0" Cut="-4.9947791099548340e+00" cType="1" res="-3.7436115741729736e-01" rms="2.7824243903160095e-01" purity="8.4757722914218903e-02" nType="0">
            <Node pos="l" depth="3" NCoef="0" IVar="-1" Cut="0.0000000000000000e+00" cType="1" res="-6.8530276417732239e-02" rms="3.2796052098274231e-01" purity="1.2276785820722580e-01" nType="-99"/>
            <Node pos="r" depth="3" NCoef="0" IVar="0" Cut="-3.9085702896118164e+00" cType="1" res="-3.8439077138900757e-01" rms="2.6073983311653137e-01" purity="7.3412448167800903e-02" nType="0">
              <Node pos="l" depth="4" NCoef="0" IVar="-1" Cut="0.0000000000000000e+00" cType="1" res="-7.4095621705055237e-02" rms="2.8858178853988647e-01" purity="9.1679915785789490e-02" nType="-99"/>
              <Node pos="r" depth="4" NCoef="0" IVar="1" Cut="4.8425450325012207e+00" cType="1" res="-3.8942325115203857e-01" rms="2.5131767988204956e-01" purity="6.7778140306472778e-02" nType="0">
                <Node pos="l" depth="5" NCoef="0" IVar="-1" Cut="0.0000000000000000e+00" cType="1" res="-7.6556518673896790e-02" rms="2.6865532994270325e-01" purity="7.8322052955627441e-02" nType="-99"/>
                <Node pos="r" depth="5" NCoef="0" IVar="0" Cut="-9.0498369932174683e-01" cType="0" res="-3.9588895440101624e-01" rms="2.3829160630702972e-01" purity="6.0438036918640137e-02" nType="0">
                  <Node pos="l" depth="6" NCoef="0" IVar="-1" Cut="0.0000000000000000e+00" cType="1" res="-7.9502619802951813e-02" rms="2.4068921804428101e-01" purity="6.1748053878545761e-02" nType="-99"/>
                  <Node pos="r" depth="6" NCoef="0" IVar="-1" Cut="0.0000000000000000e+00" cType="1" res="-8.0097168684005737e-02" rms="2.3563216626644135e-01" purity="5.9005610644817352e-02" nType="-99"/>
                </Node>
              </Node>
            </Node>
          </Node>
          <Node pos="r" depth="2" NCoef="0" IVar="0" Cut="-4.1777756810188293e-01" cType="0" res="-4.2445006966590881e-01" rms="1.6788160800933838e-01" purity="2.9043618589639664e-02" nType="0">
            <Node pos="l" depth="3" NCoef="0" IVar="-1" Cut="0.0000000000000000e+00" cType="1" res="-8.2686521112918854e-02" rms="2.0380561053752899e-01" purity="4.3440181761980057e-02" nType="-99"/>
            <Node pos="r" depth="3" NCoef="0" IVar="1" Cut="3.8761405944824219e+01" cType="1" res="-4.2808666825294495e-01" rms="1.5747836232185364e-01" purity="2.5465784594416618e-02" nType="0">
              <Node pos="l" depth="4" NCoef="0" IVar="-1" Cut="0.0000000000000000e+00" cType="1" res="-8.3923555910587311e-02" rms="1.9297493994235992e-01" purity="3.8768529891967773e-02" nType="-99"/>
              <Node pos="r" depth="4" NCoef="0" IVar="0" Cut="-2.7730586528778076e+00" cType="1" res="-4.3162050843238831e-01" rms="1.4508195221424103e-01" purity="2.1513270214200020e-02" nType="0">
                <Node pos="l" depth="5" NCoef="0" IVar="0" Cut="-4.4887971878051758e+00" cType="0" res="-4.2866882681846619e-01" rms="1.5527305006980896e-01" purity="2.4716045707464218e-02" nType="0">
                  <Node pos="l" depth="6" NCoef="0" IVar="-1" Cut="0.0000000000000000e+00" cType="1" res="-8.5507310926914215e-02" rms="1.6839541494846344e-01" purity="2.9211571440100670e-02" nType="-99"/>
                  <Node pos="r" depth="6" NCoef="0" IVar="-1" Cut="0.0000000000000000e+00" cType="1" res="-8.7768964469432831e-02" rms="1.3616982102394104e-01" purity="1.8899083137512207e-02" nType="-99"/>
                </Node>
                <Node pos="r" depth="5" NCoef="0" IVar="-1" Cut="0.0000000000000000e+00" cType="1" res="-8.8539347052574158e-02" rms="1.1674644052982330e-01" purity="1.3824884779751301e-02" nType="-99"/>
              </Node>
            </Node>
          </Node>
        </Node>
      </Node>
    </BinaryTree>
    <BinaryTree type="DecisionTree" boostWeight="1.0000000000000000e+00" itree="2">
      <Node pos="s" depth="0" NCoef="0" IVar="1" Cut="2.8170914649963379e+00" cType="1" res="-3.0613079667091370e-01" rms="3.2397869229316711e-01" purity="1.2246964126825333e-01" nType="0">
        <Node pos="l" depth="1" NCoef="0" IVar="0" Cut="-6.1366572380065918e+00" cType="1" res="-2.8458347916603088e-01" rms="3.5221669077873230e-01" purity="1.4877301454544067e-01" nType="0">
          <Node pos="l" depth="2" NCoef="0" IVar="-1" Cut="0.0000000000000000e+00" cType="1" res="-1.9148932769894600e-02" rms="4.8473712801933289e-01" purity="3.7740346789360046e-01" nType="-99"/>
          <Node pos="r" depth="2" NCoef="0" IVar="1" Cut="-2.1895837783813477e+00" cType="0" res="-2.9306712746620178e-01" rms="3.4264382719993591e-01" purity="1.3851702213287354e-01" nType="0">
            <Node pos="l" depth="3" NCoef="0" IVar="1" Cut="6.1049479246139526e-01" cType="1" res="-2.7137839794158936e-01" rms="3.6913239955902100e-01" purity="1.6519874334335327e-01" nType="0">
              <Node pos="l" depth="4" NCoef="0" IVar="0" Cut="1.3322013616561890e-01" cType="0" res="-2.3035702109336853e-01" rms="4.0891978144645691e-01" purity="2.1542626619338989e-01" nType="0">
                <Node pos="l" depth="5" NCoef="0" IVar="-1" Cut="0.0000000000000000e+00" cType="1" res="-2.9782598838210106e-02" rms="4.6227836608886719e-01" purity="3.1444647908210754e-01" nType="-99"/>
                <Node pos="r" depth="5" NCoef="0" IVar="1" Cut="-8.3352220058441162e-01" cType="0" res="-2.5211745500564575e-01" rms="3.9073079824447632e-01" purity="1.8927139043807983e-01" nType="0">
                  <Node pos="l" depth="6" NCoef="0" IVar="1" Cut="7.2651259601116180e-02" cType="1" res="-2.2880914807319641e-01" rms="4.1209158301353455e-01" purity="2.1767883002758026e-01" nType="0">
                    <Node pos="l" depth="7" NCoef="0" IVar="0" Cut="-3.9936757087707520e+00" cType="1" res="-2.0932455360889435e-01" rms="4.2612615227699280e-01" purity="2.3908504843711853e-01" nType="0">
                      <Node pos="l" depth="8" NCoef="0" IVar="-1" Cut="0.0000000000000000e+00" cType="1" res="-3.7367723882198334e-02" rms="4.4223865866661072e-01" purity="2.6694682240486145e-01" nType="-99"/>
                      <Node pos="r" depth="8" NCoef="0" IVar="-1" Cut="0.0000000000000000e+00" cType="1" res="-4.7223318368196487e-02" rms="4.0819257497787476e-01" purity="2.1158008277416229e-01" nType="-99"/>
                    </Node>
                    <Node pos="r" depth="7" NCoef="0" IVar="-1" Cut="0.0000000000000000e+00" cType="1" res="-5.2466653287410736e-02" rms="3.8748708367347717e-01" purity="1.8459811806678772e-01" nType="-99"/>
                  </Node>
                  <Node pos="r" depth="6" NCoef="0" IVar="0" Cut="-3.9588568210601807e+00" cType="1" res="-2.9133057594299316e-01" rms="3.4837931394577026e-01" purity="1.4147970080375671e-01" nType="0">
                    <Node pos="l" depth="7" NCoef="0" IVar="-1" Cut="0.0000000000000000e+00" cType="1" res="-5.2467085421085358e-02" rms="3.8018199801445007e-01" purity="1.7539167404174805e-01" nType="-99"/>
                    <Node pos="r" depth="7" NCoef="0" IVar="-1" Cut="0.0000000000000000e+00" cType="1" res="-6.5819904208183289e-02" rms="3.1215950846672058e-01" purity="1.0951008647680283e-01" nType="-99"/>
                  </Node>
                </Node>
              </Node>
              <Node pos="r" depth="4" NCoef="0" IVar="0" Cut="9.1441421508789062e+00" cType="0" res="-2.9444494843482971e-01" rms="3.4259796142578125e-01" purity="1.3695555925369263e-01" nType="0">
                <Node pos="l" depth="5" NCoef="0" IVar="0" Cut="1.4086031913757324e+01" cType="0" res="-2.5851571559906006e-01" rms="3.8472187519073486e-01" purity="1.8076162040233612e-01" nType="0">
                  <Node pos="l" depth="6" NCoef="0" IVar="0" Cut="2.6869913101196289e+01" cType="1" res="-2.5310754776000977e-01" rms="3.9014610648155212e-01" purity="1.8731293082237244e-01" nType="0">
                    <Node pos="l" depth="7" NCoef="0" IVar="0" Cut="1.9818058013916016e+01" cType="1" res="-2.4721445143222809e-01" rms="3.9560633897781372e-01" purity="1.9421936571598053e-01" nType="0">
                      <Node pos="l" depth="8" NCoef="0" IVar="-1" Cut="0.0000000000000000e+00" cType="1" res="-4.9504227936267853e-02" rms="3.9739945530891418e-01" purity="1.9652777910232544e-01" nType="-99"/>
                      <Node pos="r" depth="8" NCoef="0" IVar="-1" Cut="0.0000000000000000e+00" cType="1" res="-5.0711721181869507e-02" rms="3.9391303062438965e-01" purity="1.9207857549190521e-01" nType="-99"/>
                    </Node>
                    <Node pos="r" depth="7" NCoef="0" IVar="0" Cut="3.4809879302978516e+01" cType="1" res="-2.5988170504570007e-01" rms="3.8366168737411499e-01" purity="1.7937391996383667e-01" nType="0">
                      <Node pos="l" depth="8" NCoef="0" IVar="-1" Cut="0.0000000000000000e+00" cType="1" res="-5.2340954542160034e-02" rms="3.8547283411026001e-01" purity="1.8155564367771149e-01" nType="-99"/>
                      <Node pos="r" depth="8" NCoef="0" IVar="-1" Cut="0.0000000000000000e+00" cType="1" res="-5.3167238831520081e-02" rms="3.8184046745300293e-01" purity="1.7720305919647217e-01" nType="-99"/>
                    </Node>
                  </Node>
                  <Node pos="r" depth="6" NCoef="0" IVar="-1" Cut="0.0000000000000000e+00" cType="1" res="-5.6755315512418747e-02" rms="3.6276414990425110e-01" purity="1.5600202977657318e-01" nType="-99"/>
                </Node>
                <Node pos="r" depth="5" NCoef="0" IVar="0" Cut="-3.7923414707183838e+00" cType="1" res="-3.2213199138641357e-01" rms="3.0331945419311523e-01" purity="1.0319858789443970e-01" nType="0">
                  <Node pos="l" depth="6" NCoef="0" IVar="0" Cut="-5.1315059661865234e+00" cType="1" res="-2.8688353300094604e-01" rms="3.5261654853820801e-01" purity="1.4582829177379608e-01" nType="0">
                    <Node pos="l" depth="7" NCoef="0" IVar="-1" Cut="0.0000000000000000e+00" cType="1" res="-5.4160024970769882e-02" rms="3.7434601783752441e-01" purity="1.6871897876262665e-01" nType="-99"/>
                    <Node pos="r" depth="7" NCoef="0" IVar="-1" Cut="0.0000000000000000e+00" cType="1" res="-6.1792496591806412e-02" rms="3.3376756310462952e-01" purity="1.2794370949268341e-01" nType="-99"/>
                  </Node>
                  <Node pos="r" depth="6" NCoef="0" IVar="0" Cut="1.3211683034896851e+00" cType="1" res="-3.4010395407676697e-01" rms="2.7305564284324646e-01" purity="8.1463217735290527e-02" nType="0">
                    <Node pos="l" depth="7" NCoef="0" IVar="1" Cut="1.5611194372177124e+00" cType="1" res="-3.2941070199012756e-01" rms="2.9299482703208923e-01" purity="9.4966761767864227e-02" nType="0">
                      <Node pos="l" depth="8" NCoef="0" IVar="-1" Cut="0.0000000000000000e+00" cType="1" res="-6.5228842198848724e-02" rms="3.1051814556121826e-01" purity="1.0818656533956528e-01" nType="-99"/>
                      <Node pos="r" depth="8" NCoef="0" IVar="-1" Cut="0.0000000000000000e+00" cType="1" res="-6.9554783403873444e-02" rms="2.7470418810844421e-01" purity="8.2230098545551300e-02" nType="-99"/>
                    </Node>
                    <Node pos="r" depth="7" NCoef="0" IVar="0" Cut="5.5591397285461426e+00" cType="0" res="-3.4826335310935974e-01" rms="2.5650224089622498e-01" purity="7.1159422397613525e-02" nType="0">
                      <Node pos="l" depth="8" NCoef="0" IVar="-1" Cut="0.0000000000000000e+00" cType="1" res="-6.7381531000137329e-02" rms="2.9131576418876648e-01" purity="9.3815937638282776e-02" nType="-99"/>
                      <Node pos="r" depth="8" NCoef="0" IVar="-1" Cut="0.0000000000000000e+00" cType="1" res="-7.4864856898784637e-02" rms="2.2329387068748474e-01" purity="5.2886504679918289e-02" nType="-99"/>
                    </Node>
                  </Node>
                </Node>
              </Node>
            </Node>
            <Node pos="r" depth="3" NCoef="0" IVar="1" Cut="-1.1654848098754883e+01" cType="0" res="-3.5006219148635864e-01" rms="2.5174307823181152e-01" purity="6.8401046097278595e-02" nType="0">
              <Node pos="l" depth="4" NCoef="0" IVar="0" Cut="-3.6416492462158203e+00" cType="1" res="-3.3469465374946594e-01" rms="2.8186517953872681e-01" purity="8.7309941649436951e-02" nType="0">
                <Node pos="l" depth="5" NCoef="0" IVar="-1" Cut="0.0000000000000000e+00" cType="1" res="-6.3435956835746765e-02" rms="3.2033398747444153e-01" purity="1.1623036861419678e-01" nType="-99"/>
                <Node pos="r" depth="5" NCoef="0" IVar="1" Cut="-4.1385970115661621e+00" cType="0" res="-3.5110431909561157e-01" rms="2.5137808918952942e-01" purity="6.7850351333618164e-02" nType="0">
                  <Node pos="l" depth="6" NCoef="0" IVar="-1" Cut="0.0000000000000000e+00" cType="1" res="-6.9034896790981293e-02" rms="2.7889275550842285e-01" purity="8.5007444024085999e-02" nType="-99"/>
                  <Node pos="r" depth="6" NCoef="0" IVar="-1" Cut="0.0000000000000000e+00" cType="1" res="-7.4001990258693695e-02" rms="2.3257595300674438e-01" purity="5.7389136403799057e-02" nType="-99"/>
                </Node>
              </Node>
              <Node pos="r" depth="4" NCoef="0" IVar="1" Cut="-3.1888076782226562e+01" cType="0" res="-3.7450754642486572e-01" rms="1.9191972911357880e-01" purity="3.8322389125823975e-02" nType="0">
                <Node pos="l" depth="5" NCoef="0" IVar="-1" Cut="0.0000000000000000e+00" cType="1" res="-7.5192354619503021e-02" rms="2.1577192842960358e-01" purity="4.8963133245706558e-02" nType="-99"/>
                <Node pos="r" depth="5" NCoef="0" IVar="-1" Cut="0.0000000000000000e+00" cType="1" res="-7.8353717923164368e-02" rms="1.7760549485683441e-01" purity="3.2619882375001907e-02" nType="-99"/>
              </Node>
            </Node>
          </Node>
        </Node>
        <Node pos="r" depth="1" NCoef="0" IVar="1" Cut="1.2772896766662598e+01" cType="1" res="-3.5889011621475220e-01" rms="2.3299895226955414e-01" purity="5.8064948767423630e-02" nType="0">
          <Node pos="l" depth="2" NCoef="0" IVar="0" Cut="-4.9947791099548340e+00" cType="1" res="-3.3722722530364990e-01" rms="2.7809739112854004e-01" purity="8.4757722914218903e-02" nType="0">
            <Node pos="l" depth="3" NCoef="0" IVar="-1" Cut="0.0000000000000000e+00" cType="1" res="-6.2632456421852112e-02" rms="3.2796236872673035e-01" purity="1.2276785820722580e-01" nType="-99"/>
            <Node pos="r" depth="3" NCoef="0" IVar="0" Cut="-3.9085702896118164e+00" cType="1" res="-3.4627777338027954e-01" rms="2.6069408655166626e-01" purity="7.3412448167800903e-02" nType="0">
              <Node pos="l" depth="4" NCoef="0" IVar="-1" Cut="0.0000000000000000e+00" cType="1" res="-6.7911855876445770e-02" rms="2.8858157992362976e-01" purity="9.1679915785789490e-02" nType="-99"/>
              <Node pos="r" depth="4" NCoef="0" IVar="1" Cut="4.8922872543334961e+00" cType="1" res="-3.5081979632377625e-01" rms="2.5129526853561401e-01" purity="6.7778140306472778e-02" nType="0">
                <Node pos="l" depth="5" NCoef="0" IVar="-1" Cut="0.0000000000000000e+00" cType="1" res="-7.0279359817504883e-02" rms="2.6837885379791260e-01" purity="7.8147426247596741e-02" nType="-99"/>
                <Node pos="r" depth="5" NCoef="0" IVar="1" Cut="7.3572964668273926e+00" cType="1" res="-3.5674750804901123e-01" rms="2.3811532557010651e-01" purity="6.0342408716678619e-02" nType="0">
                  <Node pos="l" depth="6" NCoef="0" IVar="-1" Cut="0.0000000000000000e+00" cType="1" res="-7.3095209896564484e-02" rms="2.4106240272521973e-01" purity="6.1950147151947021e-02" nType="-99"/>
                  <Node pos="r" depth="6" NCoef="0" IVar="-1" Cut="0.0000000000000000e+00" cType="1" res="-7.3650375008583069e-02" rms="2.3499646782875061e-01" purity="5.8666158467531204e-02" nType="-99"/>
                </Node>
              </Node>
            </Node>
          </Node>
          <Node pos="r" depth="2" NCoef="0" IVar="0" Cut="-4.1777756810188293e-01" cType="0" res="-3.8244274258613586e-01" rms="1.6781884431838989e-01" purity="2.9043618589639664e-02" nType="0">
            <Node pos="l" depth="3" NCoef="0" IVar="-1" Cut="0.0000000000000000e+00" cType="1" res="-7.6171785593032837e-02" rms="2.0380640029907227e-01" purity="4.3440181761980057e-02" nType="-99"/>
            <Node pos="r" depth="3" NCoef="0" IVar="1" Cut="3.8761405944824219e+01" cType="1" res="-3.8572356104850769e-01" rms="1.5743385255336761e-01" purity="2.5465784594416618e-02" nType="0">
              <Node pos="l" depth="4" NCoef="0" IVar="-1" Cut="0.0000000000000000e+00" cType="1" res="-7.7300079166889191e-02" rms="1.9297584891319275e-01" purity="3.8768529891967773e-02" nType="-99"/>
              <Node pos="r" depth="4" NCoef="0" IVar="0" Cut="-2.7730586528778076e+00" cType="1" res="-3.8891509175300598e-01" rms="1.4505355060100555e-01" purity="2.1513270214200020e-02" nType="0">
                <Node pos="l" depth="5" NCoef="0" IVar="0" Cut="-4.4887971878051758e+00" cType="0" res="-3.8624966144561768e-01" rms="1.5525294840335846e-01" purity="2.4716045707464218e-02" nType="0">
                  <Node pos="l" depth="6" NCoef="0" IVar="-1" Cut="0.0000000000000000e+00" cType="1" res="-7.8860469162464142e-02" rms="1.6839548945426941e-01" purity="2.9211571440100670e-02" nType="-99"/>
                  <Node pos="r" depth="6" NCoef="0" IVar="-1" Cut="0.0000000000000000e+00" cType="1" res="-8.0985501408576965e-02" rms="1.3616636395454407e-01" purity="1.8899083137512207e-02" nType="-99"/>
                </Node>
                <Node pos="r" depth="5" NCoef="0" IVar="-1" Cut="0.0000000000000000e+00" cType="1" res="-8.1762880086898804e-02" rms="1.1674682796001434e-01" purity="1.3824884779751301e-02" nType="-99"/>
              </Node>
            </Node>
          </Node>
        </Node>
      </Node>
    </BinaryTree>
    <BinaryTree type="DecisionTree" boostWeight="1.0000000000000000e+00" itree="3">
      <Node pos="s" depth="0" NCoef="0" IVar="1" Cut="2.2833583354949951e+00" cType="1" res="-2.7587208151817322e-01" rms="3.2254216074943542e-01" purity="1.2246964126825333e-01" nType="0">
        <Node pos="l" depth="1" NCoef="0" IVar="0" Cut="-6.1366572380065918e+00" cType="1" res="-2.5518926978111267e-01" rms="3.5223543643951416e-01" purity="1.5028455853462219e-01" nType="0">
          <Node pos="l" depth="2" NCoef="0" IVar="-1" Cut="0.0000000000000000e+00" cType="1" res="-1.5710970386862755e-02" rms="4.8664221167564392e-01" purity="3.8519862294197083e-01" nType="-99"/>
          <Node pos="r" depth="2" NCoef="0" IVar="1" Cut="-1.7197799682617188e+00" cType="0" res="-2.6312413811683655e-01" rms="3.4285414218902588e-01" purity="1.3975682854652405e-01" nType="0">
            <Node pos="l" depth="3" NCoef="0" IVar="1" Cut="4.6885085105895996e-01" cType="1" res="-2.4074499309062958e-01" rms="3.7243306636810303e-01" purity="1.6988483071327209e-01" nType="0">
              <Node pos="l" depth="4" NCoef="0" IVar="0" Cut="-9.0699777007102966e-02" cType="0" res="-1.9698342680931091e-01" rms="4.1722646355628967e-01" purity="2.2884552180767059e-01" nType="0">
                <Node pos="l" depth="5" NCoef="0" IVar="-1" Cut="0.0000000000000000e+00" cType="1" res="-2.3283645510673523e-02" rms="4.7059386968612671e-01" purity="3.3503130078315735e-01" nType="-99"/>
                <Node pos="r" depth="5" NCoef="0" IVar="1" Cut="-8.3279454708099365e-01" cType="0" res="-2.2051171958446503e-01" rms="3.9745065569877625e-01" purity="1.9829139113426208e-01" nType="0">
                  <Node pos="l" depth="6" NCoef="0" IVar="0" Cut="-4.3841819763183594e+00" cType="1" res="-2.0210616290569305e-01" rms="4.1590410470962524e-01" purity="2.2331242263317108e-01" nType="0">
                    <Node pos="l" depth="7" NCoef="0" IVar="-1" Cut="0.0000000000000000e+00" cType="1" res="-3.5868696868419647e-02" rms="4.3634223937988281e-01" purity="2.5628596544265747e-01" nType="-99"/>
                    <Node pos="r" depth="7" NCoef="0" IVar="-1" Cut="0.0000000000000000e+00" cType="1" res="-4.5185592025518417e-02" rms="4.0009111166000366e-01" purity="2.0039996504783630e-01" nType="-99"/>
                  </Node>
                  <Node pos="r" depth="6" NCoef="0" IVar="-1" Cut="0.0000000000000000e+00" cType="1" res="-5.3661916404962540e-02" rms="3.5317248106002808e-01" purity="1.4647634327411652e-01" nType="-99"/>
                </Node>
              </Node>
              <Node pos="r" depth="4" NCoef="0" IVar="0" Cut="9.8956565856933594e+00" cType="0" res="-2.6230362057685852e-01" rms="3.4622651338577271e-01" purity="1.4083853363990784e-01" nType="0">
                <Node pos="l" depth="5" NCoef="0" IVar="0" Cut="1.4353148460388184e+01" cType="0" res="-2.3126150667667389e-01" rms="3.8651627302169800e-01" purity="1.8292906880378723e-01" nType="0">
                  <Node pos="l" depth="6" NCoef="0" IVar="0" Cut="2.7464673995971680e+01" cType="1" res="-2.2844941914081573e-01" rms="3.8979122042655945e-01" purity="1.8689133226871490e-01" nType="0">
                    <Node pos="l" depth="7" NCoef="0" IVar="0" Cut="2.1416540145874023e+01" cType="0" res="-2.2354593873023987e-01" rms="3.9499446749687195e-01" purity="1.9345262646675110e-01" nType="0">
                      <Node pos="l" depth="8" NCoef="0" IVar="-1" Cut="0.0000000000000000e+00" cType="1" res="-4.5258529484272003e-02" rms="3.9818754792213440e-01" purity="1.9760015606880188e-01" nType="-99"/>
                      <Node pos="r" depth="8" NCoef="0" IVar="-1" Cut="0.0000000000000000e+00" cType="1" res="-4.6509671956300735e-02" rms="3.9258843660354614e-01" purity="1.9037356972694397e-01" nType="-99"/>
                    </Node>
                    <Node pos="r" depth="7" NCoef="0" IVar="-1" Cut="0.0000000000000000e+00" cType="1" res="-4.8337951302528381e-02" rms="3.8326922059059143e-01" purity="1.7889447510242462e-01" nType="-99"/>
                  </Node>
                  <Node pos="r" depth="6" NCoef="0" IVar="-1" Cut="0.0000000000000000e+00" cType="1" res="-5.0309285521507263e-02" rms="3.7197992205619812e-01" purity="1.6602241992950439e-01" nType="-99"/>
                </Node>
                <Node pos="r" depth="5" NCoef="0" IVar="0" Cut="-3.8932607173919678e+00" cType="1" res="-2.8635758161544800e-01" rms="3.0930805206298828e-01" purity="1.0822338610887527e-01" nType="0">
                  <Node pos="l" depth="6" NCoef="0" IVar="0" Cut="-5.0671067237854004e+00" cType="1" res="-2.5063028931617737e-01" rms="3.6206957697868347e-01" purity="1.5558272600173950e-01" nType="0">
                    <Node pos="l" depth="7" NCoef="0" IVar="-1" Cut="0.0000000000000000e+00" cType="1" res="-4.8643734306097031e-02" rms="3.7918174266815186e-01" purity="1.7431725561618805e-01" nType="-99"/>
                    <Node pos="r" depth="7" NCoef="0" IVar="-1" Cut="0.0000000000000000e+00" cType="1" res="-5.5108163505792618e-02" rms="3.4450414776802063e-01" purity="1.3789319992065430e-01" nType="-99"/>
                  </Node>
                  <Node pos="r" depth="6" NCoef="0" IVar="0" Cut="6.3467984199523926e+00" cType="0" res="-3.0183690786361694e-01" rms="2.8201302886009216e-01" purity="8.7704285979270935e-02" nType="0">
                    <Node pos="l" depth="7" NCoef="0" IVar="-1" Cut="0.0000000000000000e+00" cType="1" res="-5.9904024004936218e-02" rms="3.0977672338485718e-01" purity="1.0775013267993927e-01" nType="-99"/>
                    <Node pos="r" depth="7" NCoef="0" IVar="0" Cut="2.0789463520050049e+00" cType="1" res="-3.0651816725730896e-01" rms="2.7311354875564575e-01" purity="8.1794194877147675e-02" nType="0">
                      <Node pos="l" depth="8" NCoef="0" IVar="1" Cut="1.2551532983779907e+00" cType="1" res="-2.9236638545989990e-01" rms="3.0166652798652649e-01" purity="1.0152963548898697e-01" nType="0">
                        <Node pos="l" depth="9" NCoef="0" IVar="-1" Cut="0.0000000000000000e+00" cType="1" res="-5.8798726648092270e-02" rms="3.2013750076293945e-01" purity="1.1616834998130798e-01" nType="-99"/>
                        <Node pos="r" depth="9" NCoef="0" IVar="-1" Cut="0.0000000000000000e+00" cType="1" res="-6.3717320561408997e-02" rms="2.8141421079635620e-01" purity="8.6772896349430084e-02" nType="-99"/>
                      </Node>
                      <Node pos="r" depth="8" NCoef="0" IVar="-1" Cut="0.0000000000000000e+00" cType="1" res="-6.8656705319881439e-02" rms="2.3199234902858734e-01" purity="5.7479389011859894e-02" nType="-99"/>
                    </Node>
                  </Node>
                </Node>
              </Node>
            </Node>
            <Node pos="r" depth="3" NCoef="0" IVar="1" Cut="-9.1960258483886719e+00" cType="0" res="-3.1252214312553406e-01" rms="2.5942632555961609e-01" purity="7.3254518210887909e-02" nType="0">
              <Node pos="l" depth="4" NCoef="0" IVar="0" Cut="-4.6784148216247559e+00" cType="1" res="-2.9667580127716064e-01" rms="2.9265680909156799e-01" purity="9.5046199858188629e-02" nType="0">
                <Node pos="l" depth="5" NCoef="0" IVar="-1" Cut="0.0000000000000000e+00" cType="1" res="-5.4777041077613831e-02" rms="3.4315770864486694e-01" purity="1.3643871247768402e-01" nType="-99"/>
                <Node pos="r" depth="5" NCoef="0" IVar="1" Cut="-2.8070631027221680e+00" cType="0" res="-3.0777281522750854e-01" rms="2.7321812510490417e-01" purity="8.1510290503501892e-02" nType="0">
                  <Node pos="l" depth="6" NCoef="0" IVar="-1" Cut="0.0000000000000000e+00" cType="1" res="-6.1210040003061295e-02" rms="3.0615779757499695e-01" purity="1.0474090278148651e-01" nType="-99"/>
                  <Node pos="r" depth="6" NCoef="0" IVar="0" Cut="-2.6246371269226074e+00" cType="1" res="-3.1389859318733215e-01" rms="2.5802099704742432e-01" purity="7.1838423609733582e-02" nType="0">
                    <Node pos="l" depth="7" NCoef="0" IVar="-1" Cut="0.0000000000000000e+00" cType="1" res="-6.4182326197624207e-02" rms="2.7590352296829224e-01" purity="8.3144105970859528e-02" nType="-99"/>
                    <Node pos="r" depth="7" NCoef="0" IVar="-1" Cut="0.0000000000000000e+00" cType="1" res="-6.7860253155231476e-02" rms="2.4293430149555206e-01" purity="6.3027501106262207e-02" nType="-99"/>
                  </Node>
                </Node>
              </Node>
              <Node pos="r" depth="4" NCoef="0" IVar="1" Cut="-2.2058897018432617e+01" cType="0" res="-3.3458861708641052e-01" rms="2.0228219032287598e-01" purity="4.2908966541290283e-02" nType="0">
                <Node pos="l" depth="5" NCoef="0" IVar="-1" Cut="0.0000000000000000e+00" cType="1" res="-6.8273976445198059e-02" rms="2.3557226359844208e-01" purity="5.9209499508142471e-02" nType="-99"/>
                <Node pos="r" depth="5" NCoef="0" IVar="0" Cut="-5.8702343702316284e-01" cType="0" res="-3.4171491861343384e-01" rms="1.8021637201309204e-01" purity="3.3626902848482132e-02" nType="0">
                  <Node pos="l" depth="6" NCoef="0" IVar="-1" Cut="0.0000000000000000e+00" cType="1" res="-7.1163609623908997e-02" rms="2.0067957043647766e-01" purity="4.2062163352966309e-02" nType="-99"/>
                  <Node pos="r" depth="6" NCoef="0" IVar="-1" Cut="0.0000000000000000e+00" cType="1" res="-7.4440754950046539e-02" rms="1.5885455906391144e-01" purity="2.5903204455971718e-02" nType="-99"/>
                </Node>
              </Node>
            </Node>
          </Node>
        </Node>
        <Node pos="r" depth="1" NCoef="0" IVar="1" Cut="1.2719520568847656e+01" cType="1" res="-3.2088083028793335e-01" rms="2.3973891139030457e-01" purity="6.1940368264913559e-02" nType="0">
          <Node pos="l" depth="2" NCoef="0" IVar="0" Cut="-4.9947791099548340e+00" cType="1" res="-3.0196714401245117e-01" rms="2.8257447481155396e-01" purity="8.7945096194744110e-02" nType="0">
            <Node pos="l" depth="3" NCoef="0" IVar="-1" Cut="0.0000000000000000e+00" cType="1" res="-5.7129755616188049e-02" rms="3.3292821049690247e-01" purity="1.2719400227069855e-01" nType="-99"/>
            <Node pos="r" depth="3" NCoef="0" IVar="0" Cut="-3.9085702896118164e+00" cType="1" res="-3.1045377254486084e-01" rms="2.6456329226493835e-01" purity="7.5852617621421814e-02" nType="0">
              <Node pos="l" depth="4" NCoef="0" IVar="-1" Cut="0.0000000000000000e+00" cType="1" res="-6.2400348484516144e-02" rms="2.9213854670524597e-01" purity="9.4252534210681915e-02" nType="-99"/>
              <Node pos="r" depth="4" NCoef="0" IVar="1" Cut="4.8440747261047363e+00" cType="1" res="-3.1465041637420654e-01" rms="2.5498366355895996e-01" purity="6.9974310696125031e-02" nType="0">
                <Node pos="l" depth="5" NCoef="0" IVar="-1" Cut="0.0000000000000000e+00" cType="1" res="-6.4765945076942444e-02" rms="2.7133482694625854e-01" purity="8.0058649182319641e-02" nType="-99"/>
                <Node pos="r" depth="5" NCoef="0" IVar="1" Cut="7.3550162315368652e+00" cType="1" res="-3.2151386141777039e-01" rms="2.3824799060821533e-01" purity="6.0415122658014297e-02" nType="0">
                  <Node pos="l" depth="6" NCoef="0" IVar="-1" Cut="0.0000000000000000e+00" cType="1" res="-6.7837923765182495e-02" rms="2.4114389717578888e-01" purity="6.1996057629585266e-02" nType="-99"/>
                  <Node pos="r" depth="6" NCoef="0" IVar="-1" Cut="0.0000000000000000e+00" cType="1" res="-6.8381786346435547e-02" rms="2.3510143160820007e-01" purity="5.8721933513879776e-02" nType="-99"/>
                </Node>
              </Node>
            </Node>
          </Node>
          <Node pos="r" depth="2" NCoef="0" IVar="0" Cut="-4.1777756810188293e-01" cType="0" res="-3.4478083252906799e-01" rms="1.6786740720272064e-01" purity="2.9079891741275787e-02" nType="0">
            <Node pos="l" depth="3" NCoef="0" IVar="-1" Cut="0.0000000000000000e+00" cType="1" res="-7.0889189839363098e-02" rms="2.0407715439796448e-01" purity="4.3561931699514389e-02" nType="-99"/>
            <Node pos="r" depth="3" NCoef="0" IVar="1" Cut="3.8739547729492188e+01" cType="1" res="-3.4776952862739563e-01" rms="1.5743952989578247e-01" purity="2.5480477139353752e-02" nType="0">
              <Node pos="l" depth="4" NCoef="0" IVar="-1" Cut="0.0000000000000000e+00" cType="1" res="-7.1980029344558716e-02" rms="1.9307285547256470e-01" purity="3.8811057806015015e-02" nType="-99"/>
              <Node pos="r" depth="4" NCoef="0" IVar="0" Cut="-2.7589128017425537e+00" cType="1" res="-3.5066536068916321e-01" rms="1.4500635862350464e-01" purity="2.1505983546376228e-02" nType="0">
                <Node pos="l" depth="5" NCoef="0" IVar="0" Cut="-4.4886517524719238e+00" cType="0" res="-3.4825646877288818e-01" rms="1.5517847239971161e-01" purity="2.4697259068489075e-02" nType="0">
                  <Node pos="l" depth="6" NCoef="0" IVar="-1" Cut="0.0000000000000000e+00" cType="1" res="-7.3570914566516876e-02" rms="1.6822503507137299e-01" purity="2.9150823131203651e-02" nType="-99"/>
                  <Node pos="r" depth="6" NCoef="0" IVar="-1" Cut="0.0000000000000000e+00" cType="1" res="-7.5631462037563324e-02" rms="1.3614900410175323e-01" purity="1.8895614892244339e-02" nType="-99"/>
                </Node>
                <Node pos="r" depth="5" NCoef="0" IVar="-1" Cut="0.0000000000000000e+00" cType="1" res="-7.6450861990451813e-02" rms="1.1643175035715103e-01" purity="1.3749031350016594e-02" nType="-99"/>
              </Node>
            </Node>
          </Node>
        </Node>
      </Node>
    </BinaryTree>
    <BinaryTree type="DecisionTree" boostWeight="1.0000000000000000e+00" itree="4">
      <Node pos="s" depth="0" NCoef="0" IVar="1" Cut="3.3508245944976807e+00" cType="1" res="-2.4868637323379517e-01" rms="3.2134944200515747e-01" purity="1.2246964126825333e-01" nType="0">
        <Node pos="l" depth="1" NCoef="0" IVar="0" Cut="-6.1366572380065918e+00" cType="1" res="-2.3197124898433685e-01" rms="3.4842529892921448e-01" purity="1.4738863706588745e-01" nType="0">
          <Node pos="l" depth="2" NCoef="0" IVar="-1" Cut="0.0000000000000000e+00" cType="1" res="-1.6163809224963188e-02" rms="4.8286741971969604e-01" purity="3.7304657697677612e-01" nType="-99"/>
          <Node pos="r" depth="2" NCoef="0" IVar="1" Cut="-2.1600737571716309e+00" cType="0" res="-2.3876470327377319e-01" rms="3.3959364891052246e-01" purity="1.3729655742645264e-01" nType="0">
            <Node pos="l" depth="3" NCoef="0" IVar="1" Cut="8.2775211334228516e-01" cType="1" res="-2.2195087373256683e-01" rms="3.6525034904479980e-01" purity="1.6256600618362427e-01" nType="0">
              <Node pos="l" depth="4" NCoef="0" IVar="0" Cut="1.4767396450042725e+00" cType="0" res="-1.8852868676185608e-01" rms="4.0484267473220825e-01" purity="2.1150949597358704e-01" nType="0">
                <Node pos="l" depth="5" NCoef="0" IVar="-1" Cut="0.0000000000000000e+00" cType="1" res="-2.1742889657616615e-02" rms="4.6523693203926086e-01" purity="3.2371693849563599e-01" nType="-99"/>
                <Node pos="r" depth="5" NCoef="0" IVar="1" Cut="-8.3266943693161011e-01" cType="0" res="-2.0389369130134583e-01" rms="3.9060646295547485e-01" purity="1.9052870571613312e-01" nType="0">
                  <Node pos="l" depth="6" NCoef="0" IVar="1" Cut="1.4795830845832825e-01" cType="1" res="-1.8706180155277252e-01" rms="4.0874555706977844e-01" purity="2.1456418931484222e-01" nType="0">
                    <Node pos="l" depth="7" NCoef="0" IVar="0" Cut="-4.1696133613586426e+00" cType="1" res="-1.6506794095039368e-01" rms="4.2857599258422852e-01" purity="2.4441851675510406e-01" nType="0">
                      <Node pos="l" depth="8" NCoef="0" IVar="-1" Cut="0.0000000000000000e+00" cType="1" res="-3.0954590067267418e-02" rms="4.4130665063858032e-01" purity="2.6529121398925781e-01" nType="-99"/>
                      <Node pos="r" depth="8" NCoef="0" IVar="-1" Cut="0.0000000000000000e+00" cType="1" res="-3.6552328616380692e-02" rms="4.1854116320610046e-01" purity="2.2892382740974426e-01" nType="-99"/>
                    </Node>
                    <Node pos="r" depth="7" NCoef="0" IVar="-1" Cut="0.0000000000000000e+00" cType="1" res="-4.5603904873132706e-02" rms="3.7809911370277405e-01" purity="1.7399577796459198e-01" nType="-99"/>
                  </Node>
                  <Node pos="r" depth="6" NCoef="0" IVar="0" Cut="-3.7361559867858887e+00" cType="1" res="-2.3731335997581482e-01" rms="3.4943559765815735e-01" purity="1.4280630648136139e-01" nType="0">
                    <Node pos="l" depth="7" NCoef="0" IVar="-1" Cut="0.0000000000000000e+00" cType="1" res="-4.4197119772434235e-02" rms="3.7762230634689331e-01" purity="1.7248639464378357e-01" nType="-99"/>
                    <Node pos="r" depth="7" NCoef="0" IVar="-1" Cut="0.0000000000000000e+00" cType="1" res="-5.6761749088764191e-02" rms="3.1509321928024292e-01" purity="1.1227437108755112e-01" nType="-99"/>
                  </Node>
                </Node>
              </Node>
              <Node pos="r" depth="4" NCoef="0" IVar="0" Cut="9.1441421508789062e+00" cType="0" res="-2.4216680228710175e-01" rms="3.3746296167373657e-01" purity="1.3296176493167877e-01" nType="0">
                <Node pos="l" depth="5" NCoef="0" IVar="0" Cut="1.4086031913757324e+01" cType="0" res="-2.1014393866062164e-01" rms="3.8419666886329651e-01" purity="1.8024079501628876e-01" nType="0">
                  <Node pos="l" depth="6" NCoef="0" IVar="0" Cut="2.6869913101196289e+01" cType="1" res="-2.0549003779888153e-01" rms="3.8988512754440308e-01" purity="1.8703845143318176e-01" nType="0">
                    <Node pos="l" depth="7" NCoef="0" IVar="0" Cut="1.9818058013916016e+01" cType="1" res="-2.0078194141387939e-01" rms="3.9520356059074402e-01" purity="1.9374005496501923e-01" nType="0">
                      <Node pos="l" depth="8" NCoef="0" IVar="-1" Cut="0.0000000000000000e+00" cType="1" res="-4.1399825364351273e-02" rms="3.9691281318664551e-01" purity="1.9596241414546967e-01" nType="-99"/>
                      <Node pos="r" depth="8" NCoef="0" IVar="-1" Cut="0.0000000000000000e+00" cType="1" res="-4.2608000338077545e-02" rms="3.9359089732170105e-01" purity="1.9168144464492798e-01" nType="-99"/>
                    </Node>
                    <Node pos="r" depth="7" NCoef="0" IVar="0" Cut="3.4809879302978516e+01" cType="1" res="-2.1090249717235565e-01" rms="3.8360854983329773e-01" purity="1.7933423817157745e-01" nType="0">
                      <Node pos="l" depth="8" NCoef="0" IVar="-1" Cut="0.0000000000000000e+00" cType="1" res="-4.3960962444543839e-02" rms="3.8533937931060791e-01" purity="1.8139803409576416e-01" nType="-99"/>
                      <Node pos="r" depth="8" NCoef="0" IVar="-1" Cut="0.0000000000000000e+00" cType="1" res="-4.4671956449747086e-02" rms="3.8186585903167725e-01" purity="1.7727360129356384e-01" nType="-99"/>
                    </Node>
                  </Node>
                  <Node pos="r" depth="6" NCoef="0" IVar="-1" Cut="0.0000000000000000e+00" cType="1" res="-4.8236507922410965e-02" rms="3.6129000782966614e-01" purity="1.5448532998561859e-01" nType="-99"/>
                </Node>
                <Node pos="r" depth="5" NCoef="0" IVar="0" Cut="-4.6094121932983398e+00" cType="1" res="-2.6621416211128235e-01" rms="2.9530778527259827e-01" purity="9.7457855939865112e-02" nType="0">
                  <Node pos="l" depth="6" NCoef="0" IVar="-1" Cut="0.0000000000000000e+00" cType="1" res="-4.8296574503183365e-02" rms="3.5908833146095276e-01" purity="1.5238553285598755e-01" nType="-99"/>
                  <Node pos="r" depth="6" NCoef="0" IVar="1" Cut="1.0010198354721069e+00" cType="0" res="-2.7721285820007324e-01" rms="2.7349710464477539e-01" purity="8.1850774586200714e-02" nType="0">
                    <Node pos="l" depth="7" NCoef="0" IVar="1" Cut="1.7595442533493042e+00" cType="1" res="-2.6680836081504822e-01" rms="2.9276487231254578e-01" purity="9.4817094504833221e-02" nType="0">
                      <Node pos="l" depth="8" NCoef="0" IVar="-1" Cut="0.0000000000000000e+00" cType="1" res="-5.4947700351476669e-02" rms="3.1374257802963257e-01" purity="1.1074160039424896e-01" nType="-99"/>
                      <Node pos="r" depth="8" NCoef="0" IVar="-1" Cut="0.0000000000000000e+00" cType="1" res="-5.9595450758934021e-02" rms="2.7855110168457031e-01" purity="8.4835849702358246e-02" nType="-99"/>
                    </Node>
                    <Node pos="r" depth="7" NCoef="0" IVar="0" Cut="5.5560059547424316e+00" cType="0" res="-2.8908798098564148e-01" rms="2.4916535615921021e-01" purity="6.7051768302917480e-02" nType="0">
                      <Node pos="l" depth="8" NCoef="0" IVar="-1" Cut="0.0000000000000000e+00" cType="1" res="-5.9109527617692947e-02" rms="2.8337126970291138e-01" purity="8.8225014507770538e-02" nType="-99"/>
                      <Node pos="r" depth="8" NCoef="0" IVar="-1" Cut="0.0000000000000000e+00" cType="1" res="-6.5931260585784912e-02" rms="2.2053293883800507e-01" purity="5.1810864359140396e-02" nType="-99"/>
                    </Node>
                  </Node>
                </Node>
              </Node>
            </Node>
            <Node pos="r" depth="3" NCoef="0" IVar="1" Cut="-1.1625373840332031e+01" cType="0" res="-2.8451332449913025e-01" rms="2.5150969624519348e-01" purity="6.8541117012500763e-02" nType="0">
              <Node pos="l" depth="4" NCoef="0" IVar="0" Cut="-3.4857409000396729e+00" cType="1" res="-2.7190801501274109e-01" rms="2.8180500864982605e-01" purity="8.7469659745693207e-02" nType="0">
                <Node pos="l" depth="5" NCoef="0" IVar="-1" Cut="0.0000000000000000e+00" cType="1" res="-5.4358299821615219e-02" rms="3.1819173693656921e-01" purity="1.1456196755170822e-01" nType="-99"/>
                <Node pos="r" depth="5" NCoef="0" IVar="1" Cut="-4.4627995491027832e+00" cType="0" res="-2.8642830252647400e-01" rms="2.5010341405868530e-01" purity="6.7154891788959503e-02" nType="0">
                  <Node pos="l" depth="6" NCoef="0" IVar="-1" Cut="0.0000000000000000e+00" cType="1" res="-6.0037478804588318e-02" rms="2.7410072088241577e-01" purity="8.1858403980731964e-02" nType="-99"/>
                  <Node pos="r" depth="6" NCoef="0" IVar="-1" Cut="0.0000000000000000e+00" cType="1" res="-6.4665175974369049e-02" rms="2.3000420629978180e-01" purity="5.6048333644866943e-02" nType="-99"/>
                </Node>
              </Node>
              <Node pos="r" depth="4" NCoef="0" IVar="0" Cut="-7.6260946691036224e-02" cType="0" res="-3.0466800928115845e-01" rms="1.9173809885978699e-01" purity="3.8276232779026031e-02" nType="0">
                <Node pos="l" depth="5" NCoef="0" IVar="-1" Cut="0.0000000000000000e+00" cType="1" res="-6.5616726875305176e-02" rms="2.1348103880882263e-01" purity="4.7883786261081696e-02" nType="-99"/>
                <Node pos="r" depth="5" NCoef="0" IVar="-1" Cut="0.0000000000000000e+00" cType="1" res="-6.8792499601840973e-02" rms="1.7734296619892120e-01" purity="3.2557643949985504e-02" nType="-99"/>
              </Node>
            </Node>
          </Node>
        </Node>
        <Node pos="r" depth="1" NCoef="0" IVar="1" Cut="1.8475431442260742e+01" cType="1" res="-2.9418227076530457e-01" rms="2.2599843144416809e-01" purity="5.4644118994474411e-02" nType="0">
          <Node pos="l" depth="2" NCoef="0" IVar="0" Cut="-4.9947791099548340e+00" cType="1" res="-2.7765280008316040e-01" rms="2.6970848441123962e-01" purity="7.9367227852344513e-02" nType="0">
            <Node pos="l" depth="3" NCoef="0" IVar="-1" Cut="0.0000000000000000e+00" cType="1" res="-5.4914370179176331e-02" rms="3.1834778189659119e-01" purity="1.1465586721897125e-01" nType="-99"/>
            <Node pos="r" depth="3" NCoef="0" IVar="1" Cut="5.1416349411010742e+00" cType="1" res="-2.8331676125526428e-01" rms="2.5503715872764587e-01" purity="7.0058524608612061e-02" nType="0">
              <Node pos="l" depth="4" NCoef="0" IVar="-1" Cut="0.0000000000000000e+00" cType="1" res="-5.9878397732973099e-02" rms="2.7474483847618103e-01" purity="8.2305021584033966e-02" nType="-99"/>
              <Node pos="r" depth="4" NCoef="0" IVar="0" Cut="-2.9431331157684326e+00" cType="1" res="-2.8793072700500488e-01" rms="2.4330684542655945e-01" purity="6.3271813094615936e-02" nType="0">
                <Node pos="l" depth="5" NCoef="0" IVar="-1" Cut="0.0000000000000000e+00" cType="1" res="-6.1819542199373245e-02" rms="2.5811848044395447e-01" purity="7.1894243359565735e-02" nType="-99"/>
                <Node pos="r" depth="5" NCoef="0" IVar="-1" Cut="0.0000000000000000e+00" cType="1" res="-6.3986368477344513e-02" rms="2.3425933718681335e-01" purity="5.8280922472476959e-02" nType="-99"/>
              </Node>
            </Node>
          </Node>
          <Node pos="r" depth="2" NCoef="0" IVar="1" Cut="4.5770339965820312e+01" cType="1" res="-3.1307458877563477e-01" rms="1.6012954711914062e-01" purity="2.6386957615613937e-02" nType="0">
            <Node pos="l" depth="3" NCoef="0" IVar="-1" Cut="0.0000000000000000e+00" cType="1" res="-6.8648077547550201e-02" rms="1.7747251689434052e-01" purity="3.2622192054986954e-02" nType="-99"/>
            <Node pos="r" depth="3" NCoef="0" IVar="1" Cut="4.8846908569335938e+01" cType="0" res="-3.1539386510848999e-01" rms="1.5026336908340454e-01" purity="2.3142438381910324e-02" nType="0">
              <Node pos="l" depth="4" NCoef="0" IVar="0" Cut="-3.7794132232666016e+00" cType="0" res="-3.1373718380928040e-01" rms="1.5573461353778839e-01" purity="2.4906383827328682e-02" nType="0">
                <Node pos="l" depth="5" NCoef="0" IVar="-1" Cut="0.0000000000000000e+00" cType="1" res="-6.9241508841514587e-02" rms="1.6673138737678528e-01" purity="2.8665568679571152e-02" nType="-99"/>
                <Node pos="r" depth="5" NCoef="0" IVar="-1" Cut="0.0000000000000000e+00" cType="1" res="-7.0953197777271271e-02" rms="1.4229634404182434e-01" purity="2.0690929144620895e-02" nType="-99"/>
              </Node>
              <Node pos="r" depth="4" NCoef="0" IVar="-1" Cut="0.0000000000000000e+00" cType="1" res="-7.1216881275177002e-02" rms="1.3817630708217621e-01" purity="1.9487550482153893e-02" nType="-99"/>
            </Node>
          </Node>
        </Node>
      </Node>
    </BinaryTree>
    <BinaryTree type="DecisionTree" boostWeight="1.0000000000000000e+00" itree="5">
      <Node pos="s" depth="0" NCoef="0" IVar="1" Cut="2.2833583354949951e+00" cType="1" res="-2.2423465549945831e-01" rms="3.2037189602851868e-01" purity="1.2246964126825333e-01" nType="0">
        <Node pos="l" depth="1" NCoef="0" IVar="1" Cut="-1.7197799682617188e+00" cType="0" res="-2.0726142823696136e-01" rms="3.5011553764343262e-01" purity="1.5028455853462219e-01" nType="0">
          <Node pos="l" depth="2" NCoef="0" IVar="0" Cut="-6.0411376953125000e+00" cType="1" res="-1.8668805062770844e-01" rms="3.8033497333526611e-01" purity="1.8286022543907166e-01" nType="0">
            <Node pos="l" depth="3" NCoef="0" IVar="-1" Cut="0.0000000000000000e+00" cType="1" res="-9.1737108305096626e-03" rms="4.8582673072814941e-01" purity="3.9301896095275879e-01" nType="-99"/>
            <Node pos="r" depth="3" NCoef="0" IVar="1" Cut="4.1483592987060547e-01" cType="1" res="-1.9582606852054596e-01" rms="3.7065041065216064e-01" purity="1.6930122673511505e-01" nType="0">
              <Node pos="l" depth="4" NCoef="0" IVar="0" Cut="1.1468429118394852e-01" cType="0" res="-1.5898503363132477e-01" rms="4.1618230938911438e-01" purity="2.2918154299259186e-01" nType="0">
                <Node pos="l" depth="5" NCoef="0" IVar="-1" Cut="0.0000000000000000e+00" cType="1" res="-1.7957463860511780e-02" rms="4.7162640094757080e-01" purity="3.3851361274719238e-01" nType="-99"/>
                <Node pos="r" depth="5" NCoef="0" IVar="1" Cut="-8.3246064186096191e-01" cType="0" res="-1.7918083071708679e-01" rms="3.9673477411270142e-01" purity="1.9816674292087555e-01" nType="0">
                  <Node pos="l" depth="6" NCoef="0" IVar="0" Cut="-4.6071982383728027e+00" cType="1" res="-1.6260561347007751e-01" rms="4.1704797744750977e-01" purity="2.2539661824703217e-01" nType="0">
                    <Node pos="l" depth="7" NCoef="0" IVar="-1" Cut="0.0000000000000000e+00" cType="1" res="-2.8622550889849663e-02" rms="4.3938285112380981e-01" purity="2.6187717914581299e-01" nType="-99"/>
                    <Node pos="r" depth="7" NCoef="0" IVar="-1" Cut="0.0000000000000000e+00" cType="1" res="-3.7214055657386780e-02" rms="4.0439292788505554e-01" purity="2.0653150975704193e-01" nType="-99"/>
                  </Node>
                  <Node pos="r" depth="6" NCoef="0" IVar="-1" Cut="0.0000000000000000e+00" cType="1" res="-4.6177558600902557e-02" rms="3.5108631849288940e-01" purity="1.4457830786705017e-01" nType="-99"/>
                </Node>
              </Node>
              <Node pos="r" depth="4" NCoef="0" IVar="0" Cut="1.0861568450927734e+01" cType="0" res="-2.1303665637969971e-01" rms="3.4599864482879639e-01" purity="1.4132766425609589e-01" nType="0">
                <Node pos="l" depth="5" NCoef="0" IVar="0" Cut="3.4563484191894531e+01" cType="1" res="-1.8664404749870300e-01" rms="3.8783743977546692e-01" purity="1.8454524874687195e-01" nType="0">
                  <Node pos="l" depth="6" NCoef="0" IVar="0" Cut="2.1719951629638672e+01" cType="0" res="-1.8491721153259277e-01" rms="3.8959714770317078e-01" purity="1.8677981197834015e-01" nType="0">
                    <Node pos="l" depth="7" NCoef="0" IVar="-1" Cut="0.0000000000000000e+00" cType="1" res="-3.8778517395257950e-02" rms="3.9333584904670715e-01" purity="1.9140170514583588e-01" nType="-99"/>
                    <Node pos="r" depth="7" NCoef="0" IVar="0" Cut="1.5691100120544434e+01" cType="0" res="-1.8793717026710510e-01" rms="3.8640388846397400e-01" purity="1.8289870023727417e-01" nType="0">
                      <Node pos="l" depth="8" NCoef="0" IVar="-1" Cut="0.0000000000000000e+00" cType="1" res="-4.0847264230251312e-02" rms="3.8679781556129456e-01" purity="1.8322034180164337e-01" nType="-99"/>
                      <Node pos="r" depth="8" NCoef="0" IVar="-1" Cut="0.0000000000000000e+00" cType="1" res="-3.9656285196542740e-02" rms="3.8593545556068420e-01" purity="1.8254558742046356e-01" nType="-99"/>
                    </Node>
                  </Node>
                  <Node pos="r" depth="6" NCoef="0" IVar="-1" Cut="0.0000000000000000e+00" cType="1" res="-4.1507016867399216e-02" rms="3.8087904453277588e-01" purity="1.7590001225471497e-01" nType="-99"/>
                </Node>
                <Node pos="r" depth="5" NCoef="0" IVar="1" Cut="9.9005240201950073e-01" cType="1" res="-2.3173084855079651e-01" rms="3.1164890527725220e-01" purity="1.1071612685918808e-01" nType="0">
                  <Node pos="l" depth="6" NCoef="0" IVar="-1" Cut="0.0000000000000000e+00" cType="1" res="-4.2818590998649597e-02" rms="3.6727172136306763e-01" purity="1.6188083589076996e-01" nType="-99"/>
                  <Node pos="r" depth="6" NCoef="0" IVar="1" Cut="1.0024708509445190e+00" cType="0" res="-2.4197341501712799e-01" rms="2.9254934191703796e-01" purity="9.5707714557647705e-02" nType="0">
                    <Node pos="l" depth="7" NCoef="0" IVar="0" Cut="-3.8975262641906738e+00" cType="1" res="-2.2502051293849945e-01" rms="3.2411786913871765e-01" purity="1.2001974135637283e-01" nType="0">
                      <Node pos="l" depth="8" NCoef="0" IVar="-1" Cut="0.0000000000000000e+00" cType="1" res="-4.6202071011066437e-02" rms="3.5052654147148132e-01" purity="1.4389881491661072e-01" nType="-99"/>
                      <Node pos="r" depth="8" NCoef="0" IVar="-1" Cut="0.0000000000000000e+00" cType="1" res="-5.3164061158895493e-02" rms="2.9782703518867493e-01" purity="9.8512262105941772e-02" nType="-99"/>
                    </Node>
                    <Node pos="r" depth="7" NCoef="0" IVar="0" Cut="5.4949140548706055e+00" cType="0" res="-2.5877115130424500e-01" rms="2.5637689232826233e-01" purity="7.1618221700191498e-02" nType="0">
                      <Node pos="l" depth="8" NCoef="0" IVar="-1" Cut="0.0000000000000000e+00" cType="1" res="-5.3383287042379379e-02" rms="2.9935044050216675e-01" purity="1.0001280903816223e-01" nType="-99"/>
                      <Node pos="r" depth="8" NCoef="0" IVar="-1" Cut="0.0000000000000000e+00" cType="1" res="-6.4894303679466248e-02" rms="1.8983146548271179e-01" purity="3.7521142512559891e-02" nType="-99"/>
                    </Node>
                  </Node>
                </Node>
              </Node>
            </Node>
          </Node>
          <Node pos="r" depth="2" NCoef="0" IVar="1" Cut="-9.1960258483886719e+00" cType="0" res="-2.5416788458824158e-01" rms="2.6284652948379517e-01" purity="7.6013356447219849e-02" nType="0">
            <Node pos="l" depth="3" NCoef="0" IVar="0" Cut="-4.8220872879028320e+00" cType="1" res="-2.4030888080596924e-01" rms="2.9733321070671082e-01" purity="9.9383056163787842e-02" nType="0">
              <Node pos="l" depth="4" NCoef="0" IVar="-1" Cut="0.0000000000000000e+00" cType="1" res="-4.5459814369678497e-02" rms="3.5684829950332642e-01" purity="1.5161757171154022e-01" nType="-99"/>
              <Node pos="r" depth="4" NCoef="0" IVar="0" Cut="-3.4925475120544434e+00" cType="1" res="-2.5063171982765198e-01" rms="2.7439162135124207e-01" purity="8.2367748022079468e-02" nType="0">
                <Node pos="l" depth="5" NCoef="0" IVar="-1" Cut="0.0000000000000000e+00" cType="1" res="-5.2907776087522507e-02" rms="3.0318179726600647e-01" purity="1.0263653844594955e-01" nType="-99"/>
                <Node pos="r" depth="5" NCoef="0" IVar="1" Cut="-3.3111867904663086e+00" cType="0" res="-2.5573635101318359e-01" rms="2.6226252317428589e-01" purity="7.4547700583934784e-02" nType="0">
                  <Node pos="l" depth="6" NCoef="0" IVar="-1" Cut="0.0000000000000000e+00" cType="1" res="-5.5154450237751007e-02" rms="2.9067659378051758e-01" purity="9.3217127025127411e-02" nType="-99"/>
                  <Node pos="r" depth="6" NCoef="0" IVar="-1" Cut="0.0000000000000000e+00" cType="1" res="-5.9579450637102127e-02" rms="2.4277351796627045e-01" purity="6.2934592366218567e-02" nType="-99"/>
                </Node>
              </Node>
            </Node>
            <Node pos="r" depth="3" NCoef="0" IVar="1" Cut="-2.2058897018432617e+01" cType="0" res="-2.7381348609924316e-01" rms="2.0259587466716766e-01" purity="4.2885974049568176e-02" nType="0">
              <Node pos="l" depth="4" NCoef="0" IVar="-1" Cut="0.0000000000000000e+00" cType="1" res="-6.0162927955389023e-02" rms="2.3611775040626526e-01" purity="5.9451926499605179e-02" nType="-99"/>
              <Node pos="r" depth="4" NCoef="0" IVar="0" Cut="-5.7316476106643677e-01" cType="0" res="-2.8030726313591003e-01" rms="1.8050168454647064e-01" purity="3.3482730388641357e-02" nType="0">
                <Node pos="l" depth="5" NCoef="0" IVar="-1" Cut="0.0000000000000000e+00" cType="1" res="-6.3049599528312683e-02" rms="2.0150567591190338e-01" purity="4.2433347553014755e-02" nType="-99"/>
                <Node pos="r" depth="5" NCoef="0" IVar="-1" Cut="0.0000000000000000e+00" cType="1" res="-6.7016825079917908e-02" rms="1.5936572849750519e-01" purity="2.5607137009501457e-02" nType="-99"/>
              </Node>
            </Node>
          </Node>
        </Node>
        <Node pos="r" depth="1" NCoef="0" IVar="1" Cut="1.2719520568847656e+01" cType="1" res="-2.6117086410522461e-01" rms="2.3926691710948944e-01" purity="6.1940368264913559e-02" nType="0">
          <Node pos="l" depth="2" NCoef="0" IVar="0" Cut="-3.9907040596008301e+00" cType="1" res="-2.4572528898715973e-01" rms="2.8236985206604004e-01" purity="8.7945096194744110e-02" nType="0">
            <Node pos="l" depth="3" NCoef="0" IVar="1" Cut="3.7063395977020264e+00" cType="1" res="-2.3070947825908661e-01" rms="3.1684571504592896e-01" purity="1.1363173276185989e-01" nType="0">
              <Node pos="l" depth="4" NCoef="0" IVar="-1" Cut="0.0000000000000000e+00" cType="1" res="-4.7662451863288879e-02" rms="3.3957457542419434e-01" purity="1.3349685072898865e-01" nType="-99"/>
              <Node pos="r" depth="4" NCoef="0" IVar="-1" Cut="0.0000000000000000e+00" cType="1" res="-5.3363323211669922e-02" rms="3.0122604966163635e-01" purity="1.0105379670858383e-01" nType="-99"/>
            </Node>
            <Node pos="r" depth="3" NCoef="0" IVar="1" Cut="5.8400945663452148e+00" cType="1" res="-2.5597888231277466e-01" rms="2.5566956400871277e-01" purity="7.0404894649982452e-02" nType="0">
              <Node pos="l" depth="4" NCoef="0" IVar="0" Cut="-2.4921212196350098e+00" cType="0" res="-2.5152015686035156e-01" rms="2.6751449704170227e-01" purity="7.7636681497097015e-02" nType="0">
                <Node pos="l" depth="5" NCoef="0" IVar="-1" Cut="0.0000000000000000e+00" cType="1" res="-5.6297421455383301e-02" rms="2.7225810289382935e-01" purity="8.0671042203903198e-02" nType="-99"/>
                <Node pos="r" depth="5" NCoef="0" IVar="-1" Cut="0.0000000000000000e+00" cType="1" res="-5.7680480182170868e-02" rms="2.6221624016761780e-01" purity="7.4332907795906067e-02" nType="-99"/>
              </Node>
              <Node pos="r" depth="4" NCoef="0" IVar="-1" Cut="0.0000000000000000e+00" cType="1" res="-6.0218784958124161e-02" rms="2.3578941822052002e-01" purity="5.9096314013004303e-02" nType="-99"/>
            </Node>
          </Node>
          <Node pos="r" depth="2" NCoef="0" IVar="0" Cut="-4.1777756810188293e-01" cType="0" res="-2.8068843483924866e-01" rms="1.6779334843158722e-01" purity="2.9079891741275787e-02" nType="0">
            <Node pos="l" depth="3" NCoef="0" IVar="-1" Cut="0.0000000000000000e+00" cType="1" res="-6.2707751989364624e-02" rms="2.0404927432537079e-01" purity="4.3561931699514389e-02" nType="-99"/>
            <Node pos="r" depth="3" NCoef="0" IVar="1" Cut="3.8739547729492188e+01" cType="1" res="-2.8337261080741882e-01" rms="1.5737751126289368e-01" purity="2.5480477139353752e-02" nType="0">
              <Node pos="l" depth="4" NCoef="0" IVar="-1" Cut="0.0000000000000000e+00" cType="1" res="-6.3939325511455536e-02" rms="1.9303029775619507e-01" purity="3.8811057806015015e-02" nType="-99"/>
              <Node pos="r" depth="4" NCoef="0" IVar="0" Cut="-2.7589128017425537e+00" cType="1" res="-2.8567379713058472e-01" rms="1.4498223364353180e-01" purity="2.1505983546376228e-02" nType="0">
                <Node pos="l" depth="5" NCoef="0" IVar="0" Cut="-4.4886517524719238e+00" cType="0" res="-2.8336170315742493e-01" rms="1.5515309572219849e-01" purity="2.4697259068489075e-02" nType="0">
                  <Node pos="l" depth="6" NCoef="0" IVar="-1" Cut="0.0000000000000000e+00" cType="1" res="-6.5533429384231567e-02" rms="1.6821764409542084e-01" purity="2.9150823131203651e-02" nType="-99"/>
                  <Node pos="r" depth="6" NCoef="0" IVar="-1" Cut="0.0000000000000000e+00" cType="1" res="-6.7702054977416992e-02" rms="1.3613267242908478e-01" purity="1.8895614892244339e-02" nType="-99"/>
                </Node>
                <Node pos="r" depth="5" NCoef="0" IVar="-1" Cut="0.0000000000000000e+00" cType="1" res="-6.8704254925251007e-02" rms="1.1642725020647049e-01" purity="1.3749031350016594e-02" nType="-99"/>
              </Node>
            </Node>
          </Node>
        </Node>
      </Node>
    </BinaryTree>
    <BinaryTree type="DecisionTree" boostWeight="1.0000000000000000e+00" itree="6">
      <Node pos="s" depth="0" NCoef="0" IVar="1" Cut="1.7496252059936523e+00" cType="1" res="-2.0222526788711548e-01" rms="3.1950560212135315e-01" purity="1.2246964126825333e-01" nType="0">
        <Node pos="l" depth="1" NCoef="0" IVar="1" Cut="-1.2513172626495361e+00" cType="0" res="-1.8574923276901245e-01" rms="3.5056859254837036e-01" purity="1.5185341238975525e-01" nType="0">
          <Node pos="l" depth="2" NCoef="0" IVar="0" Cut="-6.0411376953125000e+00" cType="1" res="-1.6346530616283417e-01" rms="3.8451248407363892e-01" purity="1.8928730487823486e-01" nType="0">
            <Node pos="l" depth="3" NCoef="0" IVar="-1" Cut="0.0000000000000000e+00" cType="1" res="-4.1342959739267826e-03" rms="4.9023768305778503e-01" purity="4.1445085406303406e-01" nType="-99"/>
            <Node pos="r" depth="3" NCoef="0" IVar="1" Cut="4.1487577557563782e-01" cType="1" res="-1.7251406610012054e-01" rms="3.7500378489494324e-01" purity="1.7505814135074615e-01" nType="0">
              <Node pos="l" depth="4" NCoef="0" IVar="0" Cut="-1.0913960635662079e-01" cType="0" res="-1.3178060948848724e-01" rms="4.2640948295593262e-01" purity="2.4566929042339325e-01" nType="0">
                <Node pos="l" depth="5" NCoef="0" IVar="-1" Cut="0.0000000000000000e+00" cType="1" res="-1.2431311421096325e-02" rms="4.7843158245086670e-01" purity="3.5825225710868835e-01" nType="-99"/>
                <Node pos="r" depth="5" NCoef="0" IVar="0" Cut="-3.7136790752410889e+00" cType="1" res="-1.5387754142284393e-01" rms="4.0641552209854126e-01" purity="2.1077965199947357e-01" nType="0">
                  <Node pos="l" depth="6" NCoef="0" IVar="0" Cut="-4.8939647674560547e+00" cType="1" res="-1.3641692698001862e-01" rms="4.2298474907875061e-01" purity="2.3499765992164612e-01" nType="0">
                    <Node pos="l" depth="7" NCoef="0" IVar="-1" Cut="0.0000000000000000e+00" cType="1" res="-2.6817362755537033e-02" rms="4.3269550800323486e-01" purity="2.5075414776802063e-01" nType="-99"/>
                    <Node pos="r" depth="7" NCoef="0" IVar="-1" Cut="0.0000000000000000e+00" cType="1" res="-3.1669486314058304e-02" rms="4.1297611594200134e-01" purity="2.1955277025699615e-01" nType="-99"/>
                  </Node>
                  <Node pos="r" depth="6" NCoef="0" IVar="-1" Cut="0.0000000000000000e+00" cType="1" res="-3.8579870015382767e-02" rms="3.8246029615402222e-01" purity="1.7909900844097137e-01" nType="-99"/>
                </Node>
              </Node>
              <Node pos="r" depth="4" NCoef="0" IVar="0" Cut="9.1087036132812500e+00" cType="0" res="-1.9009999930858612e-01" rms="3.4902161359786987e-01" purity="1.4457306265830994e-01" nType="0">
                <Node pos="l" depth="5" NCoef="0" IVar="0" Cut="1.4049755096435547e+01" cType="0" res="-1.6960972547531128e-01" rms="3.8515529036521912e-01" purity="1.8145318329334259e-01" nType="0">
                  <Node pos="l" depth="6" NCoef="0" IVar="0" Cut="2.6833406448364258e+01" cType="1" res="-1.6612936556339264e-01" rms="3.9051532745361328e-01" purity="1.8779973685741425e-01" nType="0">
                    <Node pos="l" depth="7" NCoef="0" IVar="0" Cut="1.9817966461181641e+01" cType="1" res="-1.6140490770339966e-01" rms="3.9613735675811768e-01" purity="1.9498069584369659e-01" nType="0">
                      <Node pos="l" depth="8" NCoef="0" IVar="-1" Cut="0.0000000000000000e+00" cType="1" res="-3.4525845199823380e-02" rms="3.9804288744926453e-01" purity="1.9745555520057678e-01" nType="-99"/>
                      <Node pos="r" depth="8" NCoef="0" IVar="-1" Cut="0.0000000000000000e+00" cType="1" res="-3.5796198993921280e-02" rms="3.9433598518371582e-01" purity="1.9268134236335754e-01" nType="-99"/>
                    </Node>
                    <Node pos="r" depth="7" NCoef="0" IVar="0" Cut="3.4774852752685547e+01" cType="1" res="-1.7154316604137421e-01" rms="3.8390031456947327e-01" purity="1.7957103252410889e-01" nType="0">
                      <Node pos="l" depth="8" NCoef="0" IVar="-1" Cut="0.0000000000000000e+00" cType="1" res="-3.7528716027736664e-02" rms="3.8492935895919800e-01" purity="1.8089196085929871e-01" nType="-99"/>
                      <Node pos="r" depth="8" NCoef="0" IVar="-1" Cut="0.0000000000000000e+00" cType="1" res="-3.7768520414829254e-02" rms="3.8286682963371277e-01" purity="1.7824831604957581e-01" nType="-99"/>
                    </Node>
                  </Node>
                  <Node pos="r" depth="6" NCoef="0" IVar="-1" Cut="0.0000000000000000e+00" cType="1" res="-4.0767885744571686e-02" rms="3.6362218856811523e-01" purity="1.5718203783035278e-01" nType="-99"/>
                </Node>
                <Node pos="r" depth="5" NCoef="0" IVar="0" Cut="-3.8986048698425293e+00" cType="1" res="-2.0983847975730896e-01" rms="3.0897715687751770e-01" purity="1.0904610157012939e-01" nType="0">
                  <Node pos="l" depth="6" NCoef="0" IVar="-1" Cut="0.0000000000000000e+00" cType="1" res="-3.9169743657112122e-02" rms="3.7057411670684814e-01" purity="1.6479960083961487e-01" nType="-99"/>
                  <Node pos="r" depth="6" NCoef="0" IVar="0" Cut="2.0812213420867920e+00" cType="1" res="-2.2270704805850983e-01" rms="2.8105017542839050e-01" purity="8.7900675833225250e-02" nType="0">
                    <Node pos="l" depth="7" NCoef="0" IVar="-1" Cut="0.0000000000000000e+00" cType="1" res="-4.8741295933723450e-02" rms="3.1170138716697693e-01" purity="1.0967896133661270e-01" nType="-99"/>
                    <Node pos="r" depth="7" NCoef="0" IVar="0" Cut="4.9328656196594238e+00" cType="0" res="-2.2916407883167267e-01" rms="2.5883242487907410e-01" purity="7.3648862540721893e-02" nType="0">
                      <Node pos="l" depth="8" NCoef="0" IVar="-1" Cut="0.0000000000000000e+00" cType="1" res="-5.1009591668844223e-02" rms="2.8655555844306946e-01" purity="9.1208338737487793e-02" nType="-99"/>
                      <Node pos="r" depth="8" NCoef="0" IVar="-1" Cut="0.0000000000000000e+00" cType="1" res="-5.8838117867708206e-02" rms="2.1584193408489227e-01" purity="5.0426263362169266e-02" nType="-99"/>
                    </Node>
                  </Node>
                </Node>
              </Node>
            </Node>
          </Node>
          <Node pos="r" depth="2" NCoef="0" IVar="1" Cut="-9.2293853759765625e+00" cType="0" res="-2.2617146372795105e-01" rms="2.7404829859733582e-01" purity="8.3949640393257141e-02" nType="0">
            <Node pos="l" depth="3" NCoef="0" IVar="0" Cut="-4.2024850845336914e+00" cType="1" res="-2.1389134228229523e-01" rms="3.0775851011276245e-01" purity="1.0806712508201599e-01" nType="0">
              <Node pos="l" depth="4" NCoef="0" IVar="1" Cut="-3.2763078212738037e+00" cType="0" res="-1.8892814218997955e-01" rms="3.5420015454292297e-01" purity="1.4948213100433350e-01" nType="0">
                <Node pos="l" depth="5" NCoef="0" IVar="-1" Cut="0.0000000000000000e+00" cType="1" res="-3.8197685033082962e-02" rms="3.7663510441780090e-01" purity="1.7453004419803619e-01" nType="-99"/>
                <Node pos="r" depth="5" NCoef="0" IVar="-1" Cut="0.0000000000000000e+00" cType="1" res="-4.6743348240852356e-02" rms="3.2871487736701965e-01" purity="1.2379512190818787e-01" nType="-99"/>
              </Node>
              <Node pos="r" depth="4" NCoef="0" IVar="1" Cut="-4.0330958366394043e+00" cType="0" res="-2.2752973437309265e-01" rms="2.7819600701332092e-01" purity="8.5440456867218018e-02" nType="0">
                <Node pos="l" depth="5" NCoef="0" IVar="0" Cut="-9.9347841739654541e-01" cType="0" res="-2.2229045629501343e-01" rms="3.0028221011161804e-01" purity="1.0112858563661575e-01" nType="0">
                  <Node pos="l" depth="6" NCoef="0" IVar="-1" Cut="0.0000000000000000e+00" cType="1" res="-5.1400955766439438e-02" rms="3.0202445387840271e-01" purity="1.0311383008956909e-01" nType="-99"/>
                  <Node pos="r" depth="6" NCoef="0" IVar="-1" Cut="0.0000000000000000e+00" cType="1" res="-5.0446491688489914e-02" rms="2.9832035303115845e-01" purity="9.8958335816860199e-02" nType="-99"/>
                </Node>
                <Node pos="r" depth="5" NCoef="0" IVar="-1" Cut="0.0000000000000000e+00" cType="1" res="-5.5974747985601425e-02" rms="2.4518327414989471e-01" purity="6.4330980181694031e-02" nType="-99"/>
              </Node>
            </Node>
            <Node pos="r" depth="3" NCoef="0" IVar="1" Cut="-2.2093315124511719e+01" cType="0" res="-2.4709449708461761e-01" rms="2.0246264338493347e-01" purity="4.2857944965362549e-02" nType="0">
              <Node pos="l" depth="4" NCoef="0" IVar="-1" Cut="0.0000000000000000e+00" cType="1" res="-5.6833844631910324e-02" rms="2.3606322705745697e-01" purity="5.9418261051177979e-02" nType="-99"/>
              <Node pos="r" depth="4" NCoef="0" IVar="0" Cut="-5.7316476106643677e-01" cType="0" res="-2.5296333432197571e-01" rms="1.8046368658542633e-01" purity="3.3497449010610580e-02" nType="0">
                <Node pos="l" depth="5" NCoef="0" IVar="-1" Cut="0.0000000000000000e+00" cType="1" res="-5.9825390577316284e-02" rms="2.0154500007629395e-01" purity="4.2449288070201874e-02" nType="-99"/>
                <Node pos="r" depth="5" NCoef="0" IVar="-1" Cut="0.0000000000000000e+00" cType="1" res="-6.3817888498306274e-02" rms="1.5930813550949097e-01" purity="2.5619834661483765e-02" nType="-99"/>
              </Node>
            </Node>
          </Node>
        </Node>
        <Node pos="r" depth="1" NCoef="0" IVar="1" Cut="1.8486610412597656e+01" cType="1" res="-2.3366251587867737e-01" rms="2.4670284986495972e-01" purity="6.6403716802597046e-02" nType="0">
          <Node pos="l" depth="2" NCoef="0" IVar="0" Cut="-5.3713073730468750e+00" cType="1" res="-2.2135816514492035e-01" rms="2.8400972485542297e-01" purity="8.9363306760787964e-02" nType="0">
            <Node pos="l" depth="3" NCoef="0" IVar="-1" Cut="0.0000000000000000e+00" cType="1" res="-4.3912209570407867e-02" rms="3.4716033935546875e-01" purity="1.4095237851142883e-01" nType="-99"/>
            <Node pos="r" depth="3" NCoef="0" IVar="1" Cut="4.8845458030700684e+00" cType="1" res="-2.2601032257080078e-01" rms="2.7094751596450806e-01" purity="8.0166131258010864e-02" nType="0">
              <Node pos="l" depth="4" NCoef="0" IVar="0" Cut="-3.7554070949554443e+00" cType="1" res="-2.1987645328044891e-01" rms="2.8829625248908997e-01" purity="9.1808661818504333e-02" nType="0">
                <Node pos="l" depth="5" NCoef="0" IVar="-1" Cut="0.0000000000000000e+00" cType="1" res="-4.8865176737308502e-02" rms="3.0874985456466675e-01" purity="1.0698474943637848e-01" nType="-99"/>
                <Node pos="r" depth="5" NCoef="0" IVar="0" Cut="-2.5792555809020996e+00" cType="0" res="-2.2474241256713867e-01" rms="2.7415981888771057e-01" purity="8.2002386450767517e-02" nType="0">
                  <Node pos="l" depth="6" NCoef="0" IVar="-1" Cut="0.0000000000000000e+00" cType="1" res="-5.1858112215995789e-02" rms="2.8137353062629700e-01" purity="8.6895778775215149e-02" nType="-99"/>
                  <Node pos="r" depth="6" NCoef="0" IVar="-1" Cut="0.0000000000000000e+00" cType="1" res="-5.4172344505786896e-02" rms="2.6425874233245850e-01" purity="7.5548186898231506e-02" nType="-99"/>
                </Node>
              </Node>
              <Node pos="r" depth="4" NCoef="0" IVar="0" Cut="-3.1955926418304443e+00" cType="1" res="-2.3324449360370636e-01" rms="2.4874341487884521e-01" purity="6.6435158252716064e-02" nType="0">
                <Node pos="l" depth="5" NCoef="0" IVar="-1" Cut="0.0000000000000000e+00" cType="1" res="-5.3551986813545227e-02" rms="2.6980561017990112e-01" purity="7.9227194190025330e-02" nType="-99"/>
                <Node pos="r" depth="5" NCoef="0" IVar="1" Cut="8.4789724349975586e+00" cType="1" res="-2.3659299314022064e-01" rms="2.3483331501483917e-01" purity="5.8591239154338837e-02" nType="0">
                  <Node pos="l" depth="6" NCoef="0" IVar="-1" Cut="0.0000000000000000e+00" cType="1" res="-5.6953817605972290e-02" rms="2.3603896796703339e-01" purity="5.9239130467176437e-02" nType="-99"/>
                  <Node pos="r" depth="6" NCoef="0" IVar="-1" Cut="0.0000000000000000e+00" cType="1" res="-5.6766606867313385e-02" rms="2.3357981443405151e-01" purity="5.7925127446651459e-02" nType="-99"/>
                </Node>
              </Node>
            </Node>
          </Node>
          <Node pos="r" depth="2" NCoef="0" IVar="1" Cut="4.4287971496582031e+01" cType="1" res="-2.5510695576667786e-01" rms="1.6009947657585144e-01" purity="2.6388995349407196e-02" nType="0">
            <Node pos="l" depth="3" NCoef="0" IVar="-1" Cut="0.0000000000000000e+00" cType="1" res="-6.1623051762580872e-02" rms="1.8019568920135498e-01" purity="3.3665183931589127e-02" nType="-99"/>
            <Node pos="r" depth="3" NCoef="0" IVar="1" Cut="4.9340019226074219e+01" cType="0" res="-2.5686955451965332e-01" rms="1.5086543560028076e-01" purity="2.3345023393630981e-02" nType="0">
              <Node pos="l" depth="4" NCoef="0" IVar="-1" Cut="0.0000000000000000e+00" cType="1" res="-6.3208289444446564e-02" rms="1.5710593760013580e-01" purity="2.5366462767124176e-02" nType="-99"/>
              <Node pos="r" depth="4" NCoef="0" IVar="-1" Cut="0.0000000000000000e+00" cType="1" res="-6.4214669167995453e-02" rms="1.4356331527233124e-01" purity="2.1091667935252190e-02" nType="-99"/>
            </Node>
          </Node>
        </Node>
      </Node>
    </BinaryTree>
    <BinaryTree type="DecisionTree" boostWeight="1.0000000000000000e+00" itree="7">
      <Node pos="s" depth="0" NCoef="0" IVar="1" Cut="1.7496252059936523e+00" cType="1" res="-1.8240043520927429e-01" rms="3.1875300407409668e-01" purity="1.2246964126825333e-01" nType="0">
        <Node pos="l" depth="1" NCoef="0" IVar="1" Cut="-1.2513172626495361e+00" cType="0" res="-1.6749326884746552e-01" rms="3.4977769851684570e-01" purity="1.5185341238975525e-01" nType="0">
          <Node pos="l" depth="2" NCoef="0" IVar="1" Cut="3.6989077925682068e-01" cType="1" res="-1.4734593033790588e-01" rms="3.8380220532417297e-01" purity="1.8928730487823486e-01" nType="0">
            <Node pos="l" depth="3" NCoef="0" IVar="0" Cut="-5.5927605628967285e+00" cType="1" res="-9.8573021590709686e-02" rms="4.3876519799232483e-01" purity="2.7439025044441223e-01" nType="0">
              <Node pos="l" depth="4" NCoef="0" IVar="-1" Cut="0.0000000000000000e+00" cType="1" res="-1.7056663054972887e-03" rms="4.8290169239044189e-01" purity="4.0139481425285339e-01" nType="-99"/>
              <Node pos="r" depth="4" NCoef="0" IVar="0" Cut="-1.1961051076650620e-01" cType="0" res="-1.1956232041120529e-01" rms="4.2512318491935730e-01" purity="2.4489337205886841e-01" nType="0">
                <Node pos="l" depth="5" NCoef="0" IVar="-1" Cut="0.0000000000000000e+00" cType="1" res="-1.1095928028225899e-02" rms="4.7864848375320435e-01" purity="3.5881325602531433e-01" nType="-99"/>
                <Node pos="r" depth="5" NCoef="0" IVar="0" Cut="-3.7118701934814453e+00" cType="1" res="-1.4242309331893921e-01" rms="4.0236708521842957e-01" purity="2.0532250404357910e-01" nType="0">
                  <Node pos="l" depth="6" NCoef="0" IVar="-1" Cut="0.0000000000000000e+00" cType="1" res="-2.7675481513142586e-02" rms="4.1941550374031067e-01" purity="2.2969646751880646e-01" nType="-99"/>
                  <Node pos="r" depth="6" NCoef="0" IVar="-1" Cut="0.0000000000000000e+00" cType="1" res="-3.5574119538068771e-02" rms="3.8255077600479126e-01" purity="1.7920382320880890e-01" nType="-99"/>
                </Node>
              </Node>
            </Node>
            <Node pos="r" depth="3" NCoef="0" IVar="0" Cut="1.0854761123657227e+01" cType="0" res="-1.6963550448417664e-01" rms="3.5363614559173584e-01" purity="1.5039463341236115e-01" nType="0">
              <Node pos="l" depth="4" NCoef="0" IVar="0" Cut="2.6852981567382812e+01" cType="1" res="-1.5129061043262482e-01" rms="3.8806173205375671e-01" purity="1.8487848341464996e-01" nType="0">
                <Node pos="l" depth="5" NCoef="0" IVar="0" Cut="1.7361743927001953e+01" cType="0" res="-1.4911806583404541e-01" rms="3.9077365398406982e-01" purity="1.8839091062545776e-01" nType="0">
                  <Node pos="l" depth="6" NCoef="0" IVar="-1" Cut="0.0000000000000000e+00" cType="1" res="-3.2299283891916275e-02" rms="3.9658108353614807e-01" purity="1.9557325541973114e-01" nType="-99"/>
                  <Node pos="r" depth="6" NCoef="0" IVar="-1" Cut="0.0000000000000000e+00" cType="1" res="-3.4647081047296524e-02" rms="3.8354977965354919e-01" purity="1.7967306077480316e-01" nType="-99"/>
                </Node>
                <Node pos="r" depth="5" NCoef="0" IVar="0" Cut="3.4794540405273438e+01" cType="1" res="-1.5454742312431335e-01" rms="3.8393744826316833e-01" purity="1.7961305379867554e-01" nType="0">
                  <Node pos="l" depth="6" NCoef="0" IVar="-1" Cut="0.0000000000000000e+00" cType="1" res="-3.4545652568340302e-02" rms="3.8520309329032898e-01" purity="1.8122354149818420e-01" nType="-99"/>
                  <Node pos="r" depth="6" NCoef="0" IVar="-1" Cut="0.0000000000000000e+00" cType="1" res="-3.4918855875730515e-02" rms="3.8266497850418091e-01" purity="1.7800039052963257e-01" nType="-99"/>
                </Node>
              </Node>
              <Node pos="r" depth="4" NCoef="0" IVar="1" Cut="9.9870270490646362e-01" cType="1" res="-1.8365801870822906e-01" rms="3.2417184114456177e-01" purity="1.2403579801321030e-01" nType="0">
