<?xml version="1.0"?>
<MethodSetup Method="BDT::PUDisc_v1">
  <GeneralInfo>
    <Info name="TMVA Release" value="4.1.4 [262404]"/>
    <Info name="ROOT Release" value="5.34/05 [336389]"/>
    <Info name="Creator" value="Phil"/>
    <Info name="Date" value="Mon Feb  3 03:26:31 2014"/>
    <Info name="Host" value="Darwin pb-d-128-141-154-76.cern.ch 12.2.1 Darwin Kernel Version 12.2.1: Thu Oct 18 16:32:48 PDT 2012; root:xnu-2050.20.9~2/RELEASE_X86_64 x86_64"/>
    <Info name="Dir" value="/Users/Phil/Physics/JWJ/ProjectPUPPI-master/ana/TMVA"/>
    <Info name="Training events" value="257635"/>
    <Info name="TrainingTime" value="5.92964058e+02"/>
    <Info name="AnalysisType" value="Classification"/>
  </GeneralInfo>
  <Options>
    <Option name="V" modified="Yes">False</Option>
    <Option name="VerbosityLevel" modified="No">Default</Option>
    <Option name="VarTransform" modified="No">None</Option>
    <Option name="H" modified="Yes">False</Option>
    <Option name="CreateMVAPdfs" modified="No">False</Option>
    <Option name="IgnoreNegWeightsInTraining" modified="No">False</Option>
    <Option name="NTrees" modified="Yes">1000</Option>
    <Option name="RenormByClass" modified="No">False</Option>
    <Option name="BoostType" modified="Yes">Grad</Option>
    <Option name="AdaBoostR2Loss" modified="No">quadratic</Option>
    <Option name="UseBaggedGrad" modified="Yes">False</Option>
    <Option name="GradBaggingFraction" modified="No">6.000000e-01</Option>
    <Option name="Shrinkage" modified="Yes">1.000000e-01</Option>
    <Option name="AdaBoostBeta" modified="No">1.000000e+00</Option>
    <Option name="UseRandomisedTrees" modified="No">False</Option>
    <Option name="UseNvars" modified="No">2</Option>
    <Option name="UsePoissonNvars" modified="No">True</Option>
    <Option name="UseNTrainEvents" modified="No">257635</Option>
    <Option name="UseWeightedTrees" modified="No">True</Option>
    <Option name="UseYesNoLeaf" modified="No">True</Option>
    <Option name="NodePurityLimit" modified="No">5.000000e-01</Option>
    <Option name="SeparationType" modified="Yes">giniindex</Option>
    <Option name="nEventsMin" modified="No">1030</Option>
    <Option name="nCuts" modified="Yes">2000</Option>
    <Option name="UseFisherCuts" modified="No">False</Option>
    <Option name="MinLinCorrForFisher" modified="No">8.000000e-01</Option>
    <Option name="UseExclusiveVars" modified="No">False</Option>
    <Option name="PruneStrength" modified="No">0.000000e+00</Option>
    <Option name="PruneMethod" modified="No">nopruning</Option>
    <Option name="PruneBeforeBoost" modified="No">False</Option>
    <Option name="PruningValFraction" modified="No">5.000000e-01</Option>
    <Option name="NNodesMax" modified="Yes">10000</Option>
    <Option name="MaxDepth" modified="Yes">3</Option>
    <Option name="DoBoostMonitor" modified="No">False</Option>
    <Option name="NegWeightTreatment" modified="No">ignorenegweights</Option>
  </Options>
  <Variables NVar="5">
    <Variable VarIndex="0" Expression="pt" Label="pt" Title="pt" Unit="" Internal="pt" Type="F" Min="5.00000954e-01" Max="4.37696899e+02"/>
    <Variable VarIndex="1" Expression="ptodR" Label="ptodR" Title="ptodR" Unit="" Internal="ptodR" Type="F" Min="-4.47387581e+01" Max="2.72734131e+02"/>
    <Variable VarIndex="2" Expression="ptodRSO" Label="ptodRSO" Title="ptodRSO" Unit="" Internal="ptodRSO" Type="F" Min="-1.00489836e+01" Max="5.51948776e+01"/>
    <Variable VarIndex="3" Expression="ptodR_lv" Label="ptodR_lv" Title="ptodR_lv" Unit="" Internal="ptodR_lv" Type="F" Min="-2.12492967e+00" Max="1.53151794e+02"/>
    <Variable VarIndex="4" Expression="ptodRSO_lv" Label="ptodRSO_lv" Title="ptodRSO_lv" Unit="" Internal="ptodRSO_lv" Type="F" Min="-8.57449532e-01" Max="3.10002193e+01"/>
  </Variables>
  <Spectators NSpec="0"/>
  <Classes NClass="2">
    <Class Name="Signal" Index="0"/>
    <Class Name="Background" Index="1"/>
  </Classes>
  <Transformations NTransformations="0"/>
  <MVAPdfs/>
  <Weights NTrees="1000" AnalysisType="1">
    <BinaryTree type="DecisionTree" boostWeight="1.0000000000000000e+00" itree="0">
      <Node pos="s" depth="0" NCoef="0" IVar="3" Cut="5.1694293022155762e+00" cType="0" res="-4.1401401162147522e-01" rms="2.8034335374832153e-01" purity="8.5985988378524780e-02" nType="0">
        <Node pos="l" depth="1" NCoef="0" IVar="0" Cut="1.3739879131317139e+00" cType="0" res="2.0207306742668152e-01" rms="4.5734721422195435e-01" purity="7.0207303762435913e-01" nType="0">
          <Node pos="l" depth="2" NCoef="0" IVar="0" Cut="2.2462699413299561e+00" cType="0" res="4.1685125231742859e-01" rms="2.7610692381858826e-01" purity="9.1685128211975098e-01" nType="0">
            <Node pos="l" depth="3" NCoef="0" IVar="-1" Cut="0.0000000000000000e+00" cType="1" res="9.3004666268825531e-02" rms="1.8372075259685516e-01" purity="9.6502333879470825e-01" nType="-99"/>
            <Node pos="r" depth="3" NCoef="0" IVar="-1" Cut="0.0000000000000000e+00" cType="1" res="5.1610540598630905e-02" rms="4.2826253175735474e-01" purity="7.5805270671844482e-01" nType="-99"/>
          </Node>
          <Node pos="r" depth="2" NCoef="0" IVar="0" Cut="8.7127220630645752e-01" cType="0" res="-1.0779252648353577e-01" rms="4.8824253678321838e-01" purity="3.9220747351646423e-01" nType="0">
            <Node pos="l" depth="3" NCoef="0" IVar="-1" Cut="0.0000000000000000e+00" cType="1" res="9.3212081119418144e-03" rms="4.9782314896583557e-01" purity="5.4660606384277344e-01" nType="-99"/>
            <Node pos="r" depth="3" NCoef="0" IVar="-1" Cut="0.0000000000000000e+00" cType="1" res="-4.0359895676374435e-02" rms="4.5746800303459167e-01" purity="2.9820051789283752e-01" nType="-99"/>
          </Node>
        </Node>
        <Node pos="r" depth="1" NCoef="0" IVar="3" Cut="1.8008906841278076e+00" cType="0" res="-4.6551159024238586e-01" rms="1.8248003721237183e-01" purity="3.4488413482904434e-02" nType="0">
          <Node pos="l" depth="2" NCoef="0" IVar="0" Cut="1.2925069332122803e+00" cType="0" res="-2.9181584715843201e-01" rms="4.0600925683975220e-01" purity="2.0818413794040680e-01" nType="0">
            <Node pos="l" depth="3" NCoef="0" IVar="-1" Cut="0.0000000000000000e+00" cType="1" res="-2.2266330197453499e-02" rms="4.8744770884513855e-01" purity="3.8866835832595825e-01" nType="-99"/>
            <Node pos="r" depth="3" NCoef="0" IVar="-1" Cut="0.0000000000000000e+00" cType="1" res="-6.9527849555015564e-02" rms="3.5937023162841797e-01" purity="1.5236075222492218e-01" nType="-99"/>
          </Node>
          <Node pos="r" depth="2" NCoef="0" IVar="4" Cut="5.6019287556409836e-02" cType="0" res="-4.7452563047409058e-01" rms="1.5756089985370636e-01" purity="2.5474382564425468e-02" nType="0">
            <Node pos="l" depth="3" NCoef="0" IVar="-1" Cut="0.0000000000000000e+00" cType="1" res="-8.4081843495368958e-02" rms="2.7065864205360413e-01" purity="7.9590797424316406e-02" nType="-99"/>
            <Node pos="r" depth="3" NCoef="0" IVar="-1" Cut="0.0000000000000000e+00" cType="1" res="-9.5607966184616089e-02" rms="1.4655344188213348e-01" purity="2.1960159763693810e-02" nType="-99"/>
          </Node>
        </Node>
      </Node>
    </BinaryTree>
    <BinaryTree type="DecisionTree" boostWeight="1.0000000000000000e+00" itree="1">
      <Node pos="s" depth="0" NCoef="0" IVar="3" Cut="6.6438207626342773e+00" cType="0" res="-3.7273472547531128e-01" rms="2.6657706499099731e-01" purity="8.5985988378524780e-02" nType="0">
        <Node pos="l" depth="1" NCoef="0" IVar="0" Cut="1.3739879131317139e+00" cType="0" res="2.0985996723175049e-01" rms="4.2701026797294617e-01" purity="7.3163890838623047e-01" nType="0">
          <Node pos="l" depth="2" NCoef="0" IVar="0" Cut="2.4643223285675049e+00" cType="0" res="3.8594844937324524e-01" rms="2.5632095336914062e-01" purity="9.2779558897018433e-01" nType="0">
            <Node pos="l" depth="3" NCoef="0" IVar="-1" Cut="0.0000000000000000e+00" cType="1" res="8.6479038000106812e-02" rms="1.5598733723163605e-01" purity="9.7504520416259766e-01" nType="-99"/>
            <Node pos="r" depth="3" NCoef="0" IVar="-1" Cut="0.0000000000000000e+00" cType="1" res="5.3246445953845978e-02" rms="4.0350744128227234e-01" purity="7.9434800148010254e-01" nType="-99"/>
          </Node>
          <Node pos="r" depth="2" NCoef="0" IVar="0" Cut="8.2934379577636719e-01" cType="0" res="-7.4924193322658539e-02" rms="4.8961576819419861e-01" purity="4.1439884901046753e-01" nType="0">
            <Node pos="l" depth="3" NCoef="0" IVar="-1" Cut="0.0000000000000000e+00" cType="1" res="1.2091906741261482e-02" rms="4.9547153711318970e-01" purity="5.6247895956039429e-01" nType="-99"/>
            <Node pos="r" depth="3" NCoef="0" IVar="-1" Cut="0.0000000000000000e+00" cType="1" res="-3.5258986055850983e-02" rms="4.5990714430809021e-01" purity="3.0382293462753296e-01" nType="-99"/>
          </Node>
        </Node>
        <Node pos="r" depth="1" NCoef="0" IVar="3" Cut="2.1253101825714111e+00" cType="0" res="-4.1695886850357056e-01" rms="1.8680496513843536e-01" purity="3.6975167691707611e-02" nType="0">
          <Node pos="l" depth="2" NCoef="0" IVar="0" Cut="1.5017951726913452e+00" cType="0" res="-2.2177936136722565e-01" rms="4.3027988076210022e-01" purity="2.5423571467399597e-01" nType="0">
            <Node pos="l" depth="3" NCoef="0" IVar="-1" Cut="0.0000000000000000e+00" cType="1" res="2.1633140277117491e-03" rms="4.9622747302055359e-01" purity="5.0968635082244873e-01" nType="-99"/>
            <Node pos="r" depth="3" NCoef="0" IVar="-1" Cut="0.0000000000000000e+00" cType="1" res="-5.6345522403717041e-02" rms="3.9058247208595276e-01" purity="1.8964309990406036e-01" nType="-99"/>
          </Node>
          <Node pos="r" depth="2" NCoef="0" IVar="3" Cut="8.9334255456924438e-01" cType="0" res="-4.2612576484680176e-01" rms="1.6114093363285065e-01" purity="2.6771191507577896e-02" nType="0">
            <Node pos="l" depth="3" NCoef="0" IVar="-1" Cut="0.0000000000000000e+00" cType="1" res="-7.3520191013813019e-02" rms="2.9238042235374451e-01" purity="9.4872742891311646e-02" nType="-99"/>
            <Node pos="r" depth="3" NCoef="0" IVar="-1" Cut="0.0000000000000000e+00" cType="1" res="-8.6778149008750916e-02" rms="1.4821602404117584e-01" purity="2.2480839863419533e-02" nType="-99"/>
          </Node>
        </Node>
      </Node>
    </BinaryTree>
    <BinaryTree type="DecisionTree" boostWeight="1.0000000000000000e+00" itree="2">
      <Node pos="s" depth="0" NCoef="0" IVar="3" Cut="5.1694293022155762e+00" cType="0" res="-3.3584722876548767e-01" rms="2.5491246581077576e-01" purity="8.5985988378524780e-02" nType="0">
        <Node pos="l" depth="1" NCoef="0" IVar="0" Cut="1.3739879131317139e+00" cType="0" res="1.6465982794761658e-01" rms="4.2679247260093689e-01" purity="7.0207303762435913e-01" nType="0">
          <Node pos="l" depth="2" NCoef="0" IVar="0" Cut="2.9004271030426025e+00" cType="0" res="3.3876779675483704e-01" rms="2.7032974362373352e-01" purity="9.1685128211975098e-01" nType="0">
            <Node pos="l" depth="3" NCoef="0" IVar="-1" Cut="0.0000000000000000e+00" cType="1" res="8.0677382647991180e-02" rms="1.4322315156459808e-01" purity="9.7883665561676025e-01" nType="-99"/>
            <Node pos="r" depth="3" NCoef="0" IVar="-1" Cut="0.0000000000000000e+00" cType="1" res="4.8621937632560730e-02" rms="3.9792010188102722e-01" purity="7.9856294393539429e-01" nType="-99"/>
          </Node>
          <Node pos="r" depth="2" NCoef="0" IVar="0" Cut="8.7127220630645752e-01" cType="0" res="-8.6529873311519623e-02" rms="4.8237389326095581e-01" purity="3.9220747351646423e-01" nType="0">
            <Node pos="l" depth="3" NCoef="0" IVar="-1" Cut="0.0000000000000000e+00" cType="1" res="8.1278150901198387e-03" rms="4.9613553285598755e-01" purity="5.4660606384277344e-01" nType="-99"/>
            <Node pos="r" depth="3" NCoef="0" IVar="-1" Cut="0.0000000000000000e+00" cType="1" res="-3.2983966171741486e-02" rms="4.5678362250328064e-01" purity="2.9820051789283752e-01" nType="-99"/>
          </Node>
        </Node>
        <Node pos="r" depth="1" NCoef="0" IVar="4" Cut="1.6670450568199158e-01" cType="0" res="-3.7768369913101196e-01" rms="1.8026784062385559e-01" purity="3.4488413482904434e-02" nType="0">
          <Node pos="l" depth="2" NCoef="0" IVar="4" Cut="4.4419950246810913e-01" cType="0" res="-2.2870282828807831e-01" rms="4.0370097756385803e-01" purity="2.1324491500854492e-01" nType="0">
            <Node pos="l" depth="3" NCoef="0" IVar="-1" Cut="0.0000000000000000e+00" cType="1" res="-5.7395366020500660e-03" rms="4.9008274078369141e-01" purity="4.4312950968742371e-01" nType="-99"/>
            <Node pos="r" depth="3" NCoef="0" IVar="-1" Cut="0.0000000000000000e+00" cType="1" res="-5.3286638110876083e-02" rms="3.7743285298347473e-01" purity="1.7517691850662231e-01" nType="-99"/>
          </Node>
          <Node pos="r" depth="2" NCoef="0" IVar="3" Cut="8.4118926525115967e-01" cType="0" res="-3.8470837473869324e-01" rms="1.5889734029769897e-01" purity="2.6059765368700027e-02" nType="0">
            <Node pos="l" depth="3" NCoef="0" IVar="-1" Cut="0.0000000000000000e+00" cType="1" res="-6.8799242377281189e-02" rms="2.8418782353401184e-01" purity="8.9234128594398499e-02" nType="-99"/>
            <Node pos="r" depth="3" NCoef="0" IVar="-1" Cut="0.0000000000000000e+00" cType="1" res="-8.0123685300350189e-02" rms="1.4758248627185822e-01" purity="2.2282795980572701e-02" nType="-99"/>
          </Node>
        </Node>
      </Node>
    </BinaryTree>
    <BinaryTree type="DecisionTree" boostWeight="1.0000000000000000e+00" itree="3">
      <Node pos="s" depth="0" NCoef="0" IVar="3" Cut="7.1870179176330566e+00" cType="0" res="-3.0279448628425598e-01" rms="2.4510139226913452e-01" purity="8.5985988378524780e-02" nType="0">
        <Node pos="l" depth="1" NCoef="0" IVar="0" Cut="1.1554986238479614e+00" cType="0" res="1.7929424345493317e-01" rms="3.9814844727516174e-01" purity="7.4082243442535400e-01" nType="0">
          <Node pos="l" depth="2" NCoef="0" IVar="0" Cut="2.2465341091156006e+00" cType="0" res="3.0247041583061218e-01" rms="2.7687117457389832e-01" purity="9.0901494026184082e-01" nType="0">
            <Node pos="l" depth="3" NCoef="0" IVar="-1" Cut="0.0000000000000000e+00" cType="1" res="7.4062906205654144e-02" rms="1.6479729115962982e-01" purity="9.7166877985000610e-01" nType="-99"/>
            <Node pos="r" depth="3" NCoef="0" IVar="-1" Cut="0.0000000000000000e+00" cType="1" res="3.7432923913002014e-02" rms="4.3369963765144348e-01" purity="7.4345707893371582e-01" nType="-99"/>
          </Node>
          <Node pos="r" depth="2" NCoef="0" IVar="0" Cut="7.4045830965042114e-01" cType="0" res="-7.8901126980781555e-02" rms="4.8130443692207336e-01" purity="3.8826620578765869e-01" nType="0">
            <Node pos="l" depth="3" NCoef="0" IVar="-1" Cut="0.0000000000000000e+00" cType="1" res="1.8803725251927972e-03" rms="4.9661126732826233e-01" purity="4.9963450431823730e-01" nType="-99"/>
            <Node pos="r" depth="3" NCoef="0" IVar="-1" Cut="0.0000000000000000e+00" cType="1" res="-3.2399289309978485e-02" rms="4.5179951190948486e-01" purity="2.8581035137176514e-01" nType="-99"/>
          </Node>
        </Node>
        <Node pos="r" depth="1" NCoef="0" IVar="3" Cut="1.9329104423522949e+00" cType="0" res="-3.3831286430358887e-01" rms="1.8557186424732208e-01" purity="3.7740252912044525e-02" nType="0">
          <Node pos="l" depth="2" NCoef="0" IVar="0" Cut="1.0272614955902100e+00" cType="0" res="-1.8569941818714142e-01" rms="4.1824659705162048e-01" purity="2.4715037643909454e-01" nType="0">
            <Node pos="l" depth="3" NCoef="0" IVar="-1" Cut="0.0000000000000000e+00" cType="1" res="-1.1506789363920689e-02" rms="4.7845786809921265e-01" purity="4.1111111640930176e-01" nType="-99"/>
            <Node pos="r" depth="3" NCoef="0" IVar="-1" Cut="0.0000000000000000e+00" cType="1" res="-5.3384833037853241e-02" rms="3.6020526289939880e-01" purity="1.5459352731704712e-01" nType="-99"/>
          </Node>
          <Node pos="r" depth="2" NCoef="0" IVar="4" Cut="5.6952349841594696e-02" cType="0" res="-3.4685641527175903e-01" rms="1.5872935950756073e-01" purity="2.6017118245363235e-02" nType="0">
            <Node pos="l" depth="3" NCoef="0" IVar="-1" Cut="0.0000000000000000e+00" cType="1" res="-6.4242586493492126e-02" rms="2.7615734934806824e-01" purity="8.3715595304965973e-02" nType="-99"/>
            <Node pos="r" depth="3" NCoef="0" IVar="-1" Cut="0.0000000000000000e+00" cType="1" res="-7.4878476560115814e-02" rms="1.4663527905941010e-01" purity="2.1990386769175529e-02" nType="-99"/>
          </Node>
        </Node>
      </Node>
    </BinaryTree>
    <BinaryTree type="DecisionTree" boostWeight="1.0000000000000000e+00" itree="4">
      <Node pos="s" depth="0" NCoef="0" IVar="3" Cut="7.4198164939880371e+00" cType="0" res="-2.7312189340591431e-01" rms="2.3679122328758240e-01" purity="8.5985988378524780e-02" nType="0">
        <Node pos="l" depth="1" NCoef="0" IVar="0" Cut="1.5924770832061768e+00" cType="0" res="1.6428974270820618e-01" rms="3.8733607530593872e-01" purity="7.4395334720611572e-01" nType="0">
          <Node pos="l" depth="2" NCoef="0" IVar="0" Cut="2.9003155231475830e+00" cType="0" res="2.9944223165512085e-01" rms="2.1700170636177063e-01" purity="9.4775825738906860e-01" nType="0">
            <Node pos="l" depth="3" NCoef="0" IVar="-1" Cut="0.0000000000000000e+00" cType="1" res="7.1864120662212372e-02" rms="1.2871557474136353e-01" purity="9.8314833641052246e-01" nType="-99"/>
            <Node pos="r" depth="3" NCoef="0" IVar="-1" Cut="0.0000000000000000e+00" cType="1" res="5.0499163568019867e-02" rms="3.5221511125564575e-01" purity="8.5267698764801025e-01" nType="-99"/>
          </Node>
          <Node pos="r" depth="2" NCoef="0" IVar="0" Cut="8.7011533975601196e-01" cType="0" res="-2.7529967948794365e-02" rms="4.8312509059906006e-01" purity="4.5469635725021362e-01" nType="0">
            <Node pos="l" depth="3" NCoef="0" IVar="-1" Cut="0.0000000000000000e+00" cType="1" res="1.6293413937091827e-02" rms="4.8255407810211182e-01" purity="6.1916464567184448e-01" nType="-99"/>
            <Node pos="r" depth="3" NCoef="0" IVar="-1" Cut="0.0000000000000000e+00" cType="1" res="-2.3638052865862846e-02" rms="4.6519565582275391e-01" purity="3.1990939378738403e-01" nType="-99"/>
          </Node>
        </Node>
        <Node pos="r" depth="1" NCoef="0" IVar="3" Cut="2.4064292907714844e+00" cType="0" res="-3.0497705936431885e-01" rms="1.8514531850814819e-01" purity="3.8068506866693497e-02" nType="0">
          <Node pos="l" depth="2" NCoef="0" IVar="0" Cut="1.2908912897109985e+00" cType="0" res="-1.4133369922637939e-01" rms="4.3300649523735046e-01" purity="2.8236144781112671e-01" nType="0">
            <Node pos="l" depth="3" NCoef="0" IVar="-1" Cut="0.0000000000000000e+00" cType="1" res="4.9527664668858051e-03" rms="4.8844680190086365e-01" purity="5.1868802309036255e-01" nType="-99"/>
            <Node pos="r" depth="3" NCoef="0" IVar="-1" Cut="0.0000000000000000e+00" cType="1" res="-4.2504433542490005e-02" rms="3.9302256703376770e-01" purity="1.9446808099746704e-01" nType="-99"/>
          </Node>
          <Node pos="r" depth="2" NCoef="0" IVar="4" Cut="1.1749455332756042e-01" cType="0" res="-3.1184446811676025e-01" rms="1.6333405673503876e-01" purity="2.7816586196422577e-02" nType="0">
            <Node pos="l" depth="3" NCoef="0" IVar="-1" Cut="0.0000000000000000e+00" cType="1" res="-5.3390666842460632e-02" rms="3.2626226544380188e-01" purity="1.2366492301225662e-01" nType="-99"/>
            <Node pos="r" depth="3" NCoef="0" IVar="-1" Cut="0.0000000000000000e+00" cType="1" res="-7.0272162556648254e-02" rms="1.5182934701442719e-01" purity="2.3673299700021744e-02" nType="-99"/>
          </Node>
        </Node>
      </Node>
    </BinaryTree>
    <BinaryTree type="DecisionTree" boostWeight="1.0000000000000000e+00" itree="5">
      <Node pos="s" depth="0" NCoef="0" IVar="3" Cut="4.7814311981201172e+00" cType="0" res="-2.4644450843334198e-01" rms="2.2979074716567993e-01" purity="8.5985988378524780e-02" nType="0">
        <Node pos="l" depth="1" NCoef="0" IVar="0" Cut="1.3739879131317139e+00" cType="0" res="1.1684343963861465e-01" rms="3.9983466267585754e-01" purity="6.9161981344223022e-01" nType="0">
          <Node pos="l" depth="2" NCoef="0" IVar="3" Cut="1.2642845153808594e+01" cType="0" res="2.4954228103160858e-01" rms="2.6814305782318115e-01" purity="9.1315305233001709e-01" nType="0">
            <Node pos="l" depth="3" NCoef="0" IVar="-1" Cut="0.0000000000000000e+00" cType="1" res="6.3020147383213043e-02" rms="2.1039000153541565e-01" purity="9.5027112960815430e-01" nType="-99"/>
            <Node pos="r" depth="3" NCoef="0" IVar="-1" Cut="0.0000000000000000e+00" cType="1" res="2.8166433796286583e-02" rms="4.2608380317687988e-01" purity="7.4308484792709351e-01" nType="-99"/>
          </Node>
          <Node pos="r" depth="2" NCoef="0" IVar="3" Cut="3.6836845397949219e+01" cType="0" res="-6.7747332155704498e-02" rms="4.7293302416801453e-01" purity="3.8345602154731750e-01" nType="0">
            <Node pos="l" depth="3" NCoef="0" IVar="-1" Cut="0.0000000000000000e+00" cType="1" res="1.8874615430831909e-02" rms="4.8209577798843384e-01" purity="5.6516790390014648e-01" nType="-99"/>
            <Node pos="r" depth="3" NCoef="0" IVar="-1" Cut="0.0000000000000000e+00" cType="1" res="-2.2380562499165535e-02" rms="4.6152475476264954e-01" purity="3.3651867508888245e-01" nType="-99"/>
          </Node>
        </Node>
        <Node pos="r" depth="1" NCoef="0" IVar="3" Cut="1.4472287893295288e+00" cType="0" res="-2.7779200673103333e-01" rms="1.7661988735198975e-01" purity="3.3726863563060760e-02" nType="0">
          <Node pos="l" depth="2" NCoef="0" IVar="0" Cut="9.0377008914947510e-01" cType="0" res="-1.9090759754180908e-01" rms="3.7208554148674011e-01" purity="1.7683577537536621e-01" nType="0">
            <Node pos="l" depth="3" NCoef="0" IVar="-1" Cut="0.0000000000000000e+00" cType="1" res="-2.5673711672425270e-02" rms="4.3466722965240479e-01" purity="2.7256405353546143e-01" nType="-99"/>
            <Node pos="r" depth="3" NCoef="0" IVar="-1" Cut="0.0000000000000000e+00" cType="1" res="-5.2623882889747620e-02" rms="3.1276658177375793e-01" purity="1.1058398336172104e-01" nType="-99"/>
          </Node>
          <Node pos="r" depth="2" NCoef="0" IVar="4" Cut="2.1077947691082954e-02" cType="0" res="-2.8364974260330200e-01" rms="1.5303707122802734e-01" purity="2.4078492075204849e-02" nType="0">
            <Node pos="l" depth="3" NCoef="0" IVar="-1" Cut="0.0000000000000000e+00" cType="1" res="-5.9951979666948318e-02" rms="2.3639577627182007e-01" purity="5.9775102883577347e-02" nType="-99"/>
            <Node pos="r" depth="3" NCoef="0" IVar="-1" Cut="0.0000000000000000e+00" cType="1" res="-6.7080251872539520e-02" rms="1.4489790797233582e-01" purity="2.1455869078636169e-02" nType="-99"/>
          </Node>
        </Node>
      </Node>
    </BinaryTree>
    <BinaryTree type="DecisionTree" boostWeight="1.0000000000000000e+00" itree="6">
      <Node pos="s" depth="0" NCoef="0" IVar="3" Cut="9.8254032135009766e+00" cType="0" res="-2.2243754565715790e-01" rms="2.2392402589321136e-01" purity="8.5985988378524780e-02" nType="0">
        <Node pos="l" depth="1" NCoef="0" IVar="0" Cut="1.1554986238479614e+00" cType="0" res="1.5501135587692261e-01" rms="3.5822099447250366e-01" purity="7.7346664667129517e-01" nType="0">
          <Node pos="l" depth="2" NCoef="0" IVar="0" Cut="2.2465341091156006e+00" cType="0" res="2.3443195223808289e-01" rms="2.5174850225448608e-01" purity="9.2330461740493774e-01" nType="0">
            <Node pos="l" depth="3" NCoef="0" IVar="-1" Cut="0.0000000000000000e+00" cType="1" res="6.4116850495338440e-02" rms="1.5181629359722137e-01" purity="9.7597306966781616e-01" nType="-99"/>
            <Node pos="r" depth="3" NCoef="0" IVar="-1" Cut="0.0000000000000000e+00" cType="1" res="3.2952185720205307e-02" rms="4.1686791181564331e-01" purity="7.6805949211120605e-01" nType="-99"/>
          </Node>
          <Node pos="r" depth="2" NCoef="0" IVar="2" Cut="2.0448818802833557e-01" cType="0" res="-3.5352207720279694e-02" rms="4.8231947422027588e-01" purity="4.1431951522827148e-01" nType="0">
            <Node pos="l" depth="3" NCoef="0" IVar="-1" Cut="0.0000000000000000e+00" cType="1" res="4.5226775109767914e-03" rms="4.8929995298385620e-01" purity="4.7866135835647583e-01" nType="-99"/>
            <Node pos="r" depth="3" NCoef="0" IVar="-1" Cut="0.0000000000000000e+00" cType="1" res="-3.4765113145112991e-02" rms="4.3698301911354065e-01" purity="2.6398852467536926e-01" nType="-99"/>
          </Node>
        </Node>
        <Node pos="r" depth="1" NCoef="0" IVar="4" Cut="3.9992189407348633e-01" cType="0" res="-2.4709606170654297e-01" rms="1.8740098178386688e-01" purity="4.1073288768529892e-02" nType="0">
          <Node pos="l" depth="2" NCoef="0" IVar="4" Cut="7.2340553998947144e-01" cType="0" res="1.5372254885733128e-02" rms="4.6782535314559937e-01" purity="5.1251357793807983e-01" nType="0">
            <Node pos="l" depth="3" NCoef="0" IVar="-1" Cut="0.0000000000000000e+00" cType="1" res="3.6124315112829208e-02" rms="4.2078822851181030e-01" purity="7.4646645784378052e-01" nType="-99"/>
            <Node pos="r" depth="3" NCoef="0" IVar="-1" Cut="0.0000000000000000e+00" cType="1" res="-1.1060776188969612e-02" rms="4.7129362821578979e-01" purity="4.0841194987297058e-01" nType="-99"/>
          </Node>
          <Node pos="r" depth="2" NCoef="0" IVar="3" Cut="1.5390677452087402e+00" cType="0" res="-2.5114727020263672e-01" rms="1.7664471268653870e-01" purity="3.3796608448028564e-02" nType="0">
            <Node pos="l" depth="3" NCoef="0" IVar="-1" Cut="0.0000000000000000e+00" cType="1" res="-3.9795748889446259e-02" rms="3.7162187695503235e-01" purity="1.7435966432094574e-01" nType="-99"/>
            <Node pos="r" depth="3" NCoef="0" IVar="-1" Cut="0.0000000000000000e+00" cType="1" res="-6.3442260026931763e-02" rms="1.5382632613182068e-01" purity="2.4353850632905960e-02" nType="-99"/>
          </Node>
        </Node>
      </Node>
    </BinaryTree>
    <BinaryTree type="DecisionTree" boostWeight="1.0000000000000000e+00" itree="7">
      <Node pos="s" depth="0" NCoef="0" IVar="3" Cut="4.2382345199584961e+00" cType="0" res="-2.0081049203872681e-01" rms="2.1895775198936462e-01" purity="8.5985988378524780e-02" nType="0">
        <Node pos="l" depth="1" NCoef="0" IVar="0" Cut="1.5924770832061768e+00" cType="0" res="8.9123062789440155e-02" rms="3.9056667685508728e-01" purity="6.7466843128204346e-01" nType="0">
          <Node pos="l" depth="2" NCoef="0" IVar="3" Cut="1.2426335334777832e+01" cType="0" res="2.1356315910816193e-01" rms="2.4637848138809204e-01" purity="9.2537313699722290e-01" nType="0">
            <Node pos="l" depth="3" NCoef="0" IVar="-1" Cut="0.0000000000000000e+00" cType="1" res="5.8885250240564346e-02" rms="1.8810711801052094e-01" purity="9.6118497848510742e-01" nType="-99"/>
            <Node pos="r" depth="3" NCoef="0" IVar="-1" Cut="0.0000000000000000e+00" cType="1" res="2.8523178771138191e-02" rms="4.1575786471366882e-01" purity="7.5463914871215820e-01" nType="-99"/>
          </Node>
          <Node pos="r" depth="2" NCoef="0" IVar="0" Cut="7.4129545688629150e-01" cType="0" res="-4.7075729817152023e-02" rms="4.6643525362014771e-01" purity="4.0027388930320740e-01" nType="0">
            <Node pos="l" depth="3" NCoef="0" IVar="-1" Cut="0.0000000000000000e+00" cType="1" res="3.1688967719674110e-03" rms="4.8091223835945129e-01" purity="5.0818556547164917e-01" nType="-99"/>
            <Node pos="r" depth="3" NCoef="0" IVar="-1" Cut="0.0000000000000000e+00" cType="1" res="-2.7756553143262863e-02" rms="4.3221160769462585e-01" purity="2.5510439276695251e-01" nType="-99"/>
          </Node>
        </Node>
        <Node pos="r" depth="1" NCoef="0" IVar="4" Cut="1.5744367241859436e-01" cType="0" res="-2.2709098458290100e-01" rms="1.7364035546779633e-01" purity="3.2625950872898102e-02" nType="0">
          <Node pos="l" depth="2" NCoef="0" IVar="0" Cut="9.5591682195663452e-01" cType="0" res="-1.4767017960548401e-01" rms="3.8070109486579895e-01" purity="1.8967880308628082e-01" nType="0">
            <Node pos="l" depth="3" NCoef="0" IVar="-1" Cut="0.0000000000000000e+00" cType="1" res="-2.4700775742530823e-02" rms="4.1551706194877625e-01" purity="2.4236832559108734e-01" nType="-99"/>
            <Node pos="r" depth="3" NCoef="0" IVar="-1" Cut="0.0000000000000000e+00" cType="1" res="-4.6182710677385330e-02" rms="3.1863471865653992e-01" purity="1.1576470732688904e-01" nType="-99"/>
          </Node>
          <Node pos="r" depth="2" NCoef="0" IVar="4" Cut="1.0345252230763435e-02" cType="0" res="-2.3067951202392578e-01" rms="1.5705668926239014e-01" purity="2.5529731065034866e-02" nType="0">
            <Node pos="l" depth="3" NCoef="0" IVar="-1" Cut="0.0000000000000000e+00" cType="1" res="-5.2378263324499130e-02" rms="2.4885161221027374e-01" purity="6.7392051219940186e-02" nType="-99"/>
            <Node pos="r" depth="3" NCoef="0" IVar="-1" Cut="0.0000000000000000e+00" cType="1" res="-6.1404008418321609e-02" rms="1.4463283121585846e-01" purity="2.1375628188252449e-02" nType="-99"/>
          </Node>
        </Node>
      </Node>
    </BinaryTree>
    <BinaryTree type="DecisionTree" boostWeight="1.0000000000000000e+00" itree="8">
      <Node pos="s" depth="0" NCoef="0" IVar="3" Cut="1.1144595146179199e+01" cType="0" res="-1.8132074177265167e-01" rms="2.1485345065593719e-01" purity="8.5985988378524780e-02" nType="0">
        <Node pos="l" depth="1" NCoef="0" IVar="2" Cut="4.0014651417732239e-01" cType="0" res="1.3580772280693054e-01" rms="3.4198135137557983e-01" purity="7.8538298606872559e-01" nType="0">
          <Node pos="l" depth="2" NCoef="0" IVar="3" Cut="2.7397253036499023e+01" cType="0" res="1.9069810211658478e-01" rms="2.6986405253410339e-01" purity="8.9508390426635742e-01" nType="0">
            <Node pos="l" depth="3" NCoef="0" IVar="-1" Cut="0.0000000000000000e+00" cType="1" res="5.8532904833555222e-02" rms="1.9252596795558929e-01" purity="9.5578622817993164e-01" nType="-99"/>
            <Node pos="r" depth="3" NCoef="0" IVar="-1" Cut="0.0000000000000000e+00" cType="1" res="2.9784731566905975e-02" rms="3.7223652005195618e-01" purity="7.7278596162796021e-01" nType="-99"/>
          </Node>
          <Node pos="r" depth="2" NCoef="0" IVar="1" Cut="8.5337547302246094e+01" cType="0" res="-5.1809351891279221e-02" rms="4.7145748138427734e-01" purity="4.1042155027389526e-01" nType="0">
            <Node pos="l" depth="3" NCoef="0" IVar="-1" Cut="0.0000000000000000e+00" cType="1" res="1.4534832909703255e-02" rms="4.8233970999717712e-01" purity="5.4571425914764404e-01" nType="-99"/>
            <Node pos="r" depth="3" NCoef="0" IVar="-1" Cut="0.0000000000000000e+00" cType="1" res="-2.2259939461946487e-02" rms="4.5615968108177185e-01" purity="3.5038039088249207e-01" nType="-99"/>
          </Node>
        </Node>
        <Node pos="r" depth="1" NCoef="0" IVar="4" Cut="4.7194552421569824e-01" cType="0" res="-2.0105375349521637e-01" rms="1.8737642467021942e-01" purity="4.2466696351766586e-02" nType="0">
          <Node pos="l" depth="2" NCoef="0" IVar="0" Cut="2.0905640125274658e+00" cType="0" res="5.3813338279724121e-02" rms="4.5508950948715210e-01" purity="5.9702479839324951e-01" nType="0">
            <Node pos="l" depth="3" NCoef="0" IVar="-1" Cut="0.0000000000000000e+00" cType="1" res="2.9791088774800301e-02" rms="4.1960042715072632e-01" purity="7.1300178766250610e-01" nType="-99"/>
            <Node pos="r" depth="3" NCoef="0" IVar="-1" Cut="0.0000000000000000e+00" cType="1" res="-9.8201073706150055e-03" rms="4.7622466087341309e-01" purity="4.5427727699279785e-01" nType="-99"/>
          </Node>
          <Node pos="r" depth="2" NCoef="0" IVar="4" Cut="1.2570518255233765e-01" cType="0" res="-2.0427259802818298e-01" rms="1.7918412387371063e-01" purity="3.5462889820337296e-02" nType="0">
            <Node pos="l" depth="3" NCoef="0" IVar="-1" Cut="0.0000000000000000e+00" cType="1" res="-3.3281002193689346e-02" rms="3.7378376722335815e-01" purity="1.8169680237770081e-01" nType="-99"/>
            <Node pos="r" depth="3" NCoef="0" IVar="-1" Cut="0.0000000000000000e+00" cType="1" res="-5.8368626981973648e-02" rms="1.5446987748146057e-01" purity="2.4659253656864166e-02" nType="-99"/>
          </Node>
        </Node>
      </Node>
    </BinaryTree>
    <BinaryTree type="DecisionTree" boostWeight="1.0000000000000000e+00" itree="9">
      <Node pos="s" depth="0" NCoef="0" IVar="3" Cut="4.1606349945068359e+00" cType="0" res="-1.6374389827251434e-01" rms="2.1133963763713837e-01" purity="8.5985988378524780e-02" nType="0">
        <Node pos="l" depth="1" NCoef="0" IVar="0" Cut="1.5924770832061768e+00" cType="0" res="7.3055431246757507e-02" rms="3.8101786375045776e-01" purity="6.7170333862304688e-01" nType="0">
          <Node pos="l" depth="2" NCoef="0" IVar="0" Cut="2.9002010822296143e+00" cType="0" res="1.7665874958038330e-01" rms="2.4522314965724945e-01" purity="9.2446941137313843e-01" nType="0">
            <Node pos="l" depth="3" NCoef="0" IVar="-1" Cut="0.0000000000000000e+00" cType="1" res="5.7735331356525421e-02" rms="1.5266932547092438e-01" purity="9.7360032796859741e-01" nType="-99"/>
            <Node pos="r" depth="3" NCoef="0" IVar="-1" Cut="0.0000000000000000e+00" cType="1" res="2.9152948409318924e-02" rms="3.7604337930679321e-01" purity="8.1025791168212891e-01" nType="-99"/>
          </Node>
          <Node pos="r" depth="2" NCoef="0" IVar="1" Cut="9.8351577758789062e+01" cType="0" res="-3.9077345281839371e-02" rms="4.6154621243476868e-01" purity="3.9812758564949036e-01" nType="0">
            <Node pos="l" depth="3" NCoef="0" IVar="-1" Cut="0.0000000000000000e+00" cType="1" res="3.2472029328346252e-02" rms="4.4382342696189880e-01" purity="6.7562377452850342e-01" nType="-99"/>
            <Node pos="r" depth="3" NCoef="0" IVar="-1" Cut="0.0000000000000000e+00" cType="1" res="-1.2949433177709579e-02" rms="4.5831516385078430e-01" purity="3.6709946393966675e-01" nType="-99"/>
          </Node>
        </Node>
        <Node pos="r" depth="1" NCoef="0" IVar="3" Cut="1.3178141117095947e+00" cType="0" res="-1.8538647890090942e-01" rms="1.7287233471870422e-01" purity="3.2453615218400955e-02" nType="0">
          <Node pos="l" depth="2" NCoef="0" IVar="0" Cut="9.0377008914947510e-01" cType="0" res="-1.3315278291702271e-01" rms="3.5434150695800781e-01" purity="1.5876623988151550e-01" nType="0">
            <Node pos="l" depth="3" NCoef="0" IVar="-1" Cut="0.0000000000000000e+00" cType="1" res="-1.9463110715150833e-02" rms="4.1820225119590759e-01" purity="2.4567921459674835e-01" nType="-99"/>
            <Node pos="r" depth="3" NCoef="0" IVar="-1" Cut="0.0000000000000000e+00" cType="1" res="-4.2536560446023941e-02" rms="2.9955339431762695e-01" purity="1.0033662617206573e-01" nType="-99"/>
          </Node>
          <Node pos="r" depth="2" NCoef="0" IVar="3" Cut="7.7280692756175995e-02" cType="0" res="-1.8903189897537231e-01" rms="1.5167088806629181e-01" purity="2.3638175800442696e-02" nType="0">
            <Node pos="l" depth="3" NCoef="0" IVar="-1" Cut="0.0000000000000000e+00" cType="1" res="-4.9576111137866974e-02" rms="2.2477041184902191e-01" purity="5.3735762834548950e-02" nType="-99"/>
            <Node pos="r" depth="3" NCoef="0" IVar="-1" Cut="0.0000000000000000e+00" cType="1" res="-5.7007987052202225e-02" rms="1.4457507431507111e-01" purity="2.1358124911785126e-02" nType="-99"/>
          </Node>
        </Node>
      </Node>
    </BinaryTree>
    <BinaryTree type="DecisionTree" boostWeight="1.0000000000000000e+00" itree="10">
      <Node pos="s" depth="0" NCoef="0" IVar="3" Cut="1.1144595146179199e+01" cType="0" res="-1.4788806438446045e-01" rms="2.0844984054565430e-01" purity="8.5985988378524780e-02" nType="0">
        <Node pos="l" depth="1" NCoef="0" IVar="2" Cut="3.7252819538116455e-01" cType="0" res="1.1265023052692413e-01" rms="3.3540600538253784e-01" purity="7.8538298606872559e-01" nType="0">
          <Node pos="l" depth="2" NCoef="0" IVar="0" Cut="9.3808126449584961e-01" cType="0" res="1.5690143406391144e-01" rms="2.7427029609680176e-01" purity="8.8749474287033081e-01" nType="0">
            <Node pos="l" depth="3" NCoef="0" IVar="-1" Cut="0.0000000000000000e+00" cType="1" res="4.7945715487003326e-02" rms="2.3913878202438354e-01" purity="9.2844021320343018e-01" nType="-99"/>
            <Node pos="r" depth="3" NCoef="0" IVar="-1" Cut="0.0000000000000000e+00" cType="1" res="5.7841469533741474e-03" rms="4.9062865972518921e-01" purity="4.7053322196006775e-01" nType="-99"/>
          </Node>
          <Node pos="r" depth="2" NCoef="0" IVar="2" Cut="2.0966729521751404e-01" cType="0" res="-5.5989619344472885e-02" rms="4.6759104728698730e-01" purity="3.9623844623565674e-01" nType="0">
            <Node pos="l" depth="3" NCoef="0" IVar="-1" Cut="0.0000000000000000e+00" cType="1" res="1.5987911028787494e-03" rms="4.7906008362770081e-01" purity="4.9434188008308411e-01" nType="-99"/>
            <Node pos="r" depth="3" NCoef="0" IVar="-1" Cut="0.0000000000000000e+00" cType="1" res="-2.7142712846398354e-02" rms="4.4284462928771973e-01" purity="2.8326475620269775e-01" nType="-99"/>
          </Node>
        </Node>
        <Node pos="r" depth="1" NCoef="0" IVar="4" Cut="2.7482831478118896e-01" cType="0" res="-1.6409981250762939e-01" rms="1.8619459867477417e-01" purity="4.2466696351766586e-02" nType="0">
          <Node pos="l" depth="2" NCoef="0" IVar="4" Cut="6.1638677120208740e-01" cType="0" res="-3.3319547772407532e-02" rms="4.4103044271469116e-01" purity="3.9564427733421326e-01" nType="0">
            <Node pos="l" depth="3" NCoef="0" IVar="-1" Cut="0.0000000000000000e+00" cType="1" res="2.1940741688013077e-02" rms="4.2808008193969727e-01" purity="7.0617151260375977e-01" nType="-99"/>
            <Node pos="r" depth="3" NCoef="0" IVar="-1" Cut="0.0000000000000000e+00" cType="1" res="-1.6556048765778542e-02" rms="4.3700623512268066e-01" purity="2.9899710416793823e-01" nType="-99"/>
          </Node>
          <Node pos="r" depth="2" NCoef="0" IVar="3" Cut="1.7976262569427490e+00" cType="0" res="-1.6839586198329926e-01" rms="1.6981607675552368e-01" purity="3.0865011736750603e-02" nType="0">
            <Node pos="l" depth="3" NCoef="0" IVar="-1" Cut="0.0000000000000000e+00" cType="1" res="-3.0039563775062561e-02" rms="3.6885681748390198e-01" purity="1.6928158700466156e-01" nType="-99"/>
            <Node pos="r" depth="3" NCoef="0" IVar="-1" Cut="0.0000000000000000e+00" cType="1" res="-5.4235883057117462e-02" rms="1.5533605217933655e-01" purity="2.4908835068345070e-02" nType="-99"/>
          </Node>
        </Node>
      </Node>
    </BinaryTree>
    <BinaryTree type="DecisionTree" boostWeight="1.0000000000000000e+00" itree="11">
      <Node pos="s" depth="0" NCoef="0" IVar="3" Cut="1.2153389930725098e+01" cType="0" res="-1.3357833027839661e-01" rms="2.0600074529647827e-01" purity="8.5985988378524780e-02" nType="0">
        <Node pos="l" depth="1" NCoef="0" IVar="2" Cut="3.6456838250160217e-01" cType="0" res="1.0619555413722992e-01" rms="3.2765996456146240e-01" purity="7.9371494054794312e-01" nType="0">
          <Node pos="l" depth="2" NCoef="0" IVar="3" Cut="2.7374183654785156e+01" cType="0" res="1.4574995636940002e-01" rms="2.6738989353179932e-01" purity="8.9443874359130859e-01" nType="0">
            <Node pos="l" depth="3" NCoef="0" IVar="-1" Cut="0.0000000000000000e+00" cType="1" res="5.1295503973960876e-02" rms="2.0214319229125977e-01" purity="9.4921189546585083e-01" nType="-99"/>
            <Node pos="r" depth="3" NCoef="0" IVar="-1" Cut="0.0000000000000000e+00" cType="1" res="2.4469686672091484e-02" rms="3.6717697978019714e-01" purity="7.7474027872085571e-01" nType="-99"/>
          </Node>
          <Node pos="r" depth="2" NCoef="0" IVar="3" Cut="4.0107376098632812e+01" cType="0" res="-4.9826063215732574e-02" rms="4.6723723411560059e-01" purity="3.9641165733337402e-01" nType="0">
            <Node pos="l" depth="3" NCoef="0" IVar="-1" Cut="0.0000000000000000e+00" cType="1" res="6.6803870722651482e-03" rms="4.8215788602828979e-01" purity="5.0581395626068115e-01" nType="-99"/>
            <Node pos="r" depth="3" NCoef="0" IVar="-1" Cut="0.0000000000000000e+00" cType="1" res="-2.2632401436567307e-02" rms="4.4804856181144714e-01" purity="3.2114285230636597e-01" nType="-99"/>
          </Node>
        </Node>
        <Node pos="r" depth="1" NCoef="0" IVar="4" Cut="2.5649183988571167e-01" cType="0" res="-1.4798869192600250e-01" rms="1.8673899769783020e-01" purity="4.3451603502035141e-02" nType="0">
          <Node pos="l" depth="2" NCoef="0" IVar="4" Cut="6.8340778350830078e-01" cType="0" res="-3.3649321645498276e-02" rms="4.3631973862648010e-01" purity="3.8762655854225159e-01" nType="0">
            <Node pos="l" depth="3" NCoef="0" IVar="-1" Cut="0.0000000000000000e+00" cType="1" res="2.4952033534646034e-02" rms="4.0752676129341125e-01" purity="7.5540459156036377e-01" nType="-99"/>
            <Node pos="r" depth="3" NCoef="0" IVar="-1" Cut="0.0000000000000000e+00" cType="1" res="-1.4691647142171860e-02" rms="4.3632930517196655e-01" purity="3.0573511123657227e-01" nType="-99"/>
          </Node>
          <Node pos="r" depth="2" NCoef="0" IVar="4" Cut="5.6627403944730759e-02" cType="0" res="-1.5233002603054047e-01" rms="1.6867698729038239e-01" purity="3.0383661389350891e-02" nType="0">
            <Node pos="l" depth="3" NCoef="0" IVar="-1" Cut="0.0000000000000000e+00" cType="1" res="-3.5118531435728073e-02" rms="3.0892482399940491e-01" purity="1.1223874986171722e-01" nType="-99"/>
            <Node pos="r" depth="3" NCoef="0" IVar="-1" Cut="0.0000000000000000e+00" cType="1" res="-5.3198553621768951e-02" rms="1.4686968922615051e-01" purity="2.2073768079280853e-02" nType="-99"/>
          </Node>
        </Node>
      </Node>
    </BinaryTree>
    <BinaryTree type="DecisionTree" boostWeight="1.0000000000000000e+00" itree="12">
      <Node pos="s" depth="0" NCoef="0" IVar="3" Cut="3.7726371288299561e+00" cType="0" res="-1.2066072225570679e-01" rms="2.0395478606224060e-01" purity="8.5985988378524780e-02" nType="0">
        <Node pos="l" depth="1" NCoef="0" IVar="0" Cut="1.5924770832061768e+00" cType="0" res="5.2241835743188858e-02" rms="3.7336248159408569e-01" purity="6.5748894214630127e-01" nType="0">
          <Node pos="l" depth="2" NCoef="0" IVar="0" Cut="3.1181442737579346e+00" cType="0" res="1.3342626392841339e-01" rms="2.4840012192726135e-01" purity="9.1857194900512695e-01" nType="0">
            <Node pos="l" depth="3" NCoef="0" IVar="-1" Cut="0.0000000000000000e+00" cType="1" res="5.3378764539957047e-02" rms="1.4944137632846832e-01" purity="9.7421240806579590e-01" nType="-99"/>
            <Node pos="r" depth="3" NCoef="0" IVar="-1" Cut="0.0000000000000000e+00" cType="1" res="2.3388242349028587e-02" rms="3.6837279796600342e-01" purity="8.0982071161270142e-01" nType="-99"/>
          </Node>
          <Node pos="r" depth="2" NCoef="0" IVar="0" Cut="7.4129545688629150e-01" cType="0" res="-3.1680472195148468e-02" rms="4.5371866226196289e-01" purity="3.8760113716125488e-01" nType="0">
            <Node pos="l" depth="3" NCoef="0" IVar="-1" Cut="0.0000000000000000e+00" cType="1" res="2.8075356967747211e-03" rms="4.7056794166564941e-01" purity="4.9558517336845398e-01" nType="-99"/>
            <Node pos="r" depth="3" NCoef="0" IVar="-1" Cut="0.0000000000000000e+00" cType="1" res="-2.0482204854488373e-02" rms="4.2364755272865295e-01" purity="2.4664710462093353e-01" nType="-99"/>
          </Node>
        </Node>
        <Node pos="r" depth="1" NCoef="0" IVar="3" Cut="1.3174091577529907e+00" cType="0" res="-1.3710345327854156e-01" rms="1.7083150148391724e-01" purity="3.1637068837881088e-02" nType="0">
          <Node pos="l" depth="2" NCoef="0" IVar="0" Cut="1.0271477699279785e+00" cType="0" res="-1.0047905147075653e-01" rms="3.4814822673797607e-01" purity="1.5249246358871460e-01" nType="0">
            <Node pos="l" depth="3" NCoef="0" IVar="-1" Cut="0.0000000000000000e+00" cType="1" res="-1.2961158528923988e-02" rms="4.2264261841773987e-01" purity="2.5457251071929932e-01" nType="-99"/>
            <Node pos="r" depth="3" NCoef="0" IVar="-1" Cut="0.0000000000000000e+00" cType="1" res="-3.5092029720544815e-02" rms="3.0401521921157837e-01" purity="1.0401938855648041e-01" nType="-99"/>
          </Node>
          <Node pos="r" depth="2" NCoef="0" IVar="3" Cut="8.3879873156547546e-02" cType="0" res="-1.3952739536762238e-01" rms="1.5165178477764130e-01" purity="2.3638390004634857e-02" nType="0">
            <Node pos="l" depth="3" NCoef="0" IVar="-1" Cut="0.0000000000000000e+00" cType="1" res="-4.2969152331352234e-02" rms="2.2495582699775696e-01" purity="5.3846154361963272e-02" nType="-99"/>
            <Node pos="r" depth="3" NCoef="0" IVar="-1" Cut="0.0000000000000000e+00" cType="1" res="-5.1778059452772141e-02" rms="1.4458428323268890e-01" purity="2.1360898390412331e-02" nType="-99"/>
          </Node>
        </Node>
      </Node>
    </BinaryTree>
    <BinaryTree type="DecisionTree" boostWeight="1.0000000000000000e+00" itree="13">
      <Node pos="s" depth="0" NCoef="0" IVar="3" Cut="1.2153389930725098e+01" cType="0" res="-1.0899746417999268e-01" rms="2.0226985216140747e-01" purity="8.5985988378524780e-02" nType="0">
        <Node pos="l" depth="1" NCoef="0" IVar="2" Cut="3.6456838250160217e-01" cType="0" res="8.8807493448257446e-02" rms="3.2365563511848450e-01" purity="7.9371494054794312e-01" nType="0">
          <Node pos="l" depth="2" NCoef="0" IVar="2" Cut="8.3049917221069336e-01" cType="0" res="1.2171277403831482e-01" rms="2.6632118225097656e-01" purity="8.9443874359130859e-01" nType="0">
            <Node pos="l" depth="3" NCoef="0" IVar="-1" Cut="0.0000000000000000e+00" cType="1" res="4.9306694418191910e-02" rms="1.7662116885185242e-01" purity="9.6414345502853394e-01" nType="-99"/>
            <Node pos="r" depth="3" NCoef="0" IVar="-1" Cut="0.0000000000000000e+00" cType="1" res="1.6980541869997978e-02" rms="4.1982698440551758e-01" purity="7.0365619659423828e-01" nType="-99"/>
          </Node>
          <Node pos="r" depth="2" NCoef="0" IVar="3" Cut="3.5864322662353516e+01" cType="0" res="-4.0986772626638412e-02" rms="4.6589863300323486e-01" purity="3.9641165733337402e-01" nType="0">
            <Node pos="l" depth="3" NCoef="0" IVar="-1" Cut="0.0000000000000000e+00" cType="1" res="4.8161484301090240e-03" rms="4.8110240697860718e-01" purity="4.9358972907066345e-01" nType="-99"/>
            <Node pos="r" depth="3" NCoef="0" IVar="-1" Cut="0.0000000000000000e+00" cType="1" res="-2.1434674039483070e-02" rms="4.4377818703651428e-01" purity="3.0838710069656372e-01" nType="-99"/>
          </Node>
        </Node>
        <Node pos="r" depth="1" NCoef="0" IVar="3" Cut="2.5698542594909668e+00" cType="0" res="-1.2088550627231598e-01" rms="1.8596635758876801e-01" purity="4.3451603502035141e-02" nType="0">
          <Node pos="l" depth="2" NCoef="0" IVar="0" Cut="2.0817840099334717e+00" cType="0" res="-3.9965718984603882e-02" rms="4.2487826943397522e-01" purity="3.4192720055580139e-01" nType="0">
            <Node pos="l" depth="3" NCoef="0" IVar="-1" Cut="0.0000000000000000e+00" cType="1" res="2.2649202495813370e-02" rms="4.0955308079719543e-01" purity="7.3333334922790527e-01" nType="-99"/>
            <Node pos="r" depth="3" NCoef="0" IVar="-1" Cut="0.0000000000000000e+00" cType="1" res="-1.5440066345036030e-02" rms="4.2296174168586731e-01" purity="2.6987829804420471e-01" nType="-99"/>
          </Node>
          <Node pos="r" depth="2" NCoef="0" IVar="4" Cut="2.1317129954695702e-02" cType="0" res="-1.2496902793645859e-01" rms="1.6392615437507629e-01" purity="2.8389394283294678e-02" nType="0">
            <Node pos="l" depth="3" NCoef="0" IVar="-1" Cut="0.0000000000000000e+00" cType="1" res="-3.4969024360179901e-02" rms="2.7670481801033020e-01" purity="8.7355092167854309e-02" nType="-99"/>
            <Node pos="r" depth="3" NCoef="0" IVar="-1" Cut="0.0000000000000000e+00" cType="1" res="-5.0212055444717407e-02" rms="1.4491054415702820e-01" purity="2.1460864692926407e-02" nType="-99"/>
          </Node>
        </Node>
      </Node>
    </BinaryTree>
    <BinaryTree type="DecisionTree" boostWeight="1.0000000000000000e+00" itree="14">
      <Node pos="s" depth="0" NCoef="0" IVar="4" Cut="4.0029951930046082e-01" cType="0" res="-9.8461247980594635e-02" rms="2.0083978772163391e-01" purity="8.5985988378524780e-02" nType="0">
        <Node pos="l" depth="1" NCoef="0" IVar="1" Cut="2.0363561630249023e+01" cType="0" res="8.9206680655479431e-02" rms="3.0526569485664368e-01" purity="8.1845504045486450e-01" nType="0">
          <Node pos="l" depth="2" NCoef="0" IVar="4" Cut="7.9808181524276733e-01" cType="0" res="1.2384510785341263e-01" rms="2.0247025787830353e-01" purity="9.4771808385848999e-01" nType="0">
            <Node pos="l" depth="3" NCoef="0" IVar="-1" Cut="0.0000000000000000e+00" cType="1" res="5.3476832807064056e-02" rms="1.1550576239824295e-01" purity="9.8588454723358154e-01" nType="-99"/>
            <Node pos="r" depth="3" NCoef="0" IVar="-1" Cut="0.0000000000000000e+00" cType="1" res="2.9102317988872528e-02" rms="3.2078304886817932e-01" purity="8.6096256971359253e-01" nType="-99"/>
          </Node>
          <Node pos="r" depth="2" NCoef="0" IVar="0" Cut="1.6240957975387573e+00" cType="0" res="1.2149392627179623e-02" rms="4.4798383116722107e-01" purity="5.3089410066604614e-01" nType="0">
            <Node pos="l" depth="3" NCoef="0" IVar="-1" Cut="0.0000000000000000e+00" cType="1" res="1.3903295621275902e-02" rms="4.3151050806045532e-01" purity="6.4094096422195435e-01" nType="-99"/>
            <Node pos="r" depth="3" NCoef="0" IVar="-1" Cut="0.0000000000000000e+00" cType="1" res="-1.1738991364836693e-02" rms="4.6225041151046753e-01" purity="3.7441313266754150e-01" nType="-99"/>
          </Node>
        </Node>
        <Node pos="r" depth="1" NCoef="0" IVar="3" Cut="2.1620536804199219e+01" cType="0" res="-1.0868313908576965e-01" rms="1.8824225664138794e-01" purity="4.6089872717857361e-02" nType="0">
          <Node pos="l" depth="2" NCoef="0" IVar="2" Cut="2.4892319738864899e-01" cType="0" res="3.8871258497238159e-02" rms="4.3992155790328979e-01" purity="5.9237390756607056e-01" nType="0">
            <Node pos="l" depth="3" NCoef="0" IVar="-1" Cut="0.0000000000000000e+00" cType="1" res="2.2273968905210495e-02" rms="4.1784456372261047e-01" purity="7.2161859273910522e-01" nType="-99"/>
            <Node pos="r" depth="3" NCoef="0" IVar="-1" Cut="0.0000000000000000e+00" cType="1" res="-1.4047946780920029e-02" rms="4.6148401498794556e-01" purity="3.4527221322059631e-01" nType="-99"/>
          </Node>
          <Node pos="r" depth="2" NCoef="0" IVar="4" Cut="1.1678542196750641e-01" cType="0" res="-1.1117961257696152e-01" rms="1.7996034026145935e-01" purity="3.6847274750471115e-02" nType="0">
            <Node pos="l" depth="3" NCoef="0" IVar="-1" Cut="0.0000000000000000e+00" cType="1" res="-2.0886082202196121e-02" rms="3.7135460972785950e-01" purity="1.8749307096004486e-01" nType="-99"/>
            <Node pos="r" depth="3" NCoef="0" IVar="-1" Cut="0.0000000000000000e+00" cType="1" res="-4.7831214964389801e-02" rms="1.5403598546981812e-01" purity="2.4631028994917870e-02" nType="-99"/>
          </Node>
        </Node>
      </Node>
    </BinaryTree>
    <BinaryTree type="DecisionTree" boostWeight="1.0000000000000000e+00" itree="15">
      <Node pos="s" depth="0" NCoef="0" IVar="3" Cut="1.2153389930725098e+01" cType="0" res="-8.8940590620040894e-02" rms="1.9964227080345154e-01" purity="8.5985988378524780e-02" nType="0">
        <Node pos="l" depth="1" NCoef="0" IVar="2" Cut="2.5419029593467712e-01" cType="0" res="7.3441810905933380e-02" rms="3.2005110383033752e-01" purity="7.9371494054794312e-01" nType="0">
          <Node pos="l" depth="2" NCoef="0" IVar="3" Cut="3.8930221557617188e+01" cType="0" res="9.4038739800453186e-02" rms="2.9009097814559937e-01" purity="8.6099356412887573e-01" nType="0">
            <Node pos="l" depth="3" NCoef="0" IVar="-1" Cut="0.0000000000000000e+00" cType="1" res="4.5523572713136673e-02" rms="2.0593261718750000e-01" purity="9.4410508871078491e-01" nType="-99"/>
            <Node pos="r" depth="3" NCoef="0" IVar="-1" Cut="0.0000000000000000e+00" cType="1" res="1.7689997330307961e-02" rms="3.5504701733589172e-01" purity="7.7341485023498535e-01" nType="-99"/>
          </Node>
          <Node pos="r" depth="2" NCoef="0" IVar="-1" Cut="0.0000000000000000e+00" cType="1" res="-1.4922530390322208e-02" rms="4.5352950692176819e-01" purity="3.2809111475944519e-01" nType="-99"/>
        </Node>
        <Node pos="r" depth="1" NCoef="0" IVar="3" Cut="2.6626083850860596e+00" cType="0" res="-9.8699748516082764e-02" rms="1.8551628291606903e-01" purity="4.3451603502035141e-02" nType="0">
          <Node pos="l" depth="2" NCoef="0" IVar="0" Cut="9.2181271314620972e-01" cType="0" res="-2.9100855812430382e-02" rms="4.2460292577743530e-01" purity="3.4781447052955627e-01" nType="0">
            <Node pos="l" depth="3" NCoef="0" IVar="-1" Cut="0.0000000000000000e+00" cType="1" res="5.4724784567952156e-03" rms="4.5687791705131531e-01" purity="5.1980924606323242e-01" nType="-99"/>
            <Node pos="r" depth="3" NCoef="0" IVar="-1" Cut="0.0000000000000000e+00" cType="1" res="-2.0643573254346848e-02" rms="3.8507422804832458e-01" purity="1.8560802936553955e-01" nType="-99"/>
          </Node>
          <Node pos="r" depth="2" NCoef="0" IVar="3" Cut="6.8140584230422974e-01" cType="0" res="-1.0207255929708481e-01" rms="1.6462424397468567e-01" purity="2.8701962903141975e-02" nType="0">
            <Node pos="l" depth="3" NCoef="0" IVar="-1" Cut="0.0000000000000000e+00" cType="1" res="-2.8705418109893799e-02" rms="2.9538458585739136e-01" purity="1.0105703771114349e-01" nType="-99"/>
            <Node pos="r" depth="3" NCoef="0" IVar="-1" Cut="0.0000000000000000e+00" cType="1" res="-4.7156393527984619e-02" rms="1.4671102166175842e-01" purity="2.2025041282176971e-02" nType="-99"/>
          </Node>
        </Node>
      </Node>
    </BinaryTree>
    <BinaryTree type="DecisionTree" boostWeight="1.0000000000000000e+00" itree="16">
      <Node pos="s" depth="0" NCoef="0" IVar="4" Cut="4.0029951930046082e-01" cType="0" res="-8.0347485840320587e-02" rms="1.9865873456001282e-01" purity="8.5985988378524780e-02" nType="0">
        <Node pos="l" depth="1" NCoef="0" IVar="3" Cut="1.2283712387084961e+01" cType="0" res="7.5336717069149017e-02" rms="3.0320423841476440e-01" purity="8.1845504045486450e-01" nType="0">
          <Node pos="l" depth="2" NCoef="0" IVar="1" Cut="3.5248352050781250e+01" cType="0" res="1.0526230186223984e-01" rms="1.9551897048950195e-01" purity="9.5062828063964844e-01" nType="0">
            <Node pos="l" depth="3" NCoef="0" IVar="-1" Cut="0.0000000000000000e+00" cType="1" res="4.7668240964412689e-02" rms="1.5527600049972534e-01" purity="9.7310000658035278e-01" nType="-99"/>
            <Node pos="r" depth="3" NCoef="0" IVar="-1" Cut="0.0000000000000000e+00" cType="1" res="2.0518070086836815e-02" rms="3.4305688738822937e-01" purity="8.2172286510467529e-01" nType="-99"/>
          </Node>
          <Node pos="r" depth="2" NCoef="0" IVar="0" Cut="2.6142611503601074e+00" cType="0" res="1.2968044728040695e-02" rms="4.4508966803550720e-01" purity="5.4298955202102661e-01" nType="0">
            <Node pos="l" depth="3" NCoef="0" IVar="-1" Cut="0.0000000000000000e+00" cType="1" res="2.2818461060523987e-02" rms="3.8895988464355469e-01" purity="7.2280699014663696e-01" nType="-99"/>
            <Node pos="r" depth="3" NCoef="0" IVar="-1" Cut="0.0000000000000000e+00" cType="1" res="-5.5280006490647793e-03" rms="4.6559095382690430e-01" purity="4.5432525873184204e-01" nType="-99"/>
          </Node>
        </Node>
        <Node pos="r" depth="1" NCoef="0" IVar="1" Cut="5.2835369110107422e+01" cType="0" res="-8.8827289640903473e-02" rms="1.8765771389007568e-01" purity="4.6089872717857361e-02" nType="0">
          <Node pos="l" depth="2" NCoef="0" IVar="4" Cut="1.1267785727977753e-01" cType="0" res="3.5417776554822922e-02" rms="4.2773562669754028e-01" purity="6.0855615139007568e-01" nType="0">
            <Node pos="l" depth="3" NCoef="0" IVar="-1" Cut="0.0000000000000000e+00" cType="1" res="1.8220037221908569e-02" rms="4.1203230619430542e-01" purity="7.2894334793090820e-01" nType="-99"/>
            <Node pos="r" depth="3" NCoef="0" IVar="-1" Cut="0.0000000000000000e+00" cType="1" res="-1.2144291773438454e-02" rms="4.4937604665756226e-01" purity="3.2978722453117371e-01" nType="-99"/>
          </Node>
          <Node pos="r" depth="2" NCoef="0" IVar="3" Cut="1.9501894712448120e+00" cType="0" res="-9.0758718550205231e-02" rms="1.8076232075691223e-01" purity="3.7346158176660538e-02" nType="0">
            <Node pos="l" depth="3" NCoef="0" IVar="-1" Cut="0.0000000000000000e+00" cType="1" res="-1.4700051397085190e-02" rms="4.0245449542999268e-01" purity="2.3034289479255676e-01" nType="-99"/>
            <Node pos="r" depth="3" NCoef="0" IVar="-1" Cut="0.0000000000000000e+00" cType="1" res="-4.4451236724853516e-02" rms="1.5778273344039917e-01" purity="2.5843959301710129e-02" nType="-99"/>
          </Node>
        </Node>
      </Node>
    </BinaryTree>
    <BinaryTree type="DecisionTree" boostWeight="1.0000000000000000e+00" itree="17">
      <Node pos="s" depth="0" NCoef="0" IVar="4" Cut="3.3661600947380066e-01" cType="0" res="-7.2575055062770844e-02" rms="1.9783492386341095e-01" purity="8.5985988378524780e-02" nType="0">
        <Node pos="l" depth="1" NCoef="0" IVar="1" Cut="2.0500265121459961e+01" cType="0" res="5.7649992406368256e-02" rms="3.2266384363174438e-01" purity="7.6245063543319702e-01" nType="0">
          <Node pos="l" depth="2" NCoef="0" IVar="4" Cut="8.1174755096435547e-01" cType="0" res="9.2220112681388855e-02" rms="2.2224649786949158e-01" purity="9.3331301212310791e-01" nType="0">
            <Node pos="l" depth="3" NCoef="0" IVar="-1" Cut="0.0000000000000000e+00" cType="1" res="5.0553906708955765e-02" rms="1.1356128752231598e-01" purity="9.8636865615844727e-01" nType="-99"/>
            <Node pos="r" depth="3" NCoef="0" IVar="-1" Cut="0.0000000000000000e+00" cType="1" res="2.1403158083558083e-02" rms="3.3692574501037598e-01" purity="8.3883714675903320e-01" nType="-99"/>
          </Node>
          <Node pos="r" depth="2" NCoef="0" IVar="0" Cut="1.4797496795654297e+00" cType="0" res="-3.2884250394999981e-03" rms="4.4130113720893860e-01" purity="4.6126320958137512e-01" nType="0">
            <Node pos="l" depth="3" NCoef="0" IVar="-1" Cut="0.0000000000000000e+00" cType="1" res="9.4225350767374039e-03" rms="4.3649336695671082e-01" purity="5.8322578668594360e-01" nType="-99"/>
            <Node pos="r" depth="3" NCoef="0" IVar="-1" Cut="0.0000000000000000e+00" cType="1" res="-1.2906213290989399e-02" rms="4.4142347574234009e-01" purity="3.0936118960380554e-01" nType="-99"/>
          </Node>
        </Node>
        <Node pos="r" depth="1" NCoef="0" IVar="1" Cut="5.4416183471679688e+01" cType="0" res="-8.0877505242824554e-02" rms="1.8397332727909088e-01" purity="4.2858205735683441e-02" nType="0">
          <Node pos="l" depth="2" NCoef="0" IVar="4" Cut="1.2768036127090454e-01" cType="0" res="2.8678458184003830e-02" rms="4.3511053919792175e-01" purity="5.8661419153213501e-01" nType="0">
            <Node pos="l" depth="3" NCoef="0" IVar="-1" Cut="0.0000000000000000e+00" cType="1" res="1.7816115170717239e-02" rms="4.1511422395706177e-01" purity="7.3193824291229248e-01" nType="-99"/>
            <Node pos="r" depth="3" NCoef="0" IVar="-1" Cut="0.0000000000000000e+00" cType="1" res="-8.8681923225522041e-03" rms="4.5598125457763672e-01" purity="3.6138996481895447e-01" nType="-99"/>
          </Node>
          <Node pos="r" depth="2" NCoef="0" IVar="4" Cut="9.1926634311676025e-02" cType="0" res="-8.2391805946826935e-02" rms="1.7756405472755432e-01" purity="3.5342331975698471e-02" nType="0">
            <Node pos="l" depth="3" NCoef="0" IVar="-1" Cut="0.0000000000000000e+00" cType="1" res="-1.8153952434659004e-02" rms="3.5286989808082581e-01" purity="1.6253702342510223e-01" nType="-99"/>
            <Node pos="r" depth="3" NCoef="0" IVar="-1" Cut="0.0000000000000000e+00" cType="1" res="-4.3908894062042236e-02" rms="1.5118798613548279e-01" purity="2.3555563762784004e-02" nType="-99"/>
          </Node>
        </Node>
      </Node>
    </BinaryTree>
    <BinaryTree type="DecisionTree" boostWeight="1.0000000000000000e+00" itree="18">
      <Node pos="s" depth="0" NCoef="0" IVar="3" Cut="3.2294402122497559e+00" cType="0" res="-6.5553709864616394e-02" rms="1.9714467227458954e-01" purity="8.5985988378524780e-02" nType="0">
        <Node pos="l" depth="1" NCoef="0" IVar="0" Cut="9.3700951337814331e-01" cType="0" res="2.8278151527047157e-02" rms="3.6562645435333252e-01" purity="6.3319730758666992e-01" nType="0">
          <Node pos="l" depth="2" NCoef="0" IVar="0" Cut="2.2468011379241943e+00" cType="0" res="6.2908865511417389e-02" rms="3.2521769404411316e-01" purity="8.0881339311599731e-01" nType="0">
            <Node pos="l" depth="3" NCoef="0" IVar="-1" Cut="0.0000000000000000e+00" cType="1" res="3.9333604276180267e-02" rms="1.9794718921184540e-01" purity="9.4985687732696533e-01" nType="-99"/>
            <Node pos="r" depth="3" NCoef="0" IVar="-1" Cut="0.0000000000000000e+00" cType="1" res="6.1233467422425747e-03" rms="4.4699656963348389e-01" purity="6.0475462675094604e-01" nType="-99"/>
          </Node>
          <Node pos="r" depth="2" NCoef="0" IVar="2" Cut="1.2303152680397034e-01" cType="0" res="-4.2369388043880463e-02" rms="4.2801249027252197e-01" purity="2.7493605017662048e-01" nType="0">
            <Node pos="l" depth="3" NCoef="0" IVar="-1" Cut="0.0000000000000000e+00" cType="1" res="-5.9776138514280319e-03" rms="4.4149133563041687e-01" purity="3.0379348993301392e-01" nType="-99"/>
            <Node pos="r" depth="3" NCoef="0" IVar="-1" Cut="0.0000000000000000e+00" cType="1" res="-3.0391650274395943e-02" rms="3.5430991649627686e-01" purity="1.4996591210365295e-01" nType="-99"/>
          </Node>
        </Node>
        <Node pos="r" depth="1" NCoef="0" IVar="4" Cut="2.1317129954695702e-02" cType="0" res="-7.5092092156410217e-02" rms="1.6805221140384674e-01" purity="3.0359784141182899e-02" nType="0">
          <Node pos="l" depth="2" NCoef="0" IVar="0" Cut="8.8338065147399902e-01" cType="0" res="-6.0727644711732864e-02" rms="2.8963640332221985e-01" purity="9.9023550748825073e-02" nType="0">
            <Node pos="l" depth="3" NCoef="0" IVar="-1" Cut="0.0000000000000000e+00" cType="1" res="-1.3964461162686348e-02" rms="3.3922627568244934e-01" purity="1.4540441334247589e-01" nType="-99"/>
            <Node pos="r" depth="3" NCoef="0" IVar="-1" Cut="0.0000000000000000e+00" cType="1" res="-3.0849913135170937e-02" rms="2.4929514527320862e-01" purity="6.7389667034149170e-02" nType="-99"/>
          </Node>
          <Node pos="r" depth="2" NCoef="0" IVar="3" Cut="-2.9824128374457359e-02" cType="1" res="-7.6953783631324768e-02" rms="1.4491082727909088e-01" purity="2.1460657939314842e-02" nType="0">
            <Node pos="l" depth="3" NCoef="0" IVar="-1" Cut="0.0000000000000000e+00" cType="1" res="-3.5371523350477219e-02" rms="1.8535667657852173e-01" purity="3.5626199096441269e-02" nType="-99"/>
            <Node pos="r" depth="3" NCoef="0" IVar="-1" Cut="0.0000000000000000e+00" cType="1" res="-4.3508015573024750e-02" rms="1.4406871795654297e-01" purity="2.1206503733992577e-02" nType="-99"/>
          </Node>
        </Node>
      </Node>
    </BinaryTree>
    <BinaryTree type="DecisionTree" boostWeight="1.0000000000000000e+00" itree="19">
      <Node pos="s" depth="0" NCoef="0" IVar="3" Cut="1.2618987083435059e+01" cType="0" res="-5.9214141219854355e-02" rms="1.9655732810497284e-01" purity="8.5985988378524780e-02" nType="0">
        <Node pos="l" depth="1" NCoef="0" IVar="2" Cut="3.6456838250160217e-01" cType="0" res="5.2523434162139893e-02" rms="3.1362640857696533e-01" purity="7.9713171720504761e-01" nType="0">
          <Node pos="l" depth="2" NCoef="0" IVar="3" Cut="3.8324081420898438e+01" cType="0" res="7.2412855923175812e-02" rms="2.5997111201286316e-01" purity="8.9826369285583496e-01" nType="0">
            <Node pos="l" depth="3" NCoef="0" IVar="-1" Cut="0.0000000000000000e+00" cType="1" res="4.3421588838100433e-02" rms="1.7310658097267151e-01" purity="9.6490377187728882e-01" nType="-99"/>
            <Node pos="r" depth="3" NCoef="0" IVar="-1" Cut="0.0000000000000000e+00" cType="1" res="1.6699081286787987e-02" rms="3.3279192447662354e-01" purity="8.2019704580307007e-01" nType="-99"/>
          </Node>
          <Node pos="r" depth="2" NCoef="0" IVar="3" Cut="4.2761482238769531e+01" cType="0" res="-2.5999715551733971e-02" rms="4.6058574318885803e-01" purity="3.9786428213119507e-01" nType="0">
            <Node pos="l" depth="3" NCoef="0" IVar="-1" Cut="0.0000000000000000e+00" cType="1" res="6.5436349250376225e-03" rms="4.7887209057807922e-01" purity="5.1404494047164917e-01" nType="-99"/>
            <Node pos="r" depth="3" NCoef="0" IVar="-1" Cut="0.0000000000000000e+00" cType="1" res="-1.3271639123558998e-02" rms="4.4627854228019714e-01" purity="3.3024522662162781e-01" nType="-99"/>
          </Node>
        </Node>
        <Node pos="r" depth="1" NCoef="0" IVar="3" Cut="2.3323488235473633e+00" cType="0" res="-6.5811716020107269e-02" rms="1.8527676165103912e-01" purity="4.3996199965476990e-02" nType="0">
          <Node pos="l" depth="2" NCoef="0" IVar="0" Cut="8.6908352375030518e-01" cType="0" res="-2.1483873948454857e-02" rms="4.1618153452873230e-01" purity="3.2993429899215698e-01" nType="0">
            <Node pos="l" depth="3" NCoef="0" IVar="-1" Cut="0.0000000000000000e+00" cType="1" res="3.2578732352703810e-03" rms="4.5164152979850769e-01" purity="4.8313608765602112e-01" nType="-99"/>
            <Node pos="r" depth="3" NCoef="0" IVar="-1" Cut="0.0000000000000000e+00" cType="1" res="-1.6778055578470230e-02" rms="3.7209022045135498e-01" purity="1.7008797824382782e-01" nType="-99"/>
          </Node>
          <Node pos="r" depth="2" NCoef="0" IVar="3" Cut="9.1296121478080750e-02" cType="0" res="-6.8362906575202942e-02" rms="1.6191035509109497e-01" purity="2.7539646252989769e-02" nType="0">
            <Node pos="l" depth="3" NCoef="0" IVar="-1" Cut="0.0000000000000000e+00" cType="1" res="-2.5028722360730171e-02" rms="2.6468142867088318e-01" purity="7.8679792582988739e-02" nType="-99"/>
            <Node pos="r" depth="3" NCoef="0" IVar="-1" Cut="0.0000000000000000e+00" cType="1" res="-4.2081654071807861e-02" rms="1.4459343254566193e-01" purity="2.1364398300647736e-02" nType="-99"/>
          </Node>
        </Node>
      </Node>
    </BinaryTree>
    <BinaryTree type="DecisionTree" boostWeight="1.0000000000000000e+00" itree="20">
      <Node pos="s" depth="0" NCoef="0" IVar="4" Cut="4.0029951930046082e-01" cType="0" res="-5.3484342992305756e-02" rms="1.9607314467430115e-01" purity="8.5985988378524780e-02" nType="0">
        <Node pos="l" depth="1" NCoef="0" IVar="0" Cut="2.2532212734222412e+00" cType="0" res="5.2182152867317200e-02" rms="3.0043300986289978e-01" purity="8.1845504045486450e-01" nType="0">
          <Node pos="l" depth="2" NCoef="0" IVar="4" Cut="6.3007754087448120e-01" cType="0" res="7.4493966996669769e-02" rms="2.1003822982311249e-01" purity="9.2816370725631714e-01" nType="0">
            <Node pos="l" depth="3" NCoef="0" IVar="-1" Cut="0.0000000000000000e+00" cType="1" res="4.0610074996948242e-02" rms="1.8079802393913269e-01" purity="9.5841139554977417e-01" nType="-99"/>
            <Node pos="r" depth="3" NCoef="0" IVar="-1" Cut="0.0000000000000000e+00" cType="1" res="1.0378368198871613e-02" rms="3.3686533570289612e-01" purity="7.3865413665771484e-01" nType="-99"/>
          </Node>
          <Node pos="r" depth="2" NCoef="0" IVar="3" Cut="1.6257154464721680e+01" cType="0" res="6.8695540539920330e-04" rms="4.3927043676376343e-01" purity="5.6524980068206787e-01" nType="0">
            <Node pos="l" depth="3" NCoef="0" IVar="-1" Cut="0.0000000000000000e+00" cType="1" res="1.9156962633132935e-02" rms="3.6605343222618103e-01" purity="8.2620322704315186e-01" nType="-99"/>
            <Node pos="r" depth="3" NCoef="0" IVar="-1" Cut="0.0000000000000000e+00" cType="1" res="-5.4819630458950996e-03" rms="4.6202796697616577e-01" purity="4.6432265639305115e-01" nType="-99"/>
          </Node>
        </Node>
        <Node pos="r" depth="1" NCoef="0" IVar="1" Cut="8.7898590087890625e+01" cType="0" res="-5.9239786118268967e-02" rms="1.8703241646289825e-01" purity="4.6089872717857361e-02" nType="0">
          <Node pos="l" depth="2" NCoef="0" IVar="-1" Cut="0.0000000000000000e+00" cType="1" res="1.6344662755727768e-02" rms="4.0396714210510254e-01" purity="7.0103091001510620e-01" nType="-99"/>
          <Node pos="r" depth="2" NCoef="0" IVar="3" Cut="1.6099302768707275e+00" cType="0" res="-6.0179419815540314e-02" rms="1.8409135937690735e-01" purity="4.1111990809440613e-02" nType="0">
            <Node pos="l" depth="3" NCoef="0" IVar="-1" Cut="0.0000000000000000e+00" cType="1" res="-1.0013208724558353e-02" rms="3.9325696229934692e-01" purity="2.4058158695697784e-01" nType="-99"/>
            <Node pos="r" depth="3" NCoef="0" IVar="-1" Cut="0.0000000000000000e+00" cType="1" res="-3.9284907281398773e-02" rms="1.5446472167968750e-01" purity="2.4635797366499901e-02" nType="-99"/>
          </Node>
        </Node>
      </Node>
    </BinaryTree>
    <BinaryTree type="DecisionTree" boostWeight="1.0000000000000000e+00" itree="21">
      <Node pos="s" depth="0" NCoef="0" IVar="4" Cut="2.7293252944946289e-01" cType="0" res="-4.8301786184310913e-02" rms="1.9567956030368805e-01" purity="8.5985988378524780e-02" nType="0">
        <Node pos="l" depth="1" NCoef="0" IVar="1" Cut="3.4683849334716797e+01" cType="0" res="3.2337594777345657e-02" rms="3.3750465512275696e-01" purity="6.9241929054260254e-01" nType="0">
          <Node pos="l" depth="2" NCoef="0" IVar="3" Cut="3.8702716827392578e+01" cType="0" res="7.2022899985313416e-02" rms="1.9855198264122009e-01" purity="9.5067161321640015e-01" nType="0">
            <Node pos="l" depth="3" NCoef="0" IVar="-1" Cut="0.0000000000000000e+00" cType="1" res="4.5515350997447968e-02" rms="1.3946850597858429e-01" purity="9.7924000024795532e-01" nType="-99"/>
            <Node pos="r" depth="3" NCoef="0" IVar="-1" Cut="0.0000000000000000e+00" cType="1" res="2.4083117023110390e-02" rms="2.7362835407257080e-01" purity="8.9952754974365234e-01" nType="-99"/>
          </Node>
          <Node pos="r" depth="2" NCoef="0" IVar="4" Cut="7.3867231607437134e-01" cType="0" res="-3.7062971387058496e-03" rms="4.2288491129875183e-01" purity="4.5786345005035400e-01" nType="0">
            <Node pos="l" depth="3" NCoef="0" IVar="-1" Cut="0.0000000000000000e+00" cType="1" res="1.9636316224932671e-02" rms="3.4135815501213074e-01" purity="8.3767718076705933e-01" nType="-99"/>
            <Node pos="r" depth="3" NCoef="0" IVar="-1" Cut="0.0000000000000000e+00" cType="1" res="-5.5059213191270828e-03" rms="4.4184079766273499e-01" purity="3.4809038043022156e-01" nType="-99"/>
          </Node>
        </Node>
        <Node pos="r" depth="1" NCoef="0" IVar="1" Cut="8.8116859436035156e+01" cType="0" res="-5.4581291973590851e-02" rms="1.7848284542560577e-01" purity="3.8762122392654419e-02" nType="0">
          <Node pos="l" depth="2" NCoef="0" IVar="-1" Cut="0.0000000000000000e+00" cType="1" res="1.0183587670326233e-02" rms="4.4111374020576477e-01" purity="6.2609970569610596e-01" nType="-99"/>
          <Node pos="r" depth="2" NCoef="0" IVar="4" Cut="5.6553024798631668e-02" cType="0" res="-5.5144641548395157e-02" rms="1.7568887770175934e-01" purity="3.5391192883253098e-02" nType="0">
            <Node pos="l" depth="3" NCoef="0" IVar="-1" Cut="0.0000000000000000e+00" cType="1" res="-1.4742270112037659e-02" rms="3.2936516404151917e-01" purity="1.4694848656654358e-01" nType="-99"/>
            <Node pos="r" depth="3" NCoef="0" IVar="-1" Cut="0.0000000000000000e+00" cType="1" res="-3.9009101688861847e-02" rms="1.4764779806137085e-01" purity="2.2398963570594788e-02" nType="-99"/>
          </Node>
        </Node>
      </Node>
    </BinaryTree>
    <BinaryTree type="DecisionTree" boostWeight="1.0000000000000000e+00" itree="22">
      <Node pos="s" depth="0" NCoef="0" IVar="3" Cut="2.9966413974761963e+00" cType="0" res="-4.3618608266115189e-02" rms="1.9533763825893402e-01" purity="8.5985988378524780e-02" nType="0">
        <Node pos="l" depth="1" NCoef="0" IVar="2" Cut="6.6269493103027344e-01" cType="0" res="1.9713670015335083e-02" rms="3.6394497752189636e-01" purity="6.2088227272033691e-01" nType="0">
          <Node pos="l" depth="2" NCoef="0" IVar="0" Cut="4.8762078285217285e+00" cType="0" res="5.2853967994451523e-02" rms="2.9305431246757507e-01" purity="8.3809959888458252e-01" nType="0">
            <Node pos="l" depth="3" NCoef="0" IVar="-1" Cut="0.0000000000000000e+00" cType="1" res="4.7686614096164703e-02" rms="1.0376609116792679e-01" purity="9.8701775074005127e-01" nType="-99"/>
            <Node pos="r" depth="3" NCoef="0" IVar="-1" Cut="0.0000000000000000e+00" cType="1" res="1.1807296425104141e-02" rms="3.7293866276741028e-01" purity="7.3155415058135986e-01" nType="-99"/>
          </Node>
          <Node pos="r" depth="2" NCoef="0" IVar="1" Cut="1.0068210601806641e+02" cType="0" res="-1.8356302753090858e-02" rms="4.2807501554489136e-01" purity="3.7135347723960876e-01" nType="0">
            <Node pos="l" depth="3" NCoef="0" IVar="-1" Cut="0.0000000000000000e+00" cType="1" res="1.8997192382812500e-02" rms="4.1380542516708374e-01" purity="7.1314388513565063e-01" nType="-99"/>
            <Node pos="r" depth="3" NCoef="0" IVar="-1" Cut="0.0000000000000000e+00" cType="1" res="-7.2422404773533344e-03" rms="4.2829781770706177e-01" purity="3.3394888043403625e-01" nType="-99"/>
          </Node>
        </Node>
        <Node pos="r" depth="1" NCoef="0" IVar="3" Cut="9.3358534574508667e-01" cType="0" res="-5.0282560288906097e-02" rms="1.6663728654384613e-01" purity="2.9703097417950630e-02" nType="0">
          <Node pos="l" depth="2" NCoef="0" IVar="0" Cut="1.0271477699279785e+00" cType="0" res="-3.8098029792308807e-02" rms="3.1418189406394958e-01" purity="1.1796139180660248e-01" nType="0">
            <Node pos="l" depth="3" NCoef="0" IVar="-1" Cut="0.0000000000000000e+00" cType="1" res="-3.7236646749079227e-03" rms="3.8343846797943115e-01" purity="1.9272388517856598e-01" nType="-99"/>
            <Node pos="r" depth="3" NCoef="0" IVar="-1" Cut="0.0000000000000000e+00" cType="1" res="-2.1600699052214622e-02" rms="2.7704748511314392e-01" purity="8.4689475595951080e-02" nType="-99"/>
          </Node>
          <Node pos="r" depth="2" NCoef="0" IVar="0" Cut="7.0519351959228516e-01" cType="0" res="-5.1265668123960495e-02" rms="1.4842864871025085e-01" purity="2.2581975907087326e-02" nType="0">
            <Node pos="l" depth="3" NCoef="0" IVar="-1" Cut="0.0000000000000000e+00" cType="1" res="-3.6157008260488510e-02" rms="1.5437455475330353e-01" purity="2.4495068937540054e-02" nType="-99"/>
            <Node pos="r" depth="3" NCoef="0" IVar="-1" Cut="0.0000000000000000e+00" cType="1" res="-3.9200238883495331e-02" rms="1.4047305285930634e-01" purity="2.0148718729615211e-02" nType="-99"/>
          </Node>
        </Node>
      </Node>
    </BinaryTree>
    <BinaryTree type="DecisionTree" boostWeight="1.0000000000000000e+00" itree="23">
      <Node pos="s" depth="0" NCoef="0" IVar="3" Cut="1.6188566207885742e+01" cType="0" res="-3.9389211684465408e-02" rms="1.9504004716873169e-01" purity="8.5985988378524780e-02" nType="0">
        <Node pos="l" depth="1" NCoef="0" IVar="2" Cut="2.5667822360992432e-01" cType="0" res="4.2276188731193542e-02" rms="3.0164390802383423e-01" purity="8.1473767757415771e-01" nType="0">
          <Node pos="l" depth="2" NCoef="0" IVar="3" Cut="3.8981643676757812e+01" cType="0" res="5.3337872028350830e-02" rms="2.6886782050132751e-01" purity="8.8561540842056274e-01" nType="0">
            <Node pos="l" depth="3" NCoef="0" IVar="-1" Cut="0.0000000000000000e+00" cType="1" res="3.4220091998577118e-02" rms="2.0380987226963043e-01" purity="9.4497239589691162e-01" nType="-99"/>
            <Node pos="r" depth="3" NCoef="0" IVar="-1" Cut="0.0000000000000000e+00" cType="1" res="1.3134964741766453e-02" rms="3.3782726526260376e-01" purity="8.0400419235229492e-01" nType="-99"/>
          </Node>
          <Node pos="r" depth="2" NCoef="0" IVar="-1" Cut="0.0000000000000000e+00" cType="1" res="-7.0445192977786064e-03" rms="4.5755055546760559e-01" purity="3.4240093827247620e-01" nType="-99"/>
        </Node>
        <Node pos="r" depth="1" NCoef="0" IVar="4" Cut="7.4008530378341675e-01" cType="0" res="-4.3714884668588638e-02" rms="1.8671920895576477e-01" purity="4.7385308891534805e-02" nType="0">
          <Node pos="l" depth="2" NCoef="0" IVar="-1" Cut="0.0000000000000000e+00" cType="1" res="1.6468828544020653e-02" rms="3.4932962059974670e-01" purity="8.2824027538299561e-01" nType="-99"/>
          <Node pos="r" depth="2" NCoef="0" IVar="4" Cut="1.4207997918128967e-01" cType="0" res="-4.4462475925683975e-02" rms="1.8469043076038361e-01" purity="4.1280683130025864e-02" nType="0">
            <Node pos="l" depth="3" NCoef="0" IVar="-1" Cut="0.0000000000000000e+00" cType="1" res="-7.2400113567709923e-03" rms="3.9543178677558899e-01" purity="2.4255587160587311e-01" nType="-99"/>
            <Node pos="r" depth="3" NCoef="0" IVar="-1" Cut="0.0000000000000000e+00" cType="1" res="-3.4752536565065384e-02" rms="1.5679107606410980e-01" purity="2.5648081675171852e-02" nType="-99"/>
          </Node>
        </Node>
      </Node>
    </BinaryTree>
    <BinaryTree type="DecisionTree" boostWeight="1.0000000000000000e+00" itree="24">
      <Node pos="s" depth="0" NCoef="0" IVar="3" Cut="2.9966413974761963e+00" cType="0" res="-3.5563517361879349e-02" rms="1.9481693208217621e-01" purity="8.5985988378524780e-02" nType="0">
        <Node pos="l" depth="1" NCoef="0" IVar="2" Cut="6.6269493103027344e-01" cType="0" res="1.6866100952029228e-02" rms="3.6299994587898254e-01" purity="6.2088227272033691e-01" nType="0">
          <Node pos="l" depth="2" NCoef="0" IVar="0" Cut="2.9098341464996338e+00" cType="0" res="4.5360185205936432e-02" rms="2.9276350140571594e-01" purity="8.3809959888458252e-01" nType="0">
            <Node pos="l" depth="3" NCoef="0" IVar="-1" Cut="0.0000000000000000e+00" cType="1" res="3.7767056375741959e-02" rms="1.5775491297245026e-01" purity="9.6891057491302490e-01" nType="-99"/>
            <Node pos="r" depth="3" NCoef="0" IVar="-1" Cut="0.0000000000000000e+00" cType="1" res="7.2478749789297581e-03" rms="4.1709065437316895e-01" purity="6.4702570438385010e-01" nType="-99"/>
          </Node>
          <Node pos="r" depth="2" NCoef="0" IVar="1" Cut="1.0068210601806641e+02" cType="0" res="-1.5866525471210480e-02" rms="4.2740449309349060e-01" purity="3.7135347723960876e-01" nType="0">
            <Node pos="l" depth="3" NCoef="0" IVar="-1" Cut="0.0000000000000000e+00" cType="1" res="1.5657659620046616e-02" rms="4.1321212053298950e-01" purity="7.1314388513565063e-01" nType="-99"/>
            <Node pos="r" depth="3" NCoef="0" IVar="-1" Cut="0.0000000000000000e+00" cType="1" res="-6.2052104622125626e-03" rms="4.2805886268615723e-01" purity="3.3394888043403625e-01" nType="-99"/>
          </Node>
        </Node>
        <Node pos="r" depth="1" NCoef="0" IVar="4" Cut="9.3701509758830070e-03" cType="0" res="-4.1080269962549210e-02" rms="1.6662088036537170e-01" purity="2.9703097417950630e-02" nType="0">
          <Node pos="l" depth="2" NCoef="0" IVar="0" Cut="8.8338065147399902e-01" cType="0" res="-3.1591866165399551e-02" rms="2.8037628531455994e-01" purity="9.1685980558395386e-02" nType="0">
            <Node pos="l" depth="3" NCoef="0" IVar="-1" Cut="0.0000000000000000e+00" cType="1" res="-6.4454898238182068e-03" rms="3.3102443814277649e-01" purity="1.3622602820396423e-01" nType="-99"/>
            <Node pos="r" depth="3" NCoef="0" IVar="-1" Cut="0.0000000000000000e+00" cType="1" res="-2.2617053240537643e-02" rms="2.4113407731056213e-01" purity="6.2638349831104279e-02" nType="-99"/>
          </Node>
          <Node pos="r" depth="2" NCoef="0" IVar="3" Cut="-2.8570713475346565e-02" cType="1" res="-4.2355418205261230e-02" rms="1.4462111890316010e-01" purity="2.1373199298977852e-02" nType="0">
            <Node pos="l" depth="3" NCoef="0" IVar="-1" Cut="0.0000000000000000e+00" cType="1" res="-2.4074679240584373e-02" rms="1.8513153493404388e-01" purity="3.5538546741008759e-02" nType="-99"/>
            <Node pos="r" depth="3" NCoef="0" IVar="-1" Cut="0.0000000000000000e+00" cType="1" res="-3.5702887922525406e-02" rms="1.4377039670944214e-01" purity="2.1116467192769051e-02" nType="-99"/>
          </Node>
        </Node>
      </Node>
    </BinaryTree>
    <BinaryTree type="DecisionTree" boostWeight="1.0000000000000000e+00" itree="25">
      <Node pos="s" depth="0" NCoef="0" IVar="3" Cut="1.6188566207885742e+01" cType="0" res="-3.2110176980495453e-02" rms="1.9460563361644745e-01" purity="8.5985988378524780e-02" nType="0">
        <Node pos="l" depth="1" NCoef="0" IVar="4" Cut="2.8126072883605957e-01" cType="0" res="3.5568110644817352e-02" rms="3.0107331275939941e-01" purity="8.1473767757415771e-01" nType="0">
          <Node pos="l" depth="2" NCoef="0" IVar="3" Cut="3.8708618164062500e+01" cType="0" res="5.1539327949285507e-02" rms="2.0976282656192780e-01" purity="9.4104260206222534e-01" nType="0">
            <Node pos="l" depth="3" NCoef="0" IVar="-1" Cut="0.0000000000000000e+00" cType="1" res="4.1822500526905060e-02" rms="1.3644680380821228e-01" purity="9.8014533519744873e-01" nType="-99"/>
            <Node pos="r" depth="3" NCoef="0" IVar="-1" Cut="0.0000000000000000e+00" cType="1" res="1.7573926597833633e-02" rms="2.8936979174613953e-01" purity="8.7953150272369385e-01" nType="-99"/>
          </Node>
          <Node pos="r" depth="2" NCoef="0" IVar="1" Cut="9.8359069824218750e+01" cType="0" res="-3.9085657335817814e-03" rms="4.5138642191886902e-01" purity="5.0254487991333008e-01" nType="0">
            <Node pos="l" depth="3" NCoef="0" IVar="-1" Cut="0.0000000000000000e+00" cType="1" res="9.8377382382750511e-03" rms="4.3536928296089172e-01" purity="6.7082536220550537e-01" nType="-99"/>
            <Node pos="r" depth="3" NCoef="0" IVar="-1" Cut="0.0000000000000000e+00" cType="1" res="-4.9098702147603035e-03" rms="4.5626786351203918e-01" purity="4.3738386034965515e-01" nType="-99"/>
          </Node>
        </Node>
        <Node pos="r" depth="1" NCoef="0" IVar="4" Cut="7.4008530378341675e-01" cType="0" res="-3.5694975405931473e-02" rms="1.8660266697406769e-01" purity="4.7385308891534805e-02" nType="0">
          <Node pos="l" depth="2" NCoef="0" IVar="-1" Cut="0.0000000000000000e+00" cType="1" res="1.3696166686713696e-02" rms="3.4922999143600464e-01" purity="8.2824027538299561e-01" nType="-99"/>
          <Node pos="r" depth="2" NCoef="0" IVar="3" Cut="1.3158891201019287e+00" cType="0" res="-3.6299061030149460e-02" rms="1.8464088439941406e-01" purity="4.1280683130025864e-02" nType="0">
            <Node pos="l" depth="3" NCoef="0" IVar="-1" Cut="0.0000000000000000e+00" cType="1" res="-6.5804659388959408e-03" rms="3.8023567199707031e-01" purity="2.1716737747192383e-01" nType="-99"/>
            <Node pos="r" depth="3" NCoef="0" IVar="-1" Cut="0.0000000000000000e+00" cType="1" res="-3.2834656536579132e-02" rms="1.5159803628921509e-01" purity="2.3635571822524071e-02" nType="-99"/>
          </Node>
        </Node>
      </Node>
    </BinaryTree>
    <BinaryTree type="DecisionTree" boostWeight="1.0000000000000000e+00" itree="26">
      <Node pos="s" depth="0" NCoef="0" IVar="4" Cut="6.0727089643478394e-01" cType="0" res="-2.8986336663365364e-02" rms="1.9444142282009125e-01" purity="8.5985988378524780e-02" nType="0">
        <Node pos="l" depth="1" NCoef="0" IVar="0" Cut="3.0478472709655762e+00" cType="0" res="4.3595183640718460e-02" rms="2.3270875215530396e-01" purity="9.1833919286727905e-01" nType="0">
          <Node pos="l" depth="2" NCoef="0" IVar="4" Cut="1.1240059137344360e+00" cType="0" res="5.3474783897399902e-02" rms="1.5154328942298889e-01" purity="9.6977829933166504e-01" nType="0">
            <Node pos="l" depth="3" NCoef="0" IVar="-1" Cut="0.0000000000000000e+00" cType="1" res="4.5820835977792740e-02" rms="1.0636790841817856e-01" purity="9.8819118738174438e-01" nType="-99"/>
            <Node pos="r" depth="3" NCoef="0" IVar="-1" Cut="0.0000000000000000e+00" cType="1" res="2.1523451432585716e-02" rms="2.4144032597541809e-01" purity="9.1351658105850220e-01" nType="-99"/>
          </Node>
          <Node pos="r" depth="2" NCoef="0" IVar="3" Cut="1.1986375808715820e+01" cType="0" res="1.3647647574543953e-02" rms="3.8405629992485046e-01" purity="7.6241439580917358e-01" nType="0">
            <Node pos="l" depth="3" NCoef="0" IVar="-1" Cut="0.0000000000000000e+00" cType="1" res="1.7201682552695274e-02" rms="2.9728308320045471e-01" purity="8.9412736892700195e-01" nType="-99"/>
            <Node pos="r" depth="3" NCoef="0" IVar="-1" Cut="0.0000000000000000e+00" cType="1" res="-3.7475300487130880e-03" rms="4.5745167136192322e-01" purity="6.2111800909042358e-01" nType="-99"/>
          </Node>
        </Node>
        <Node pos="r" depth="1" NCoef="0" IVar="1" Cut="4.7758338928222656e+01" cType="0" res="-3.1739965081214905e-02" rms="1.9230154156684875e-01" purity="5.4407820105552673e-02" nType="0">
          <Node pos="l" depth="2" NCoef="0" IVar="4" Cut="1.1273744702339172e-01" cType="0" res="1.8646253272891045e-02" rms="3.9583286643028259e-01" purity="6.6310888528823853e-01" nType="0">
            <Node pos="l" depth="3" NCoef="0" IVar="-1" Cut="0.0000000000000000e+00" cType="1" res="1.0549206286668777e-02" rms="3.7771654129028320e-01" purity="7.7367204427719116e-01" nType="-99"/>
            <Node pos="r" depth="3" NCoef="0" IVar="-1" Cut="0.0000000000000000e+00" cType="1" res="-7.2231255471706390e-03" rms="4.4382065534591675e-01" purity="3.2006368041038513e-01" nType="-99"/>
          </Node>
          <Node pos="r" depth="2" NCoef="0" IVar="4" Cut="3.9188064634799957e-02" cType="0" res="-3.2808158546686172e-02" rms="1.8543782830238342e-01" purity="4.1503302752971649e-02" nType="0">
            <Node pos="l" depth="3" NCoef="0" IVar="-1" Cut="0.0000000000000000e+00" cType="1" res="-8.1884833052754402e-03" rms="3.4148901700973511e-01" purity="1.6546998918056488e-01" nType="-99"/>
            <Node pos="r" depth="3" NCoef="0" IVar="-1" Cut="0.0000000000000000e+00" cType="1" res="-3.2538980245590210e-02" rms="1.4578647911548615e-01" purity="2.1737366914749146e-02" nType="-99"/>
          </Node>
        </Node>
      </Node>
    </BinaryTree>
    <BinaryTree type="DecisionTree" boostWeight="1.0000000000000000e+00" itree="27">
      <Node pos="s" depth="0" NCoef="0" IVar="4" Cut="2.5701165199279785e-01" cType="0" res="-2.6163589209318161e-02" rms="1.9429947435855865e-01" purity="8.5985988378524780e-02" nType="0">
        <Node pos="l" depth="1" NCoef="0" IVar="0" Cut="9.3725496530532837e-01" cType="0" res="1.8891016021370888e-02" rms="3.3870095014572144e-01" purity="6.7389303445816040e-01" nType="0">
          <Node pos="l" depth="2" NCoef="0" IVar="3" Cut="1.2418305397033691e+01" cType="0" res="2.8652762994170189e-02" rms="3.2357850670814514e-01" purity="7.4713402986526489e-01" nType="0">
            <Node pos="l" depth="3" NCoef="0" IVar="-1" Cut="0.0000000000000000e+00" cType="1" res="2.5470120832324028e-02" rms="2.1307669579982758e-01" purity="9.4263035058975220e-01" nType="-99"/>
            <Node pos="r" depth="3" NCoef="0" IVar="-1" Cut="0.0000000000000000e+00" cType="1" res="2.2430913522839546e-03" rms="4.3821281194686890e-01" purity="4.5706617832183838e-01" nType="-99"/>
          </Node>
          <Node pos="r" depth="2" NCoef="0" IVar="0" Cut="7.4110668897628784e-01" cType="0" res="-3.7249982357025146e-02" rms="4.1063073277473450e-01" purity="2.5267517566680908e-01" nType="0">
            <Node pos="l" depth="3" NCoef="0" IVar="-1" Cut="0.0000000000000000e+00" cType="1" res="-2.0775077864527702e-03" rms="4.3570283055305481e-01" purity="3.1118881702423096e-01" nType="-99"/>
            <Node pos="r" depth="3" NCoef="0" IVar="-1" Cut="0.0000000000000000e+00" cType="1" res="-1.7753271386027336e-02" rms="3.8249221444129944e-01" purity="1.9563736021518707e-01" nType="-99"/>
          </Node>
        </Node>
        <Node pos="r" depth="1" NCoef="0" IVar="3" Cut="2.4188079833984375e+00" cType="0" res="-2.9864819720387459e-02" rms="1.7677408456802368e-01" purity="3.7689488381147385e-02" nType="0">
          <Node pos="l" depth="2" NCoef="0" IVar="2" Cut="1.2262750416994095e-01" cType="0" res="-1.0914340615272522e-02" rms="4.1476190090179443e-01" purity="3.0670264363288879e-01" nType="0">
            <Node pos="l" depth="3" NCoef="0" IVar="-1" Cut="0.0000000000000000e+00" cType="1" res="3.5497758653946221e-04" rms="4.2782089114189148e-01" purity="3.4295114874839783e-01" nType="-99"/>
            <Node pos="r" depth="3" NCoef="0" IVar="-1" Cut="0.0000000000000000e+00" cType="1" res="-2.0698225125670433e-02" rms="3.4374567866325378e-01" purity="1.4170506596565247e-01" nType="-99"/>
          </Node>
          <Node pos="r" depth="2" NCoef="0" IVar="0" Cut="7.0519351959228516e-01" cType="0" res="-3.0664354562759399e-02" rms="1.5904009342193604e-01" purity="2.6339635252952576e-02" nType="0">
            <Node pos="l" depth="3" NCoef="0" IVar="-1" Cut="0.0000000000000000e+00" cType="1" res="-2.6463627815246582e-02" rms="1.6658705472946167e-01" purity="2.9120275750756264e-02" nType="-99"/>
            <Node pos="r" depth="3" NCoef="0" IVar="-1" Cut="0.0000000000000000e+00" cType="1" res="-3.1519241631031036e-02" rms="1.4891365170478821e-01" purity="2.2824805229902267e-02" nType="-99"/>
          </Node>
        </Node>
      </Node>
    </BinaryTree>
    <BinaryTree type="DecisionTree" boostWeight="1.0000000000000000e+00" itree="28">
      <Node pos="s" depth="0" NCoef="0" IVar="4" Cut="6.0727089643478394e-01" cType="0" res="-2.3613180965185165e-02" rms="1.9417935609817505e-01" purity="8.5985988378524780e-02" nType="0">
        <Node pos="l" depth="1" NCoef="0" IVar="0" Cut="2.6110138893127441e+00" cType="0" res="3.6735724657773972e-02" rms="2.3240099847316742e-01" purity="9.1833919286727905e-01" nType="0">
          <Node pos="l" depth="2" NCoef="0" IVar="4" Cut="1.5796674489974976e+00" cType="0" res="4.4592186808586121e-02" rms="1.6810090839862823e-01" purity="9.6326422691345215e-01" nType="0">
            <Node pos="l" depth="3" NCoef="0" IVar="-1" Cut="0.0000000000000000e+00" cType="1" res="4.8139404505491257e-02" rms="7.8189082443714142e-02" purity="9.9393349885940552e-01" nType="-99"/>
            <Node pos="r" depth="3" NCoef="0" IVar="-1" Cut="0.0000000000000000e+00" cType="1" res="2.1465560421347618e-02" rms="2.3277336359024048e-01" purity="9.2716366052627563e-01" nType="-99"/>
          </Node>
          <Node pos="r" depth="2" NCoef="0" IVar="-1" Cut="0.0000000000000000e+00" cType="1" res="9.7530352650210261e-04" rms="4.0247446298599243e-01" purity="7.2757661342620850e-01" nType="-99"/>
        </Node>
        <Node pos="r" depth="1" NCoef="0" IVar="3" Cut="4.5521202087402344e+01" cType="0" res="-2.5902722030878067e-02" rms="1.9220727682113647e-01" purity="5.4407820105552673e-02" nType="0">
          <Node pos="l" depth="2" NCoef="0" IVar="1" Cut="1.1113939666748047e+02" cType="0" res="3.8557332009077072e-02" rms="3.7364420294761658e-01" purity="7.5000000000000000e-01" nType="0">
            <Node pos="l" depth="3" NCoef="0" IVar="-1" Cut="0.0000000000000000e+00" cType="1" res="1.9414871931076050e-02" rms="3.4190744161605835e-01" purity="8.2151591777801514e-01" nType="-99"/>
            <Node pos="r" depth="3" NCoef="0" IVar="-1" Cut="0.0000000000000000e+00" cType="1" res="4.0460564196109772e-03" rms="4.0646040439605713e-01" purity="6.6602867841720581e-01" nType="-99"/>
          </Node>
          <Node pos="r" depth="2" NCoef="0" IVar="4" Cut="5.6754842400550842e-02" cType="0" res="-2.6498192921280861e-02" rms="1.8962195515632629e-01" purity="4.7982078045606613e-02" nType="0">
            <Node pos="l" depth="3" NCoef="0" IVar="-1" Cut="0.0000000000000000e+00" cType="1" res="-5.2304388955235481e-03" rms="3.5630673170089722e-01" purity="2.1288074553012848e-01" nType="-99"/>
            <Node pos="r" depth="3" NCoef="0" IVar="-1" Cut="0.0000000000000000e+00" cType="1" res="-2.9483063146471977e-02" rms="1.4775393903255463e-01" purity="2.2432390600442886e-02" nType="-99"/>
          </Node>
        </Node>
      </Node>
    </BinaryTree>
    <BinaryTree type="DecisionTree" boostWeight="1.0000000000000000e+00" itree="29">
      <Node pos="s" depth="0" NCoef="0" IVar="3" Cut="2.0223743438720703e+01" cType="0" res="-2.1308969706296921e-02" rms="1.9407866895198822e-01" purity="8.5985988378524780e-02" nType="0">
        <Node pos="l" depth="1" NCoef="0" IVar="2" Cut="2.0151937007904053e-01" cType="0" res="2.8357679024338722e-02" rms="2.9028427600860596e-01" purity="8.3106148242950439e-01" nType="0">
          <Node pos="l" depth="2" NCoef="0" IVar="3" Cut="6.6663696289062500e+01" cType="0" res="3.4571271389722824e-02" rms="2.6820844411849976e-01" purity="8.8562303781509399e-01" nType="0">
            <Node pos="l" depth="3" NCoef="0" IVar="-1" Cut="0.0000000000000000e+00" cType="1" res="3.4770850092172623e-02" rms="1.8101988732814789e-01" purity="9.5684880018234253e-01" nType="-99"/>
            <Node pos="r" depth="3" NCoef="0" IVar="-1" Cut="0.0000000000000000e+00" cType="1" res="1.3633705675601959e-02" rms="2.8981736302375793e-01" purity="8.6347407102584839e-01" nType="-99"/>
          </Node>
          <Node pos="r" depth="2" NCoef="0" IVar="-1" Cut="0.0000000000000000e+00" cType="1" res="-7.5629572384059429e-03" rms="4.4806122779846191e-01" purity="2.9752066731452942e-01" nType="-99"/>
        </Node>
        <Node pos="r" depth="1" NCoef="0" IVar="4" Cut="2.0724734663963318e-01" cType="0" res="-2.3679828271269798e-02" rms="1.8793286383152008e-01" purity="5.0419483333826065e-02" nType="0">
          <Node pos="l" depth="2" NCoef="0" IVar="2" Cut="6.1538785696029663e-01" cType="0" res="-3.1599388457834721e-03" rms="4.0706697106361389e-01" purity="3.9568546414375305e-01" nType="0">
            <Node pos="l" depth="3" NCoef="0" IVar="-1" Cut="0.0000000000000000e+00" cType="1" res="5.1585542969405651e-03" rms="4.1059651970863342e-01" purity="5.5014729499816895e-01" nType="-99"/>
            <Node pos="r" depth="3" NCoef="0" IVar="-1" Cut="0.0000000000000000e+00" cType="1" res="-6.9521176628768444e-03" rms="4.0237465500831604e-01" purity="2.4063643813133240e-01" nType="-99"/>
          </Node>
          <Node pos="r" depth="2" NCoef="0" IVar="4" Cut="7.9827115405350924e-04" cType="0" res="-2.4940343573689461e-02" rms="1.6517235338687897e-01" purity="2.9210155829787254e-02" nType="0">
            <Node pos="l" depth="3" NCoef="0" IVar="-1" Cut="0.0000000000000000e+00" cType="1" res="-1.0060169734060764e-02" rms="2.7474120259284973e-01" purity="8.8564150035381317e-02" nType="-99"/>
            <Node pos="r" depth="3" NCoef="0" IVar="-1" Cut="0.0000000000000000e+00" cType="1" res="-2.8732949867844582e-02" rms="1.4453344047069550e-01" purity="2.1347528323531151e-02" nType="-99"/>
          </Node>
        </Node>
      </Node>
    </BinaryTree>
    <BinaryTree type="DecisionTree" boostWeight="1.0000000000000000e+00" itree="30">
      <Node pos="s" depth="0" NCoef="0" IVar="4" Cut="6.0727089643478394e-01" cType="0" res="-1.9230583682656288e-02" rms="1.9398830831050873e-01" purity="8.5985988378524780e-02" nType="0">
        <Node pos="l" depth="1" NCoef="0" IVar="0" Cut="3.0478472709655762e+00" cType="0" res="3.1654689460992813e-02" rms="2.3218551278114319e-01" purity="9.1833919286727905e-01" nType="0">
          <Node pos="l" depth="2" NCoef="0" IVar="4" Cut="1.0176848173141479e+00" cType="0" res="4.0055062621831894e-02" rms="1.5127372741699219e-01" purity="9.6977829933166504e-01" nType="0">
            <Node pos="l" depth="3" NCoef="0" IVar="-1" Cut="0.0000000000000000e+00" cType="1" res="4.1430909186601639e-02" rms="1.1297375708818436e-01" purity="9.8593282699584961e-01" nType="-99"/>
            <Node pos="r" depth="3" NCoef="0" IVar="-1" Cut="0.0000000000000000e+00" cType="1" res="1.4769184403121471e-02" rms="2.5280278921127319e-01" purity="9.0387374162673950e-01" nType="-99"/>
          </Node>
          <Node pos="r" depth="2" NCoef="0" IVar="3" Cut="1.1986375808715820e+01" cType="0" res="6.1910524964332581e-03" rms="3.8353160023689270e-01" purity="7.6241439580917358e-01" nType="0">
            <Node pos="l" depth="3" NCoef="0" IVar="-1" Cut="0.0000000000000000e+00" cType="1" res="1.2697692029178143e-02" rms="2.9733142256736755e-01" purity="8.9412736892700195e-01" nType="-99"/>
            <Node pos="r" depth="3" NCoef="0" IVar="-1" Cut="0.0000000000000000e+00" cType="1" res="-4.1250167414546013e-03" rms="4.5716831088066101e-01" purity="6.2111800909042358e-01" nType="-99"/>
          </Node>
        </Node>
        <Node pos="r" depth="1" NCoef="0" IVar="3" Cut="1.5998493432998657e+00" cType="0" res="-2.1161090582609177e-02" rms="1.9212473928928375e-01" purity="5.4407820105552673e-02" nType="0">
          <Node pos="l" depth="2" NCoef="0" IVar="0" Cut="7.4747264385223389e-01" cType="0" res="-5.6618545204401016e-03" rms="3.9626845717430115e-01" purity="3.2901841402053833e-01" nType="0">
            <Node pos="l" depth="3" NCoef="0" IVar="-1" Cut="0.0000000000000000e+00" cType="1" res="2.5041108019649982e-03" rms="4.1673228144645691e-01" purity="4.3662071228027344e-01" nType="-99"/>
            <Node pos="r" depth="3" NCoef="0" IVar="-1" Cut="0.0000000000000000e+00" cType="1" res="-8.8862637057900429e-03" rms="3.6352857947349548e-01" purity="1.7294676601886749e-01" nType="-99"/>
          </Node>
          <Node pos="r" depth="2" NCoef="0" IVar="0" Cut="8.4198856353759766e-01" cType="0" res="-2.2839797660708427e-02" rms="1.5451003611087799e-01" purity="2.4665009230375290e-02" nType="0">
            <Node pos="l" depth="3" NCoef="0" IVar="-1" Cut="0.0000000000000000e+00" cType="1" res="-2.2216225042939186e-02" rms="1.6502183675765991e-01" purity="2.8392041102051735e-02" nType="-99"/>
            <Node pos="r" depth="3" NCoef="0" IVar="-1" Cut="0.0000000000000000e+00" cType="1" res="-2.7512388303875923e-02" rms="1.4696279168128967e-01" purity="2.2146737203001976e-02" nType="-99"/>
          </Node>
        </Node>
      </Node>
    </BinaryTree>
    <BinaryTree type="DecisionTree" boostWeight="1.0000000000000000e+00" itree="31">
      <Node pos="s" depth="0" NCoef="0" IVar="3" Cut="2.0223743438720703e+01" cType="0" res="-1.7349652945995331e-02" rms="1.9391098618507385e-01" purity="8.5985988378524780e-02" nType="0">
        <Node pos="l" depth="1" NCoef="0" IVar="2" Cut="2.5667822360992432e-01" cType="0" res="2.4126958101987839e-02" rms="2.9003688693046570e-01" purity="8.3106148242950439e-01" nType="0">
          <Node pos="l" depth="2" NCoef="0" IVar="3" Cut="6.6065856933593750e+01" cType="0" res="3.0624929815530777e-02" rms="2.5446832180023193e-01" purity="9.0336173772811890e-01" nType="0">
            <Node pos="l" depth="3" NCoef="0" IVar="-1" Cut="0.0000000000000000e+00" cType="1" res="3.4602876752614975e-02" rms="1.6415162384510040e-01" purity="9.6751189231872559e-01" nType="-99"/>
            <Node pos="r" depth="3" NCoef="0" IVar="-1" Cut="0.0000000000000000e+00" cType="1" res="1.3279261998832226e-02" rms="2.7766108512878418e-01" purity="8.8227635622024536e-01" nType="-99"/>
          </Node>
