<?xml version="1.0"?>
<MethodSetup Method="BDT::PUDisc">
  <GeneralInfo>
    <Info name="TMVA Release" value="4.1.4 [262404]"/>
    <Info name="ROOT Release" value="5.34/05 [336389]"/>
    <Info name="Creator" value="Phil"/>
    <Info name="Date" value="Mon Feb  3 02:37:12 2014"/>
    <Info name="Host" value="Darwin pb-d-128-141-154-76.cern.ch 12.2.1 Darwin Kernel Version 12.2.1: Thu Oct 18 16:32:48 PDT 2012; root:xnu-2050.20.9~2/RELEASE_X86_64 x86_64"/>
    <Info name="Dir" value="/Users/Phil/Physics/JWJ/ProjectPUPPI-master/ana/TMVA"/>
    <Info name="Training events" value="257635"/>
    <Info name="TrainingTime" value="1.64571013e+03"/>
    <Info name="AnalysisType" value="Classification"/>
  </GeneralInfo>
  <Options>
    <Option name="V" modified="Yes">False</Option>
    <Option name="VerbosityLevel" modified="No">Default</Option>
    <Option name="VarTransform" modified="No">None</Option>
    <Option name="H" modified="Yes">False</Option>
    <Option name="CreateMVAPdfs" modified="No">False</Option>
    <Option name="IgnoreNegWeightsInTraining" modified="No">False</Option>
    <Option name="NTrees" modified="Yes">1000</Option>
    <Option name="RenormByClass" modified="No">False</Option>
    <Option name="BoostType" modified="Yes">Grad</Option>
    <Option name="AdaBoostR2Loss" modified="No">quadratic</Option>
    <Option name="UseBaggedGrad" modified="Yes">False</Option>
    <Option name="GradBaggingFraction" modified="No">6.000000e-01</Option>
    <Option name="Shrinkage" modified="Yes">1.000000e-01</Option>
    <Option name="AdaBoostBeta" modified="No">1.000000e+00</Option>
    <Option name="UseRandomisedTrees" modified="No">False</Option>
    <Option name="UseNvars" modified="No">5</Option>
    <Option name="UsePoissonNvars" modified="No">True</Option>
    <Option name="UseNTrainEvents" modified="No">257635</Option>
    <Option name="UseWeightedTrees" modified="No">True</Option>
    <Option name="UseYesNoLeaf" modified="No">True</Option>
    <Option name="NodePurityLimit" modified="No">5.000000e-01</Option>
    <Option name="SeparationType" modified="Yes">giniindex</Option>
    <Option name="nEventsMin" modified="No">48</Option>
    <Option name="nCuts" modified="Yes">2000</Option>
    <Option name="UseFisherCuts" modified="No">False</Option>
    <Option name="MinLinCorrForFisher" modified="No">8.000000e-01</Option>
    <Option name="UseExclusiveVars" modified="No">False</Option>
    <Option name="PruneStrength" modified="No">0.000000e+00</Option>
    <Option name="PruneMethod" modified="No">nopruning</Option>
    <Option name="PruneBeforeBoost" modified="No">False</Option>
    <Option name="PruningValFraction" modified="No">5.000000e-01</Option>
    <Option name="NNodesMax" modified="Yes">10000</Option>
    <Option name="MaxDepth" modified="Yes">3</Option>
    <Option name="DoBoostMonitor" modified="No">False</Option>
    <Option name="NegWeightTreatment" modified="No">ignorenegweights</Option>
  </Options>
  <Variables NVar="23">
    <Variable VarIndex="0" Expression="pt" Label="pt" Title="pt" Unit="" Internal="pt" Type="F" Min="5.00000954e-01" Max="4.37696899e+02"/>
    <Variable VarIndex="1" Expression="eta" Label="eta" Title="eta" Unit="" Internal="eta" Type="F" Min="-4.99996614e+00" Max="4.99991846e+00"/>
    <Variable VarIndex="2" Expression="dR" Label="dR" Title="dR" Unit="" Internal="dR" Type="F" Min="0.00000000e+00" Max="5.34262619e+01"/>
    <Variable VarIndex="3" Expression="ptc" Label="ptc" Title="ptc" Unit="" Internal="ptc" Type="F" Min="0.00000000e+00" Max="1.23502905e+03"/>
    <Variable VarIndex="4" Expression="ptdR" Label="ptdR" Title="ptdR" Unit="" Internal="ptdR" Type="F" Min="-1.71725220e+02" Max="1.53528252e+01"/>
    <Variable VarIndex="5" Expression="puppi" Label="puppi" Title="puppi" Unit="" Internal="puppi" Type="F" Min="-5.33428497e+01" Max="1.81028137e+02"/>
    <Variable VarIndex="6" Expression="ptodR" Label="ptodR" Title="ptodR" Unit="" Internal="ptodR" Type="F" Min="-4.47387581e+01" Max="2.72734131e+02"/>
    <Variable VarIndex="7" Expression="ptodRS" Label="ptodRS" Title="ptodRS" Unit="" Internal="ptodRS" Type="F" Min="-4.38510071e+02" Max="3.70513964e+00"/>
    <Variable VarIndex="8" Expression="ptodRSO" Label="ptodRSO" Title="ptodRSO" Unit="" Internal="ptodRSO" Type="F" Min="-1.00489836e+01" Max="5.51948776e+01"/>
    <Variable VarIndex="9" Expression="dR_lv" Label="dR_lv" Title="dR_lv" Unit="" Internal="dR_lv" Type="F" Min="0.00000000e+00" Max="2.59468460e+01"/>
    <Variable VarIndex="10" Expression="ptc_lv" Label="ptc_lv" Title="ptc_lv" Unit="" Internal="ptc_lv" Type="F" Min="0.00000000e+00" Max="8.69851807e+02"/>
    <Variable VarIndex="11" Expression="ptdR_lv" Label="ptdR_lv" Title="ptdR_lv" Unit="" Internal="ptdR_lv" Type="F" Min="-3.73998146e+01" Max="4.63021355e+01"/>
    <Variable VarIndex="12" Expression="puppi_lv" Label="puppi_lv" Title="puppi_lv" Unit="" Internal="puppi_lv" Type="F" Min="-2.72424197e+00" Max="1.12463936e+02"/>
    <Variable VarIndex="13" Expression="ptodR_lv" Label="ptodR_lv" Title="ptodR_lv" Unit="" Internal="ptodR_lv" Type="F" Min="-2.12492967e+00" Max="1.53151794e+02"/>
    <Variable VarIndex="14" Expression="ptodRS_lv" Label="ptodRS_lv" Title="ptodRS_lv" Unit="" Internal="ptodRS_lv" Type="F" Min="-1.53287521e+02" Max="6.17019749e+00"/>
    <Variable VarIndex="15" Expression="ptodRSO_lv" Label="ptodRSO_lv" Title="ptodRSO_lv" Unit="" Internal="ptodRSO_lv" Type="F" Min="-8.57449532e-01" Max="3.10002193e+01"/>
    <Variable VarIndex="16" Expression="dR_pu" Label="dR_pu" Title="dR_pu" Unit="" Internal="dR_pu" Type="F" Min="0.00000000e+00" Max="1.25183468e+01"/>
    <Variable VarIndex="17" Expression="pt_pu" Label="pt_pu" Title="pt_pu" Unit="" Internal="pt_pu" Type="F" Min="0.00000000e+00" Max="9.96366119e+01"/>
    <Variable VarIndex="18" Expression="ptdR_pu" Label="ptdR_pu" Title="ptdR_pu" Unit="" Internal="ptdR_pu" Type="F" Min="-6.86093521e+01" Max="1.30478430e+00"/>
    <Variable VarIndex="19" Expression="puppi_pu" Label="puppi_pu" Title="puppi_pu" Unit="" Internal="puppi_pu" Type="F" Min="-1.07121563e+01" Max="3.58591652e+01"/>
    <Variable VarIndex="20" Expression="ptodR_pu" Label="ptodR_pu" Title="ptodR_pu" Unit="" Internal="ptodR_pu" Type="F" Min="-6.93083239e+00" Max="5.98661728e+01"/>
    <Variable VarIndex="21" Expression="ptodRS_pu" Label="ptodRS_pu" Title="ptodRS_pu" Unit="" Internal="ptodRS_pu" Type="F" Min="-6.75901184e+01" Max="5.27788448e+00"/>
    <Variable VarIndex="22" Expression="ptodRSO_pu" Label="ptodRSO_pu" Title="ptodRSO_pu" Unit="" Internal="ptodRSO_pu" Type="F" Min="-1.85750270e+00" Max="1.28088436e+01"/>
  </Variables>
  <Spectators NSpec="0"/>
  <Classes NClass="2">
    <Class Name="Signal" Index="0"/>
    <Class Name="Background" Index="1"/>
  </Classes>
  <Transformations NTransformations="0"/>
  <MVAPdfs/>
  <Weights NTrees="1000" AnalysisType="1">
    <BinaryTree type="DecisionTree" boostWeight="1.0000000000000000e+00" itree="0">
      <Node pos="s" depth="0" NCoef="0" IVar="13" Cut="5.1694293022155762e+00" cType="0" res="-4.1401401162147522e-01" rms="2.8034335374832153e-01" purity="8.5985988378524780e-02" nType="0">
        <Node pos="l" depth="1" NCoef="0" IVar="0" Cut="1.3739879131317139e+00" cType="0" res="2.0207306742668152e-01" rms="4.5734721422195435e-01" purity="7.0207303762435913e-01" nType="0">
          <Node pos="l" depth="2" NCoef="0" IVar="0" Cut="2.2462699413299561e+00" cType="0" res="4.1685125231742859e-01" rms="2.7610692381858826e-01" purity="9.1685128211975098e-01" nType="0">
            <Node pos="l" depth="3" NCoef="0" IVar="-1" Cut="0.0000000000000000e+00" cType="1" res="9.3004666268825531e-02" rms="1.8372075259685516e-01" purity="9.6502333879470825e-01" nType="-99"/>
            <Node pos="r" depth="3" NCoef="0" IVar="-1" Cut="0.0000000000000000e+00" cType="1" res="5.1610540598630905e-02" rms="4.2826253175735474e-01" purity="7.5805270671844482e-01" nType="-99"/>
          </Node>
          <Node pos="r" depth="2" NCoef="0" IVar="0" Cut="8.7127220630645752e-01" cType="0" res="-1.0779252648353577e-01" rms="4.8824253678321838e-01" purity="3.9220747351646423e-01" nType="0">
            <Node pos="l" depth="3" NCoef="0" IVar="-1" Cut="0.0000000000000000e+00" cType="1" res="9.3212081119418144e-03" rms="4.9782314896583557e-01" purity="5.4660606384277344e-01" nType="-99"/>
            <Node pos="r" depth="3" NCoef="0" IVar="-1" Cut="0.0000000000000000e+00" cType="1" res="-4.0359895676374435e-02" rms="4.5746800303459167e-01" purity="2.9820051789283752e-01" nType="-99"/>
          </Node>
        </Node>
        <Node pos="r" depth="1" NCoef="0" IVar="10" Cut="1.0120371580123901e+00" cType="0" res="-4.6551159024238586e-01" rms="1.8248003721237183e-01" purity="3.4488413482904434e-02" nType="0">
          <Node pos="l" depth="2" NCoef="0" IVar="0" Cut="1.0127991437911987e+00" cType="0" res="-2.9493141174316406e-01" rms="4.0375173091888428e-01" purity="2.0506858825683594e-01" nType="0">
            <Node pos="l" depth="3" NCoef="0" IVar="-1" Cut="0.0000000000000000e+00" cType="1" res="-3.1491961330175400e-02" rms="4.7455915808677673e-01" purity="3.4254017472267151e-01" nType="-99"/>
            <Node pos="r" depth="3" NCoef="0" IVar="-1" Cut="0.0000000000000000e+00" cType="1" res="-7.3297195136547089e-02" rms="3.4012943506240845e-01" purity="1.3351401686668396e-01" nType="-99"/>
          </Node>
          <Node pos="r" depth="2" NCoef="0" IVar="14" Cut="-5.3442660719156265e-03" cType="1" res="-4.7529995441436768e-01" rms="1.5520934760570526e-01" purity="2.4700032547116280e-02" nType="0">
            <Node pos="l" depth="3" NCoef="0" IVar="-1" Cut="0.0000000000000000e+00" cType="1" res="-7.0247934199869633e-03" rms="4.9876478314399719e-01" purity="4.6487602591514587e-01" nType="-99"/>
            <Node pos="r" depth="3" NCoef="0" IVar="-1" Cut="0.0000000000000000e+00" cType="1" res="-9.5249898731708527e-02" rms="1.5227092802524567e-01" purity="2.3750523105263710e-02" nType="-99"/>
          </Node>
        </Node>
      </Node>
    </BinaryTree>
    <BinaryTree type="DecisionTree" boostWeight="1.0000000000000000e+00" itree="1">
      <Node pos="s" depth="0" NCoef="0" IVar="13" Cut="6.6438207626342773e+00" cType="0" res="-3.7273514270782471e-01" rms="2.6646056771278381e-01" purity="8.5985988378524780e-02" nType="0">
        <Node pos="l" depth="1" NCoef="0" IVar="0" Cut="1.3739879131317139e+00" cType="0" res="2.0985996723175049e-01" rms="4.2701026797294617e-01" purity="7.3163890838623047e-01" nType="0">
          <Node pos="l" depth="2" NCoef="0" IVar="0" Cut="2.4643223285675049e+00" cType="0" res="3.8594844937324524e-01" rms="2.5632095336914062e-01" purity="9.2779558897018433e-01" nType="0">
            <Node pos="l" depth="3" NCoef="0" IVar="-1" Cut="0.0000000000000000e+00" cType="1" res="8.6479038000106812e-02" rms="1.5598733723163605e-01" purity="9.7504520416259766e-01" nType="-99"/>
            <Node pos="r" depth="3" NCoef="0" IVar="-1" Cut="0.0000000000000000e+00" cType="1" res="5.3246445953845978e-02" rms="4.0350744128227234e-01" purity="7.9434800148010254e-01" nType="-99"/>
          </Node>
          <Node pos="r" depth="2" NCoef="0" IVar="0" Cut="8.2934379577636719e-01" cType="0" res="-7.4924193322658539e-02" rms="4.8961576819419861e-01" purity="4.1439884901046753e-01" nType="0">
            <Node pos="l" depth="3" NCoef="0" IVar="-1" Cut="0.0000000000000000e+00" cType="1" res="1.2091906741261482e-02" rms="4.9547153711318970e-01" purity="5.6247895956039429e-01" nType="-99"/>
            <Node pos="r" depth="3" NCoef="0" IVar="-1" Cut="0.0000000000000000e+00" cType="1" res="-3.5258986055850983e-02" rms="4.5990714430809021e-01" purity="3.0382293462753296e-01" nType="-99"/>
          </Node>
        </Node>
        <Node pos="r" depth="1" NCoef="0" IVar="10" Cut="1.3467109203338623e+00" cType="0" res="-4.1695931553840637e-01" rms="1.8662591278553009e-01" purity="3.6975167691707611e-02" nType="0">
          <Node pos="l" depth="2" NCoef="0" IVar="0" Cut="1.2908912897109985e+00" cType="0" res="-2.2085452079772949e-01" rms="4.3067547678947449e-01" purity="2.5474879145622253e-01" nType="0">
            <Node pos="l" depth="3" NCoef="0" IVar="-1" Cut="0.0000000000000000e+00" cType="1" res="-3.2131760381162167e-03" rms="4.9599727988243103e-01" purity="4.7761192917823792e-01" nType="-99"/>
            <Node pos="r" depth="3" NCoef="0" IVar="-1" Cut="0.0000000000000000e+00" cType="1" res="-5.8492511510848999e-02" rms="3.8120502233505249e-01" purity="1.7817531526088715e-01" nType="-99"/>
          </Node>
          <Node pos="r" depth="2" NCoef="0" IVar="14" Cut="-4.8843543045222759e-03" cType="1" res="-4.2664113640785217e-01" rms="1.5937075018882751e-01" purity="2.6223530992865562e-02" nType="0">
            <Node pos="l" depth="3" NCoef="0" IVar="-1" Cut="0.0000000000000000e+00" cType="1" res="-4.9968594685196877e-03" rms="4.9820286035537720e-01" purity="4.6819788217544556e-01" nType="-99"/>
            <Node pos="r" depth="3" NCoef="0" IVar="-1" Cut="0.0000000000000000e+00" cType="1" res="-8.6300082504749298e-02" rms="1.5634207427501678e-01" purity="2.5124546140432358e-02" nType="-99"/>
          </Node>
        </Node>
      </Node>
    </BinaryTree>
    <BinaryTree type="DecisionTree" boostWeight="1.0000000000000000e+00" itree="2">
      <Node pos="s" depth="0" NCoef="0" IVar="12" Cut="2.9747233390808105e+00" cType="0" res="-3.3584854006767273e-01" rms="2.5467631220817566e-01" purity="8.5985988378524780e-02" nType="0">
        <Node pos="l" depth="1" NCoef="0" IVar="0" Cut="1.3739879131317139e+00" cType="0" res="1.6348068416118622e-01" rms="4.2725220322608948e-01" purity="6.9978487491607666e-01" nType="0">
          <Node pos="l" depth="2" NCoef="0" IVar="0" Cut="2.9004271030426025e+00" cType="0" res="3.4009790420532227e-01" rms="2.6933431625366211e-01" purity="9.1747409105300903e-01" nType="0">
            <Node pos="l" depth="3" NCoef="0" IVar="-1" Cut="0.0000000000000000e+00" cType="1" res="8.0752938985824585e-02" rms="1.4363771677017212e-01" purity="9.7864079475402832e-01" nType="-99"/>
            <Node pos="r" depth="3" NCoef="0" IVar="-1" Cut="0.0000000000000000e+00" cType="1" res="4.9203023314476013e-02" rms="3.9648541808128357e-01" purity="8.0054444074630737e-01" nType="-99"/>
          </Node>
          <Node pos="r" depth="2" NCoef="0" IVar="0" Cut="8.7127220630645752e-01" cType="0" res="-8.9234657585620880e-02" rms="4.8108795285224915e-01" purity="3.8830110430717468e-01" nType="0">
            <Node pos="l" depth="3" NCoef="0" IVar="-1" Cut="0.0000000000000000e+00" cType="1" res="7.6263062655925751e-03" rms="4.9588632583618164e-01" purity="5.4313409328460693e-01" nType="-99"/>
            <Node pos="r" depth="3" NCoef="0" IVar="-1" Cut="0.0000000000000000e+00" cType="1" res="-3.3432457596063614e-02" rms="4.5500460267066956e-01" purity="2.9485177993774414e-01" nType="-99"/>
          </Node>
        </Node>
        <Node pos="r" depth="1" NCoef="0" IVar="10" Cut="9.5535558462142944e-01" cType="0" res="-3.7784835696220398e-01" rms="1.7951482534408569e-01" purity="3.4357827156782150e-02" nType="0">
          <Node pos="l" depth="2" NCoef="0" IVar="14" Cut="1.1190400123596191e+00" cType="1" res="-2.4417337775230408e-01" rms="3.9236602187156677e-01" purity="1.9802999496459961e-01" nType="0">
            <Node pos="l" depth="3" NCoef="0" IVar="-1" Cut="0.0000000000000000e+00" cType="1" res="-2.1889938041567802e-02" rms="4.6476686000823975e-01" purity="3.3976125717163086e-01" nType="-99"/>
            <Node pos="r" depth="3" NCoef="0" IVar="-1" Cut="0.0000000000000000e+00" cType="1" res="-6.2694974243640900e-02" rms="3.3446606993675232e-01" purity="1.3127163052558899e-01" nType="-99"/>
          </Node>
          <Node pos="r" depth="2" NCoef="0" IVar="14" Cut="-3.3609691262245178e-01" cType="1" res="-3.8596519827842712e-01" rms="1.5389412641525269e-01" purity="2.4419529363512993e-02" nType="0">
            <Node pos="l" depth="3" NCoef="0" IVar="-1" Cut="0.0000000000000000e+00" cType="1" res="3.8707699626684189e-02" rms="4.6351239085197449e-01" purity="6.8750000000000000e-01" nType="-99"/>
            <Node pos="r" depth="3" NCoef="0" IVar="-1" Cut="0.0000000000000000e+00" cType="1" res="-7.9864874482154846e-02" rms="1.5241777896881104e-01" purity="2.3850793018937111e-02" nType="-99"/>
          </Node>
        </Node>
      </Node>
    </BinaryTree>
    <BinaryTree type="DecisionTree" boostWeight="1.0000000000000000e+00" itree="3">
      <Node pos="s" depth="0" NCoef="0" IVar="13" Cut="7.1870179176330566e+00" cType="0" res="-3.0279701948165894e-01" rms="2.4467924237251282e-01" purity="8.5985988378524780e-02" nType="0">
        <Node pos="l" depth="1" NCoef="0" IVar="0" Cut="1.1554986238479614e+00" cType="0" res="1.7932242155075073e-01" rms="3.9807423949241638e-01" purity="7.4082243442535400e-01" nType="0">
          <Node pos="l" depth="2" NCoef="0" IVar="0" Cut="2.2465341091156006e+00" cType="0" res="3.0240267515182495e-01" rms="2.7684694528579712e-01" purity="9.0901494026184082e-01" nType="0">
            <Node pos="l" depth="3" NCoef="0" IVar="-1" Cut="0.0000000000000000e+00" cType="1" res="7.4055679142475128e-02" rms="1.6478864848613739e-01" purity="9.7166877985000610e-01" nType="-99"/>
            <Node pos="r" depth="3" NCoef="0" IVar="-1" Cut="0.0000000000000000e+00" cType="1" res="3.7415217608213425e-02" rms="4.3363720178604126e-01" purity="7.4345707893371582e-01" nType="-99"/>
          </Node>
          <Node pos="r" depth="2" NCoef="0" IVar="0" Cut="7.4045830965042114e-01" cType="0" res="-7.8671909868717194e-02" rms="4.8130279779434204e-01" purity="3.8826620578765869e-01" nType="0">
            <Node pos="l" depth="3" NCoef="0" IVar="-1" Cut="0.0000000000000000e+00" cType="1" res="1.9295588135719299e-03" rms="4.9660673737525940e-01" purity="4.9963450431823730e-01" nType="-99"/>
            <Node pos="r" depth="3" NCoef="0" IVar="-1" Cut="0.0000000000000000e+00" cType="1" res="-3.2358862459659576e-02" rms="4.5179536938667297e-01" purity="2.8581035137176514e-01" nType="-99"/>
          </Node>
        </Node>
        <Node pos="r" depth="1" NCoef="0" IVar="15" Cut="1.6670450568199158e-01" cType="0" res="-3.3831763267517090e-01" rms="1.8497818708419800e-01" purity="3.7740252912044525e-02" nType="0">
          <Node pos="l" depth="2" NCoef="0" IVar="14" Cut="1.1592473983764648e+00" cType="1" res="-1.7863708734512329e-01" rms="4.1191551089286804e-01" purity="2.4410508573055267e-01" nType="0">
            <Node pos="l" depth="3" NCoef="0" IVar="-1" Cut="0.0000000000000000e+00" cType="1" res="6.9857398048043251e-03" rms="4.9162682890892029e-01" purity="4.9518686532974243e-01" nType="-99"/>
            <Node pos="r" depth="3" NCoef="0" IVar="-1" Cut="0.0000000000000000e+00" cType="1" res="-5.4451946169137955e-02" rms="3.4250852465629578e-01" purity="1.4671644568443298e-01" nType="-99"/>
          </Node>
          <Node pos="r" depth="2" NCoef="0" IVar="15" Cut="5.6661758571863174e-02" cType="0" res="-3.4719526767730713e-01" rms="1.5871240198612213e-01" purity="2.6267167180776596e-02" nType="0">
            <Node pos="l" depth="3" NCoef="0" IVar="-1" Cut="0.0000000000000000e+00" cType="1" res="-6.3460431993007660e-02" rms="2.7658212184906006e-01" purity="8.6507290601730347e-02" nType="-99"/>
            <Node pos="r" depth="3" NCoef="0" IVar="-1" Cut="0.0000000000000000e+00" cType="1" res="-7.4972525238990784e-02" rms="1.4646324515342712e-01" purity="2.2069549188017845e-02" nType="-99"/>
          </Node>
        </Node>
      </Node>
    </BinaryTree>
    <BinaryTree type="DecisionTree" boostWeight="1.0000000000000000e+00" itree="4">
      <Node pos="s" depth="0" NCoef="0" IVar="13" Cut="7.4198164939880371e+00" cType="0" res="-2.7312433719635010e-01" rms="2.3615528643131256e-01" purity="8.5985988378524780e-02" nType="0">
        <Node pos="l" depth="1" NCoef="0" IVar="0" Cut="1.5924770832061768e+00" cType="0" res="1.6431014239788055e-01" rms="3.8727721571922302e-01" purity="7.4395334720611572e-01" nType="0">
          <Node pos="l" depth="2" NCoef="0" IVar="0" Cut="2.9003155231475830e+00" cType="0" res="2.9935961961746216e-01" rms="2.1700872480869293e-01" purity="9.4775825738906860e-01" nType="0">
            <Node pos="l" depth="3" NCoef="0" IVar="-1" Cut="0.0000000000000000e+00" cType="1" res="7.1862161159515381e-02" rms="1.2871956825256348e-01" purity="9.8314833641052246e-01" nType="-99"/>
            <Node pos="r" depth="3" NCoef="0" IVar="-1" Cut="0.0000000000000000e+00" cType="1" res="5.0457384437322617e-02" rms="3.5218605399131775e-01" purity="8.5267698764801025e-01" nType="-99"/>
          </Node>
          <Node pos="r" depth="2" NCoef="0" IVar="0" Cut="8.7011533975601196e-01" cType="0" res="-2.7363372966647148e-02" rms="4.8310539126396179e-01" purity="4.5469635725021362e-01" nType="0">
            <Node pos="l" depth="3" NCoef="0" IVar="-1" Cut="0.0000000000000000e+00" cType="1" res="1.6319977119565010e-02" rms="4.8252925276756287e-01" purity="6.1916464567184448e-01" nType="-99"/>
            <Node pos="r" depth="3" NCoef="0" IVar="-1" Cut="0.0000000000000000e+00" cType="1" res="-2.3600615561008453e-02" rms="4.6519190073013306e-01" purity="3.1990939378738403e-01" nType="-99"/>
          </Node>
        </Node>
        <Node pos="r" depth="1" NCoef="0" IVar="15" Cut="2.5668185949325562e-01" cType="0" res="-3.0498117208480835e-01" rms="1.8427664041519165e-01" purity="3.8068506866693497e-02" nType="0">
          <Node pos="l" depth="2" NCoef="0" IVar="14" Cut="1.0517519712448120e+00" cType="1" res="-1.0047344118356705e-01" rms="4.4317677617073059e-01" purity="3.2608377933502197e-01" nType="0">
            <Node pos="l" depth="3" NCoef="0" IVar="-1" Cut="0.0000000000000000e+00" cType="1" res="2.3723902180790901e-02" rms="4.8379904031753540e-01" purity="6.0344827175140381e-01" nType="-99"/>
            <Node pos="r" depth="3" NCoef="0" IVar="-1" Cut="0.0000000000000000e+00" cType="1" res="-4.1255973279476166e-02" rms="3.8736400008201599e-01" purity="2.0449297130107880e-01" nType="-99"/>
          </Node>
          <Node pos="r" depth="2" NCoef="0" IVar="10" Cut="7.0542001724243164e-01" cType="0" res="-3.1098678708076477e-01" rms="1.6710217297077179e-01" purity="2.9610577970743179e-02" nType="0">
            <Node pos="l" depth="3" NCoef="0" IVar="-1" Cut="0.0000000000000000e+00" cType="1" res="-5.2612960338592529e-02" rms="3.2987967133522034e-01" purity="1.3008579611778259e-01" nType="-99"/>
            <Node pos="r" depth="3" NCoef="0" IVar="-1" Cut="0.0000000000000000e+00" cType="1" res="-7.0433735847473145e-02" rms="1.4927053451538086e-01" purity="2.2975375875830650e-02" nType="-99"/>
          </Node>
        </Node>
      </Node>
    </BinaryTree>
    <BinaryTree type="DecisionTree" boostWeight="1.0000000000000000e+00" itree="5">
      <Node pos="s" depth="0" NCoef="0" IVar="13" Cut="8.5062103271484375e+00" cType="0" res="-2.4644729495048523e-01" rms="2.2900024056434631e-01" purity="8.5985988378524780e-02" nType="0">
        <Node pos="l" depth="1" NCoef="0" IVar="0" Cut="1.1554986238479614e+00" cType="0" res="1.5931208431720734e-01" rms="3.7238240242004395e-01" purity="7.5847560167312622e-01" nType="0">
          <Node pos="l" depth="2" NCoef="0" IVar="0" Cut="2.2465341091156006e+00" cType="0" res="2.5315085053443909e-01" rms="2.6207304000854492e-01" purity="9.1706472635269165e-01" nType="0">
            <Node pos="l" depth="3" NCoef="0" IVar="-1" Cut="0.0000000000000000e+00" cType="1" res="6.6599726676940918e-02" rms="1.5736858546733856e-01" purity="9.7419583797454834e-01" nType="-99"/>
            <Node pos="r" depth="3" NCoef="0" IVar="-1" Cut="0.0000000000000000e+00" cType="1" res="3.3913187682628632e-02" rms="4.2509835958480835e-01" purity="7.5693529844284058e-01" nType="-99"/>
          </Node>
          <Node pos="r" depth="2" NCoef="0" IVar="11" Cut="-3.3353483676910400e+00" cType="1" res="-5.1692266017198563e-02" rms="4.8136857151985168e-01" purity="4.0187463164329529e-01" nType="0">
            <Node pos="l" depth="3" NCoef="0" IVar="-1" Cut="0.0000000000000000e+00" cType="1" res="8.4491660818457603e-03" rms="4.9079573154449463e-01" purity="4.9804604053497314e-01" nType="-99"/>
            <Node pos="r" depth="3" NCoef="0" IVar="-1" Cut="0.0000000000000000e+00" cType="1" res="-2.6038119569420815e-02" rms="4.5968970656394958e-01" purity="3.2327893376350403e-01" nType="-99"/>
          </Node>
        </Node>
        <Node pos="r" depth="1" NCoef="0" IVar="15" Cut="4.2869740724563599e-01" cType="0" res="-2.7445659041404724e-01" rms="1.8530872464179993e-01" purity="3.9564479142427444e-02" nType="0">
          <Node pos="l" depth="2" NCoef="0" IVar="14" Cut="1.1642142534255981e+00" cType="1" res="4.3957408517599106e-02" rms="4.6424117684364319e-01" purity="5.2033370733261108e-01" nType="0">
            <Node pos="l" depth="3" NCoef="0" IVar="-1" Cut="0.0000000000000000e+00" cType="1" res="3.7080705165863037e-02" rms="4.4463863968849182e-01" purity="7.2217899560928345e-01" nType="-99"/>
            <Node pos="r" depth="3" NCoef="0" IVar="-1" Cut="0.0000000000000000e+00" cType="1" res="-1.3969940133392811e-02" rms="4.5027017593383789e-01" purity="3.5741207003593445e-01" nType="-99"/>
          </Node>
          <Node pos="r" depth="2" NCoef="0" IVar="15" Cut="1.1692653596401215e-01" cType="0" res="-2.7830368280410767e-01" rms="1.7581388354301453e-01" purity="3.3755805343389511e-02" nType="0">
            <Node pos="l" depth="3" NCoef="0" IVar="-1" Cut="0.0000000000000000e+00" cType="1" res="-4.3556548655033112e-02" rms="3.5663515329360962e-01" purity="1.6384907066822052e-01" nType="-99"/>
            <Node pos="r" depth="3" NCoef="0" IVar="-1" Cut="0.0000000000000000e+00" cType="1" res="-6.6637508571147919e-02" rms="1.5273904800415039e-01" purity="2.4179877713322639e-02" nType="-99"/>
          </Node>
        </Node>
      </Node>
    </BinaryTree>
    <BinaryTree type="DecisionTree" boostWeight="1.0000000000000000e+00" itree="6">
      <Node pos="s" depth="0" NCoef="0" IVar="12" Cut="2.5142009258270264e+00" cType="0" res="-2.2243592143058777e-01" rms="2.2302703559398651e-01" purity="8.5985988378524780e-02" nType="0">
        <Node pos="l" depth="1" NCoef="0" IVar="0" Cut="1.5924770832061768e+00" cType="0" res="1.0045593231916428e-01" rms="3.9540532231330872e-01" purity="6.7956429719924927e-01" nType="0">
          <Node pos="l" depth="2" NCoef="0" IVar="21" Cut="-1.2975589752197266e+01" cType="0" res="2.3863728344440460e-01" rms="2.4249473214149475e-01" purity="9.2870628833770752e-01" nType="0">
            <Node pos="l" depth="3" NCoef="0" IVar="-1" Cut="0.0000000000000000e+00" cType="1" res="5.9972178190946579e-02" rms="2.1874310076236725e-01" purity="9.4308125972747803e-01" nType="-99"/>
            <Node pos="r" depth="3" NCoef="0" IVar="-1" Cut="0.0000000000000000e+00" cType="1" res="2.9368806630373001e-02" rms="3.6959189176559448e-01" purity="8.0746394395828247e-01" nType="-99"/>
          </Node>
          <Node pos="r" depth="2" NCoef="0" IVar="13" Cut="1.9576782226562500e+01" cType="0" res="-5.3366240113973618e-02" rms="4.6905356645584106e-01" purity="4.0222176909446716e-01" nType="0">
            <Node pos="l" depth="3" NCoef="0" IVar="-1" Cut="0.0000000000000000e+00" cType="1" res="1.0426708497107029e-02" rms="4.7862657904624939e-01" purity="5.3356325626373291e-01" nType="-99"/>
            <Node pos="r" depth="3" NCoef="0" IVar="-1" Cut="0.0000000000000000e+00" cType="1" res="-2.4221509695053101e-02" rms="4.5159754157066345e-01" purity="3.2267394661903381e-01" nType="-99"/>
          </Node>
        </Node>
        <Node pos="r" depth="1" NCoef="0" IVar="14" Cut="-4.5724469237029552e-03" cType="1" res="-2.5126165151596069e-01" rms="1.7345197498798370e-01" purity="3.2995097339153290e-02" nType="0">
          <Node pos="l" depth="2" NCoef="0" IVar="9" Cut="7.4631845951080322e-01" cType="1" res="1.7090864479541779e-02" rms="4.6482291817665100e-01" purity="4.1285032033920288e-01" nType="0">
            <Node pos="l" depth="3" NCoef="0" IVar="-1" Cut="0.0000000000000000e+00" cType="1" res="9.2246830463409424e-02" rms="3.2269403338432312e-01" purity="8.7211740016937256e-01" nType="-99"/>
            <Node pos="r" depth="3" NCoef="0" IVar="-1" Cut="0.0000000000000000e+00" cType="1" res="-4.0783364325761795e-02" rms="3.7233060598373413e-01" purity="1.9066937267780304e-01" nType="-99"/>
          </Node>
          <Node pos="r" depth="2" NCoef="0" IVar="12" Cut="1.0031135082244873e+00" cType="0" res="-2.5293189287185669e-01" rms="1.6875152289867401e-01" purity="3.0630867928266525e-02" nType="0">
            <Node pos="l" depth="3" NCoef="0" IVar="-1" Cut="0.0000000000000000e+00" cType="1" res="-3.3706206828355789e-02" rms="3.8728001713752747e-01" purity="2.0053049921989441e-01" nType="-99"/>
            <Node pos="r" depth="3" NCoef="0" IVar="-1" Cut="0.0000000000000000e+00" cType="1" res="-6.3408404588699341e-02" rms="1.5526445209980011e-01" purity="2.5000330060720444e-02" nType="-99"/>
          </Node>
        </Node>
      </Node>
    </BinaryTree>
    <BinaryTree type="DecisionTree" boostWeight="1.0000000000000000e+00" itree="7">
      <Node pos="s" depth="0" NCoef="0" IVar="13" Cut="9.8254032135009766e+00" cType="0" res="-2.0081527531147003e-01" rms="2.1776793897151947e-01" purity="8.5985988378524780e-02" nType="0">
        <Node pos="l" depth="1" NCoef="0" IVar="0" Cut="9.3700951337814331e-01" cType="0" res="1.4103901386260986e-01" rms="3.5360035300254822e-01" purity="7.7346664667129517e-01" nType="0">
          <Node pos="l" depth="2" NCoef="0" IVar="8" Cut="3.6907231807708740e-01" cType="0" res="2.0263586938381195e-01" rms="2.8015315532684326e-01" purity="8.9652615785598755e-01" nType="0">
            <Node pos="l" depth="3" NCoef="0" IVar="-1" Cut="0.0000000000000000e+00" cType="1" res="5.3345661610364914e-02" rms="2.5183218717575073e-01" purity="9.2079645395278931e-01" nType="-99"/>
            <Node pos="r" depth="3" NCoef="0" IVar="-1" Cut="0.0000000000000000e+00" cType="1" res="-1.4615766122005880e-04" rms="4.8456445336341858e-01" purity="5.7311320304870605e-01" nType="-99"/>
          </Node>
          <Node pos="r" depth="2" NCoef="0" IVar="11" Cut="-2.0683255195617676e+00" cType="1" res="-6.3912674784660339e-02" rms="4.7463801503181458e-01" purity="3.6400985717773438e-01" nType="0">
            <Node pos="l" depth="3" NCoef="0" IVar="-1" Cut="0.0000000000000000e+00" cType="1" res="3.0867515597492456e-03" rms="4.9172240495681763e-01" purity="4.4967880845069885e-01" nType="-99"/>
            <Node pos="r" depth="3" NCoef="0" IVar="-1" Cut="0.0000000000000000e+00" cType="1" res="-3.0211286619305611e-02" rms="4.4112914800643921e-01" purity="2.7425688505172729e-01" nType="-99"/>
          </Node>
        </Node>
        <Node pos="r" depth="1" NCoef="0" IVar="15" Cut="3.9992189407348633e-01" cType="0" res="-2.2314842045307159e-01" rms="1.8498429656028748e-01" purity="4.1073288768529892e-02" nType="0">
          <Node pos="l" depth="2" NCoef="0" IVar="14" Cut="1.2626537084579468e+00" cType="1" res="2.5730865076184273e-02" rms="4.5141068100929260e-01" purity="5.1251357793807983e-01" nType="0">
            <Node pos="l" depth="3" NCoef="0" IVar="-1" Cut="0.0000000000000000e+00" cType="1" res="2.6883663609623909e-02" rms="4.4680571556091309e-01" purity="6.8873083591461182e-01" nType="-99"/>
            <Node pos="r" depth="3" NCoef="0" IVar="-1" Cut="0.0000000000000000e+00" cType="1" res="-1.6096100211143494e-02" rms="4.3338546156883240e-01" purity="3.3820345997810364e-01" nType="-99"/>
          </Node>
          <Node pos="r" depth="2" NCoef="0" IVar="13" Cut="1.3182730674743652e+00" cType="0" res="-2.2698986530303955e-01" rms="1.7501810193061829e-01" purity="3.3796608448028564e-02" nType="0">
            <Node pos="l" depth="3" NCoef="0" IVar="-1" Cut="0.0000000000000000e+00" cType="1" res="-3.7901297211647034e-02" rms="3.5500010848045349e-01" purity="1.6188630461692810e-01" nType="-99"/>
            <Node pos="r" depth="3" NCoef="0" IVar="-1" Cut="0.0000000000000000e+00" cType="1" res="-6.0983479022979736e-02" rms="1.5069635212421417e-01" purity="2.3614944890141487e-02" nType="-99"/>
          </Node>
        </Node>
      </Node>
    </BinaryTree>
    <BinaryTree type="DecisionTree" boostWeight="1.0000000000000000e+00" itree="8">
      <Node pos="s" depth="0" NCoef="0" IVar="13" Cut="1.1144595146179199e+01" cType="0" res="-1.8132637441158295e-01" rms="2.1354703605175018e-01" purity="8.5985988378524780e-02" nType="0">
        <Node pos="l" depth="1" NCoef="0" IVar="8" Cut="4.0014651417732239e-01" cType="0" res="1.3551467657089233e-01" rms="3.4238404035568237e-01" purity="7.8538298606872559e-01" nType="0">
          <Node pos="l" depth="2" NCoef="0" IVar="13" Cut="2.7397253036499023e+01" cType="0" res="1.9011433422565460e-01" rms="2.7048859000205994e-01" purity="8.9508390426635742e-01" nType="0">
            <Node pos="l" depth="3" NCoef="0" IVar="-1" Cut="0.0000000000000000e+00" cType="1" res="5.8479383587837219e-02" rms="1.9203020632266998e-01" purity="9.5578622817993164e-01" nType="-99"/>
            <Node pos="r" depth="3" NCoef="0" IVar="-1" Cut="0.0000000000000000e+00" cType="1" res="2.8639428317546844e-02" rms="3.7301501631736755e-01" purity="7.7278596162796021e-01" nType="-99"/>
          </Node>
          <Node pos="r" depth="2" NCoef="0" IVar="6" Cut="1.0104406738281250e+02" cType="0" res="-5.1108717918395996e-02" rms="4.7203490138053894e-01" purity="4.1042155027389526e-01" nType="0">
            <Node pos="l" depth="3" NCoef="0" IVar="-1" Cut="0.0000000000000000e+00" cType="1" res="2.7012515813112259e-02" rms="4.7546151280403137e-01" purity="5.9968847036361694e-01" nType="-99"/>
            <Node pos="r" depth="3" NCoef="0" IVar="-1" Cut="0.0000000000000000e+00" cType="1" res="-1.9433617591857910e-02" rms="4.6102857589721680e-01" purity="3.6661860346794128e-01" nType="-99"/>
          </Node>
        </Node>
        <Node pos="r" depth="1" NCoef="0" IVar="15" Cut="4.7194552421569824e-01" cType="0" res="-2.0104148983955383e-01" rms="1.8576955795288086e-01" purity="4.2466696351766586e-02" nType="0">
          <Node pos="l" depth="2" NCoef="0" IVar="0" Cut="2.0905640125274658e+00" cType="0" res="6.1573378741741180e-02" rms="4.4098973274230957e-01" purity="5.9702479839324951e-01" nType="0">
            <Node pos="l" depth="3" NCoef="0" IVar="-1" Cut="0.0000000000000000e+00" cType="1" res="3.1963843852281570e-02" rms="4.0225103497505188e-01" purity="7.1300178766250610e-01" nType="-99"/>
            <Node pos="r" depth="3" NCoef="0" IVar="-1" Cut="0.0000000000000000e+00" cType="1" res="-7.9876892268657684e-03" rms="4.6565893292427063e-01" purity="4.5427727699279785e-01" nType="-99"/>
          </Node>
          <Node pos="r" depth="2" NCoef="0" IVar="15" Cut="1.2570518255233765e-01" cType="0" res="-2.0435820519924164e-01" rms="1.7778658866882324e-01" purity="3.5462889820337296e-02" nType="0">
            <Node pos="l" depth="3" NCoef="0" IVar="-1" Cut="0.0000000000000000e+00" cType="1" res="-3.2521799206733704e-02" rms="3.6714601516723633e-01" purity="1.8169680237770081e-01" nType="-99"/>
            <Node pos="r" depth="3" NCoef="0" IVar="-1" Cut="0.0000000000000000e+00" cType="1" res="-5.8425821363925934e-02" rms="1.5374498069286346e-01" purity="2.4659253656864166e-02" nType="-99"/>
          </Node>
        </Node>
      </Node>
    </BinaryTree>
    <BinaryTree type="DecisionTree" boostWeight="1.0000000000000000e+00" itree="9">
      <Node pos="s" depth="0" NCoef="0" IVar="12" Cut="2.3415050506591797e+00" cType="0" res="-1.6374929249286652e-01" rms="2.0999956130981445e-01" purity="8.5985988378524780e-02" nType="0">
        <Node pos="l" depth="1" NCoef="0" IVar="0" Cut="1.3739879131317139e+00" cType="0" res="7.3140129446983337e-02" rms="3.8027244806289673e-01" purity="6.7112946510314941e-01" nType="0">
          <Node pos="l" depth="2" NCoef="0" IVar="0" Cut="2.9004271030426025e+00" cType="0" res="1.7127889394760132e-01" rms="2.6787403225898743e-01" purity="9.0423876047134399e-01" nType="0">
            <Node pos="l" depth="3" NCoef="0" IVar="-1" Cut="0.0000000000000000e+00" cType="1" res="5.8454845100641251e-02" rms="1.5013641119003296e-01" purity="9.7464001178741455e-01" nType="-99"/>
            <Node pos="r" depth="3" NCoef="0" IVar="-1" Cut="0.0000000000000000e+00" cType="1" res="2.6215856894850731e-02" rms="3.9379397034645081e-01" purity="7.7724140882492065e-01" nType="-99"/>
          </Node>
          <Node pos="r" depth="2" NCoef="0" IVar="13" Cut="3.6809928894042969e+01" cType="0" res="-5.4349344223737717e-02" rms="4.5878121256828308e-01" purity="3.6830332875251770e-01" nType="0">
            <Node pos="l" depth="3" NCoef="0" IVar="-1" Cut="0.0000000000000000e+00" cType="1" res="1.7334621399641037e-02" rms="4.7145184874534607e-01" purity="5.6516790390014648e-01" nType="-99"/>
            <Node pos="r" depth="3" NCoef="0" IVar="-1" Cut="0.0000000000000000e+00" cType="1" res="-1.8416281789541245e-02" rms="4.4979548454284668e-01" purity="3.2298219203948975e-01" nType="-99"/>
          </Node>
        </Node>
        <Node pos="r" depth="1" NCoef="0" IVar="14" Cut="-4.5724469237029552e-03" cType="1" res="-1.8541213870048523e-01" rms="1.7119500041007996e-01" purity="3.2476309686899185e-02" nType="0">
          <Node pos="l" depth="2" NCoef="0" IVar="9" Cut="8.2582908868789673e-01" cType="1" res="5.1644276827573776e-02" rms="4.4092872738838196e-01" purity="4.1197434067726135e-01" nType="0">
            <Node pos="l" depth="3" NCoef="0" IVar="-1" Cut="0.0000000000000000e+00" cType="1" res="8.5274510085582733e-02" rms="3.5410210490226746e-01" purity="8.3333331346511841e-01" nType="-99"/>
            <Node pos="r" depth="3" NCoef="0" IVar="-1" Cut="0.0000000000000000e+00" cType="1" res="-3.9741743355989456e-02" rms="3.3308625221252441e-01" purity="1.4831981062889099e-01" nType="-99"/>
          </Node>
          <Node pos="r" depth="2" NCoef="0" IVar="12" Cut="1.1162027120590210e+00" cType="0" res="-1.8682955205440521e-01" rms="1.6727966070175171e-01" purity="3.0207205563783646e-02" nType="0">
            <Node pos="l" depth="3" NCoef="0" IVar="-1" Cut="0.0000000000000000e+00" cType="1" res="-2.4793084710836411e-02" rms="3.9005854725837708e-01" purity="2.0618893206119537e-01" nType="-99"/>
            <Node pos="r" depth="3" NCoef="0" IVar="-1" Cut="0.0000000000000000e+00" cType="1" res="-5.6143358349800110e-02" rms="1.5640257298946381e-01" purity="2.5478543713688850e-02" nType="-99"/>
          </Node>
        </Node>
      </Node>
    </BinaryTree>
    <BinaryTree type="DecisionTree" boostWeight="1.0000000000000000e+00" itree="10">
      <Node pos="s" depth="0" NCoef="0" IVar="13" Cut="1.2153389930725098e+01" cType="0" res="-1.4789463579654694e-01" rms="2.0678645372390747e-01" purity="8.5985988378524780e-02" nType="0">
        <Node pos="l" depth="1" NCoef="0" IVar="8" Cut="3.6456838250160217e-01" cType="0" res="1.1687922477722168e-01" rms="3.3048665523529053e-01" purity="7.9371494054794312e-01" nType="0">
          <Node pos="l" depth="2" NCoef="0" IVar="0" Cut="9.3808126449584961e-01" cType="0" res="1.6044509410858154e-01" rms="2.6792979240417480e-01" purity="8.9443874359130859e-01" nType="0">
            <Node pos="l" depth="3" NCoef="0" IVar="-1" Cut="0.0000000000000000e+00" cType="1" res="4.8719625920057297e-02" rms="2.3258058726787567e-01" purity="9.3332707881927490e-01" nType="-99"/>
            <Node pos="r" depth="3" NCoef="0" IVar="-1" Cut="0.0000000000000000e+00" cType="1" res="6.4549748785793781e-03" rms="4.9140837788581848e-01" purity="4.8155534267425537e-01" nType="-99"/>
          </Node>
          <Node pos="r" depth="2" NCoef="0" IVar="11" Cut="5.4220156669616699e+00" cType="1" res="-5.4965540766716003e-02" rms="4.6889886260032654e-01" purity="3.9641165733337402e-01" nType="0">
            <Node pos="l" depth="3" NCoef="0" IVar="-1" Cut="0.0000000000000000e+00" cType="1" res="-2.4536353885196149e-04" rms="4.7477275133132935e-01" purity="4.4610035419464111e-01" nType="-99"/>
            <Node pos="r" depth="3" NCoef="0" IVar="-1" Cut="0.0000000000000000e+00" cType="1" res="-3.5472966730594635e-02" rms="4.3425858020782471e-01" purity="2.9011690616607666e-01" nType="-99"/>
          </Node>
        </Node>
        <Node pos="r" depth="1" NCoef="0" IVar="15" Cut="2.7482831478118896e-01" cType="0" res="-1.6380749642848969e-01" rms="1.8520212173461914e-01" purity="4.3451603502035141e-02" nType="0">
          <Node pos="l" depth="2" NCoef="0" IVar="14" Cut="1.1337004899978638e+00" cType="1" res="-2.5067124515771866e-02" rms="4.2788428068161011e-01" purity="4.0645962953567505e-01" nType="0">
            <Node pos="l" depth="3" NCoef="0" IVar="-1" Cut="0.0000000000000000e+00" cType="1" res="1.6778413206338882e-02" rms="4.5695862174034119e-01" purity="6.1498105525970459e-01" nType="-99"/>
            <Node pos="r" depth="3" NCoef="0" IVar="-1" Cut="0.0000000000000000e+00" cType="1" res="-2.3730756714940071e-02" rms="3.8808226585388184e-01" purity="2.5156959891319275e-01" nType="-99"/>
          </Node>
          <Node pos="r" depth="2" NCoef="0" IVar="15" Cut="5.6327514350414276e-02" cType="0" res="-1.6856051981449127e-01" rms="1.6888061165809631e-01" purity="3.1015537679195404e-02" nType="0">
            <Node pos="l" depth="3" NCoef="0" IVar="-1" Cut="0.0000000000000000e+00" cType="1" res="-3.6282703280448914e-02" rms="3.0791300535202026e-01" purity="1.1557117849588394e-01" nType="-99"/>
            <Node pos="r" depth="3" NCoef="0" IVar="-1" Cut="0.0000000000000000e+00" cType="1" res="-5.5033586919307709e-02" rms="1.4616999030113220e-01" purity="2.2074462845921516e-02" nType="-99"/>
          </Node>
        </Node>
      </Node>
    </BinaryTree>
    <BinaryTree type="DecisionTree" boostWeight="1.0000000000000000e+00" itree="11">
      <Node pos="s" depth="0" NCoef="0" IVar="15" Cut="4.0029951930046082e-01" cType="0" res="-1.3358548283576965e-01" rms="2.0425906777381897e-01" purity="8.5985988378524780e-02" nType="0">
        <Node pos="l" depth="1" NCoef="0" IVar="13" Cut="1.2430546760559082e+01" cType="0" res="1.1854542791843414e-01" rms="3.0342248082160950e-01" purity="8.1845504045486450e-01" nType="0">
          <Node pos="l" depth="2" NCoef="0" IVar="17" Cut="1.4443524360656738e+01" cType="1" res="1.6385079920291901e-01" rms="1.9529671967029572e-01" purity="9.5138037204742432e-01" nType="0">
            <Node pos="l" depth="3" NCoef="0" IVar="-1" Cut="0.0000000000000000e+00" cType="1" res="5.1575120538473129e-02" rms="1.8594264984130859e-01" purity="9.5539289712905884e-01" nType="-99"/>
            <Node pos="r" depth="3" NCoef="0" IVar="-1" Cut="0.0000000000000000e+00" cType="1" res="-3.6545170005410910e-03" rms="3.9919000864028931e-01" purity="7.7941179275512695e-01" nType="-99"/>
          </Node>
          <Node pos="r" depth="2" NCoef="0" IVar="15" Cut="7.4069762229919434e-01" cType="0" res="2.5597224012017250e-02" rms="4.3571287393569946e-01" purity="5.4574638605117798e-01" nType="0">
            <Node pos="l" depth="3" NCoef="0" IVar="-1" Cut="0.0000000000000000e+00" cType="1" res="3.3201694488525391e-02" rms="3.7832096219062805e-01" purity="7.8685122728347778e-01" nType="-99"/>
            <Node pos="r" depth="3" NCoef="0" IVar="-1" Cut="0.0000000000000000e+00" cType="1" res="-6.5099238418042660e-03" rms="4.5142808556556702e-01" purity="4.2626887559890747e-01" nType="-99"/>
          </Node>
        </Node>
        <Node pos="r" depth="1" NCoef="0" IVar="14" Cut="-2.2004596889019012e-02" cType="1" res="-1.4731855690479279e-01" rms="1.8795885145664215e-01" purity="4.6089872717857361e-02" nType="0">
          <Node pos="l" depth="2" NCoef="0" IVar="9" Cut="6.0088354349136353e-01" cType="1" res="-4.2271730490028858e-03" rms="4.4720190763473511e-01" purity="4.6727764606475830e-01" nType="0">
            <Node pos="l" depth="3" NCoef="0" IVar="-1" Cut="0.0000000000000000e+00" cType="1" res="8.3376310765743256e-02" rms="3.5851117968559265e-01" purity="8.4438037872314453e-01" nType="-99"/>
            <Node pos="r" depth="3" NCoef="0" IVar="-1" Cut="0.0000000000000000e+00" cType="1" res="-5.0175101496279240e-03" rms="4.4246041774749756e-01" purity="4.4959458708763123e-01" nType="-99"/>
          </Node>
          <Node pos="r" depth="2" NCoef="0" IVar="12" Cut="1.1294867992401123e+00" cType="0" res="-1.5200419723987579e-01" rms="1.7100919783115387e-01" purity="3.2297741621732712e-02" nType="0">
            <Node pos="l" depth="3" NCoef="0" IVar="-1" Cut="0.0000000000000000e+00" cType="1" res="-2.0532749593257904e-02" rms="3.9827319979667664e-01" purity="2.2284354269504547e-01" nType="-99"/>
            <Node pos="r" depth="3" NCoef="0" IVar="-1" Cut="0.0000000000000000e+00" cType="1" res="-5.2432596683502197e-02" rms="1.5590174496173859e-01" purity="2.5278842076659203e-02" nType="-99"/>
          </Node>
        </Node>
      </Node>
    </BinaryTree>
    <BinaryTree type="DecisionTree" boostWeight="1.0000000000000000e+00" itree="12">
      <Node pos="s" depth="0" NCoef="0" IVar="13" Cut="1.2153389930725098e+01" cType="0" res="-1.2066803872585297e-01" rms="2.0210991799831390e-01" purity="8.5985988378524780e-02" nType="0">
        <Node pos="l" depth="1" NCoef="0" IVar="8" Cut="3.6456838250160217e-01" cType="0" res="9.6623793244361877e-02" rms="3.2588100433349609e-01" purity="7.9371494054794312e-01" nType="0">
          <Node pos="l" depth="2" NCoef="0" IVar="13" Cut="2.7374183654785156e+01" cType="0" res="1.3320004940032959e-01" rms="2.6654520630836487e-01" purity="8.9443874359130859e-01" nType="0">
            <Node pos="l" depth="3" NCoef="0" IVar="-1" Cut="0.0000000000000000e+00" cType="1" res="4.9697380512952805e-02" rms="2.0135721564292908e-01" purity="9.4921189546585083e-01" nType="-99"/>
            <Node pos="r" depth="3" NCoef="0" IVar="-1" Cut="0.0000000000000000e+00" cType="1" res="2.1335134282708168e-02" rms="3.6575672030448914e-01" purity="7.7474027872085571e-01" nType="-99"/>
          </Node>
          <Node pos="r" depth="2" NCoef="0" IVar="6" Cut="1.0061271667480469e+02" cType="0" res="-4.7650590538978577e-02" rms="4.6772107481956482e-01" purity="3.9641165733337402e-01" nType="0">
            <Node pos="l" depth="3" NCoef="0" IVar="-1" Cut="0.0000000000000000e+00" cType="1" res="2.1748034283518791e-02" rms="4.7900581359863281e-01" purity="5.7555180788040161e-01" nType="-99"/>
            <Node pos="r" depth="3" NCoef="0" IVar="-1" Cut="0.0000000000000000e+00" cType="1" res="-1.8083482980728149e-02" rms="4.5685994625091553e-01" purity="3.5179704427719116e-01" nType="-99"/>
          </Node>
        </Node>
        <Node pos="r" depth="1" NCoef="0" IVar="15" Cut="2.4732358753681183e-01" cType="0" res="-1.3372723758220673e-01" rms="1.8415400385856628e-01" purity="4.3451603502035141e-02" nType="0">
          <Node pos="l" depth="2" NCoef="0" IVar="14" Cut="1.1651370525360107e+00" cType="1" res="-2.7811868116259575e-02" rms="4.1905295848846436e-01" purity="3.7657791376113892e-01" nType="0">
            <Node pos="l" depth="3" NCoef="0" IVar="-1" Cut="0.0000000000000000e+00" cType="1" res="1.3681239448487759e-02" rms="4.5860409736633301e-01" purity="5.8430975675582886e-01" nType="-99"/>
            <Node pos="r" depth="3" NCoef="0" IVar="-1" Cut="0.0000000000000000e+00" cType="1" res="-2.2753430530428886e-02" rms="3.7554991245269775e-01" purity="2.2832211852073669e-01" nType="-99"/>
          </Node>
          <Node pos="r" depth="2" NCoef="0" IVar="10" Cut="3.8828819990158081e-01" cType="0" res="-1.3800144195556641e-01" rms="1.6650441288948059e-01" purity="3.0008304864168167e-02" nType="0">
            <Node pos="l" depth="3" NCoef="0" IVar="-1" Cut="0.0000000000000000e+00" cType="1" res="-3.3487565815448761e-02" rms="2.9281508922576904e-01" purity="1.0289455950260162e-01" nType="-99"/>
            <Node pos="r" depth="3" NCoef="0" IVar="-1" Cut="0.0000000000000000e+00" cType="1" res="-5.1796242594718933e-02" rms="1.4487610757350922e-01" purity="2.1671930328011513e-02" nType="-99"/>
          </Node>
        </Node>
      </Node>
    </BinaryTree>
    <BinaryTree type="DecisionTree" boostWeight="1.0000000000000000e+00" itree="13">
      <Node pos="s" depth="0" NCoef="0" IVar="15" Cut="4.0029951930046082e-01" cType="0" res="-1.0900495946407318e-01" rms="2.0034377276897430e-01" purity="8.5985988378524780e-02" nType="0">
        <Node pos="l" depth="1" NCoef="0" IVar="0" Cut="2.2532212734222412e+00" cType="0" res="9.9424600601196289e-02" rms="2.9972571134567261e-01" purity="8.1845504045486450e-01" nType="0">
          <Node pos="l" depth="2" NCoef="0" IVar="12" Cut="1.3916903734207153e+00" cType="0" res="1.3706000149250031e-01" rms="2.0349897444248199e-01" purity="9.2816370725631714e-01" nType="0">
            <Node pos="l" depth="3" NCoef="0" IVar="-1" Cut="0.0000000000000000e+00" cType="1" res="4.9592804163694382e-02" rms="1.8825903534889221e-01" purity="9.5276468992233276e-01" nType="-99"/>
            <Node pos="r" depth="3" NCoef="0" IVar="-1" Cut="0.0000000000000000e+00" cType="1" res="-1.4343550428748131e-02" rms="3.9046049118041992e-01" purity="3.0199429392814636e-01" nType="-99"/>
          </Node>
          <Node pos="r" depth="2" NCoef="0" IVar="5" Cut="8.3602228164672852e+00" cType="0" res="1.2562876567244530e-02" rms="4.3678632378578186e-01" purity="5.6524980068206787e-01" nType="0">
            <Node pos="l" depth="3" NCoef="0" IVar="-1" Cut="0.0000000000000000e+00" cType="1" res="3.7363782525062561e-02" rms="3.2270476222038269e-01" purity="8.7681162357330322e-01" nType="-99"/>
            <Node pos="r" depth="3" NCoef="0" IVar="-1" Cut="0.0000000000000000e+00" cType="1" res="-4.7516217455267906e-03" rms="4.5567899942398071e-01" purity="4.8450705409049988e-01" nType="-99"/>
          </Node>
        </Node>
        <Node pos="r" depth="1" NCoef="0" IVar="6" Cut="5.2835369110107422e+01" cType="0" res="-1.2035769969224930e-01" rms="1.8691055476665497e-01" purity="4.6089872717857361e-02" nType="0">
          <Node pos="l" depth="2" NCoef="0" IVar="15" Cut="1.1267785727977753e-01" cType="0" res="4.9927532672882080e-02" rms="4.3141534924507141e-01" purity="6.0855615139007568e-01" nType="0">
            <Node pos="l" depth="3" NCoef="0" IVar="-1" Cut="0.0000000000000000e+00" cType="1" res="2.4347791448235512e-02" rms="4.1184595227241516e-01" purity="7.2894334793090820e-01" nType="-99"/>
            <Node pos="r" depth="3" NCoef="0" IVar="-1" Cut="0.0000000000000000e+00" cType="1" res="-1.6550788655877113e-02" rms="4.4879409670829773e-01" purity="3.2978722453117371e-01" nType="-99"/>
          </Node>
          <Node pos="r" depth="2" NCoef="0" IVar="15" Cut="1.1678542196750641e-01" cType="0" res="-1.2300483882427216e-01" rms="1.7924168705940247e-01" purity="3.7346158176660538e-02" nType="0">
            <Node pos="l" depth="3" NCoef="0" IVar="-1" Cut="0.0000000000000000e+00" cType="1" res="-2.1192960441112518e-02" rms="3.6763143539428711e-01" purity="1.9184939563274384e-01" nType="-99"/>
            <Node pos="r" depth="3" NCoef="0" IVar="-1" Cut="0.0000000000000000e+00" cType="1" res="-4.9443855881690979e-02" rms="1.5307636559009552e-01" purity="2.4567073211073875e-02" nType="-99"/>
          </Node>
        </Node>
      </Node>
    </BinaryTree>
    <BinaryTree type="DecisionTree" boostWeight="1.0000000000000000e+00" itree="14">
      <Node pos="s" depth="0" NCoef="0" IVar="10" Cut="3.0429599285125732e+00" cType="0" res="-9.8465427756309509e-02" rms="1.9885370135307312e-01" purity="8.5985988378524780e-02" nType="0">
        <Node pos="l" depth="1" NCoef="0" IVar="0" Cut="1.3739879131317139e+00" cType="0" res="4.3029189109802246e-02" rms="3.6820963025093079e-01" purity="6.5006357431411743e-01" nType="0">
          <Node pos="l" depth="2" NCoef="0" IVar="21" Cut="-1.0646927833557129e+01" cType="0" res="1.1180005967617035e-01" rms="2.6865223050117493e-01" purity="8.9798378944396973e-01" nType="0">
            <Node pos="l" depth="3" NCoef="0" IVar="-1" Cut="0.0000000000000000e+00" cType="1" res="4.2627323418855667e-02" rms="2.4398601055145264e-01" purity="9.2037630081176758e-01" nType="-99"/>
            <Node pos="r" depth="3" NCoef="0" IVar="-1" Cut="0.0000000000000000e+00" cType="1" res="6.6003431566059589e-03" rms="3.5103285312652588e-01" purity="7.8999066352844238e-01" nType="-99"/>
          </Node>
          <Node pos="r" depth="2" NCoef="0" IVar="21" Cut="-3.5199065208435059e+00" cType="0" res="-3.9624661207199097e-02" rms="4.4639265537261963e-01" purity="3.5209500789642334e-01" nType="0">
            <Node pos="l" depth="3" NCoef="0" IVar="-1" Cut="0.0000000000000000e+00" cType="1" res="6.0072904452681541e-03" rms="4.5982861518859863e-01" purity="4.2630550265312195e-01" nType="-99"/>
            <Node pos="r" depth="3" NCoef="0" IVar="-1" Cut="0.0000000000000000e+00" cType="1" res="-1.8747938796877861e-02" rms="4.3183049559593201e-01" purity="3.0351439118385315e-01" nType="-99"/>
          </Node>
        </Node>
        <Node pos="r" depth="1" NCoef="0" IVar="14" Cut="-3.5326527431607246e-03" cType="1" res="-1.1220768839120865e-01" rms="1.6757777333259583e-01" purity="3.1201560050249100e-02" nType="0">
          <Node pos="l" depth="2" NCoef="0" IVar="9" Cut="8.3834260702133179e-01" cType="1" res="1.1909072101116180e-01" rms="4.0096640586853027e-01" purity="4.4525548815727234e-01" nType="0">
            <Node pos="l" depth="3" NCoef="0" IVar="-1" Cut="0.0000000000000000e+00" cType="1" res="1.0522600263357162e-01" rms="2.1403871476650238e-01" purity="9.4974875450134277e-01" nType="-99"/>
            <Node pos="r" depth="3" NCoef="0" IVar="-1" Cut="0.0000000000000000e+00" cType="1" res="-4.1568282991647720e-02" rms="2.6871487498283386e-01" purity="8.7344028055667877e-02" nType="-99"/>
          </Node>
          <Node pos="r" depth="2" NCoef="0" IVar="10" Cut="7.4464321136474609e-01" cType="0" res="-1.1315614730119705e-01" rms="1.6528134047985077e-01" purity="2.9503695666790009e-02" nType="0">
            <Node pos="l" depth="3" NCoef="0" IVar="-1" Cut="0.0000000000000000e+00" cType="1" res="-2.3722967132925987e-02" rms="3.3165192604064941e-01" purity="1.3891097903251648e-01" nType="-99"/>
            <Node pos="r" depth="3" NCoef="0" IVar="-1" Cut="0.0000000000000000e+00" cType="1" res="-4.8501394689083099e-02" rms="1.4847397804260254e-01" purity="2.2627703845500946e-02" nType="-99"/>
          </Node>
        </Node>
      </Node>
    </BinaryTree>
    <BinaryTree type="DecisionTree" boostWeight="1.0000000000000000e+00" itree="15">
      <Node pos="s" depth="0" NCoef="0" IVar="13" Cut="1.2618987083435059e+01" cType="0" res="-8.8955707848072052e-02" rms="1.9734451174736023e-01" purity="8.5985988378524780e-02" nType="0">
        <Node pos="l" depth="1" NCoef="0" IVar="8" Cut="2.5419029593467712e-01" cType="0" res="7.6466843485832214e-02" rms="3.1751412153244019e-01" purity="7.9713171720504761e-01" nType="0">
          <Node pos="l" depth="2" NCoef="0" IVar="17" Cut="1.2660873413085938e+01" cType="1" res="9.8825015127658844e-02" rms="2.8613108396530151e-01" purity="8.6498767137527466e-01" nType="0">
            <Node pos="l" depth="3" NCoef="0" IVar="-1" Cut="0.0000000000000000e+00" cType="1" res="3.3821694552898407e-02" rms="2.7731737494468689e-01" purity="8.7244266271591187e-01" nType="-99"/>
            <Node pos="r" depth="3" NCoef="0" IVar="-1" Cut="0.0000000000000000e+00" cType="1" res="-2.0227869972586632e-02" rms="4.2327514290809631e-01" purity="6.7510551214218140e-01" nType="-99"/>
          </Node>
          <Node pos="r" depth="2" NCoef="0" IVar="21" Cut="-3.5020787715911865e+00" cType="0" res="-7.7923893928527832e-02" rms="4.5204320549964905e-01" purity="3.2856357097625732e-01" nType="0">
            <Node pos="l" depth="3" NCoef="0" IVar="-1" Cut="0.0000000000000000e+00" cType="1" res="3.0721495859324932e-03" rms="4.7683280706405640e-01" purity="4.2899408936500549e-01" nType="-99"/>
            <Node pos="r" depth="3" NCoef="0" IVar="-1" Cut="0.0000000000000000e+00" cType="1" res="-2.8346315026283264e-02" rms="4.2736184597015381e-01" purity="2.6906222105026245e-01" nType="-99"/>
          </Node>
        </Node>
        <Node pos="r" depth="1" NCoef="0" IVar="15" Cut="6.1863738298416138e-01" cType="0" res="-9.8723128437995911e-02" rms="1.8324996531009674e-01" purity="4.3996199965476990e-02" nType="0">
          <Node pos="l" depth="2" NCoef="0" IVar="21" Cut="-3.2126080989837646e+00" cType="0" res="7.7747859060764313e-02" rms="3.9700269699096680e-01" purity="7.2544205188751221e-01" nType="0">
            <Node pos="l" depth="3" NCoef="0" IVar="-1" Cut="0.0000000000000000e+00" cType="1" res="3.6672066897153854e-02" rms="3.6633345484733582e-01" purity="7.8626692295074463e-01" nType="-99"/>
            <Node pos="r" depth="3" NCoef="0" IVar="-1" Cut="0.0000000000000000e+00" cType="1" res="1.4053327031433582e-03" rms="4.1412547230720520e-01" purity="6.6267466545104980e-01" nType="-99"/>
          </Node>
          <Node pos="r" depth="2" NCoef="0" IVar="10" Cut="7.7657639980316162e-01" cType="0" res="-1.0021252185106277e-01" rms="1.7963488399982452e-01" purity="3.8244865834712982e-02" nType="0">
            <Node pos="l" depth="3" NCoef="0" IVar="-1" Cut="0.0000000000000000e+00" cType="1" res="-1.7437264323234558e-02" rms="3.7053874135017395e-01" purity="1.9885997474193573e-01" nType="-99"/>
            <Node pos="r" depth="3" NCoef="0" IVar="-1" Cut="0.0000000000000000e+00" cType="1" res="-4.6721633523702621e-02" rms="1.5014562010765076e-01" purity="2.3586357012391090e-02" nType="-99"/>
          </Node>
        </Node>
      </Node>
    </BinaryTree>
    <BinaryTree type="DecisionTree" boostWeight="1.0000000000000000e+00" itree="16">
      <Node pos="s" depth="0" NCoef="0" IVar="15" Cut="3.3661600947380066e-01" cType="0" res="-8.0361098051071167e-02" rms="1.9633647799491882e-01" purity="8.5985988378524780e-02" nType="0">
        <Node pos="l" depth="1" NCoef="0" IVar="0" Cut="2.2486913204193115e+00" cType="0" res="6.5656460821628571e-02" rms="3.1465208530426025e-01" purity="7.6245063543319702e-01" nType="0">
          <Node pos="l" depth="2" NCoef="0" IVar="12" Cut="1.5464379787445068e+00" cType="0" res="1.0649294406175613e-01" rms="2.0594072341918945e-01" purity="9.1705644130706787e-01" nType="0">
            <Node pos="l" depth="3" NCoef="0" IVar="-1" Cut="0.0000000000000000e+00" cType="1" res="4.5345250517129898e-02" rms="1.8738092482089996e-01" purity="9.5353448390960693e-01" nType="-99"/>
            <Node pos="r" depth="3" NCoef="0" IVar="-1" Cut="0.0000000000000000e+00" cType="1" res="-8.2165924832224846e-03" rms="3.8064837455749512e-01" purity="3.0241188406944275e-01" nType="-99"/>
          </Node>
          <Node pos="r" depth="2" NCoef="0" IVar="14" Cut="1.5526555776596069e+00" cType="1" res="-1.8500360893085599e-03" rms="4.3040424585342407e-01" purity="5.0687283277511597e-01" nType="0">
            <Node pos="l" depth="3" NCoef="0" IVar="-1" Cut="0.0000000000000000e+00" cType="1" res="7.9254517331719398e-03" rms="4.4455692172050476e-01" purity="6.1796116828918457e-01" nType="-99"/>
            <Node pos="r" depth="3" NCoef="0" IVar="-1" Cut="0.0000000000000000e+00" cType="1" res="-2.2097079083323479e-02" rms="3.8031166791915894e-01" purity="2.3764705657958984e-01" nType="-99"/>
          </Node>
        </Node>
        <Node pos="r" depth="1" NCoef="0" IVar="6" Cut="5.4714843750000000e+01" cType="0" res="-8.9670397341251373e-02" rms="1.8233911693096161e-01" purity="4.2858205735683441e-02" nType="0">
          <Node pos="l" depth="2" NCoef="0" IVar="11" Cut="1.9196726083755493e+00" cType="1" res="3.6292545497417450e-02" rms="4.3402981758117676e-01" purity="5.8741259574890137e-01" nType="0">
            <Node pos="l" depth="3" NCoef="0" IVar="-1" Cut="0.0000000000000000e+00" cType="1" res="2.3433912545442581e-02" rms="4.1013848781585693e-01" purity="6.7090541124343872e-01" nType="-99"/>
            <Node pos="r" depth="3" NCoef="0" IVar="-1" Cut="0.0000000000000000e+00" cType="1" res="-1.3527754694223404e-02" rms="4.5056882500648499e-01" purity="4.6334087848663330e-01" nType="-99"/>
          </Node>
          <Node pos="r" depth="2" NCoef="0" IVar="15" Cut="5.6720353662967682e-02" cType="0" res="-9.1404527425765991e-02" rms="1.7575658857822418e-01" purity="3.5361334681510925e-02" nType="0">
            <Node pos="l" depth="3" NCoef="0" IVar="-1" Cut="0.0000000000000000e+00" cType="1" res="-2.1616695448756218e-02" rms="3.2715970277786255e-01" purity="1.4193180203437805e-01" nType="-99"/>
            <Node pos="r" depth="3" NCoef="0" IVar="-1" Cut="0.0000000000000000e+00" cType="1" res="-4.5867696404457092e-02" rms="1.4633120596408844e-01" purity="2.2209160029888153e-02" nType="-99"/>
          </Node>
        </Node>
      </Node>
    </BinaryTree>
    <BinaryTree type="DecisionTree" boostWeight="1.0000000000000000e+00" itree="17">
      <Node pos="s" depth="0" NCoef="0" IVar="15" Cut="2.8885340690612793e-01" cType="0" res="-7.2590976953506470e-02" rms="1.9544585049152374e-01" purity="8.5985988378524780e-02" nType="0">
        <Node pos="l" depth="1" NCoef="0" IVar="14" Cut="1.1143491268157959e+00" cType="1" res="5.0200577825307846e-02" rms="3.2648667693138123e-01" purity="7.1204662322998047e-01" nType="0">
          <Node pos="l" depth="2" NCoef="0" IVar="9" Cut="4.2315518856048584e-01" cType="1" res="8.3774141967296600e-02" rms="2.9994758963584900e-01" purity="8.4989148378372192e-01" nType="0">
            <Node pos="l" depth="3" NCoef="0" IVar="-1" Cut="0.0000000000000000e+00" cType="1" res="9.6544951200485229e-02" rms="2.5212442874908447e-01" purity="9.6367520093917847e-01" nType="-99"/>
            <Node pos="r" depth="3" NCoef="0" IVar="-1" Cut="0.0000000000000000e+00" cType="1" res="2.4217516183853149e-02" rms="2.9538780450820923e-01" purity="8.4560954570770264e-01" nType="-99"/>
          </Node>
          <Node pos="r" depth="2" NCoef="0" IVar="15" Cut="7.2565698623657227e-01" cType="0" res="-4.0643054991960526e-02" rms="3.7453314661979675e-01" purity="3.3906480669975281e-01" nType="0">
            <Node pos="l" depth="3" NCoef="0" IVar="-1" Cut="0.0000000000000000e+00" cType="1" res="2.4575591087341309e-02" rms="3.4218385815620422e-01" purity="7.8315788507461548e-01" nType="-99"/>
            <Node pos="r" depth="3" NCoef="0" IVar="-1" Cut="0.0000000000000000e+00" cType="1" res="-1.8923997879028320e-02" rms="3.7574386596679688e-01" purity="2.2859387099742889e-01" nType="-99"/>
          </Node>
        </Node>
        <Node pos="r" depth="1" NCoef="0" IVar="6" Cut="8.7971504211425781e+01" cType="0" res="-8.1634476780891418e-02" rms="1.7880053818225861e-01" purity="3.9877146482467651e-02" nType="0">
          <Node pos="l" depth="2" NCoef="0" IVar="21" Cut="-6.3910393714904785e+00" cType="0" res="7.3905125260353088e-02" rms="4.3449997901916504e-01" purity="6.3687151670455933e-01" nType="0">
            <Node pos="l" depth="3" NCoef="0" IVar="-1" Cut="0.0000000000000000e+00" cType="1" res="3.5609450191259384e-02" rms="4.0527620911598206e-01" purity="7.3056995868682861e-01" nType="-99"/>
            <Node pos="r" depth="3" NCoef="0" IVar="-1" Cut="0.0000000000000000e+00" cType="1" res="-5.5980626493692398e-03" rms="4.4665893912315369e-01" purity="5.2727270126342773e-01" nType="-99"/>
          </Node>
          <Node pos="r" depth="2" NCoef="0" IVar="15" Cut="9.1782428324222565e-02" cType="0" res="-8.2568250596523285e-02" rms="1.7573292553424835e-01" purity="3.6293130367994308e-02" nType="0">
            <Node pos="l" depth="3" NCoef="0" IVar="-1" Cut="0.0000000000000000e+00" cType="1" res="-1.7143530771136284e-02" rms="3.4713730216026306e-01" purity="1.7400938272476196e-01" nType="-99"/>
            <Node pos="r" depth="3" NCoef="0" IVar="-1" Cut="0.0000000000000000e+00" cType="1" res="-4.3899331241846085e-02" rms="1.5123441815376282e-01" purity="2.4096054956316948e-02" nType="-99"/>
          </Node>
        </Node>
      </Node>
    </BinaryTree>
    <BinaryTree type="DecisionTree" boostWeight="1.0000000000000000e+00" itree="18">
      <Node pos="s" depth="0" NCoef="0" IVar="13" Cut="1.3317382812500000e+01" cType="0" res="-6.5574377775192261e-02" rms="1.9464740157127380e-01" purity="8.5985988378524780e-02" nType="0">
        <Node pos="l" depth="1" NCoef="0" IVar="11" Cut="1.7531216144561768e+00" cType="1" res="6.2381636351346970e-02" rms="3.1126585602760315e-01" purity="8.0093812942504883e-01" nType="0">
          <Node pos="l" depth="2" NCoef="0" IVar="0" Cut="6.8424153327941895e-01" cType="0" res="8.4917686879634857e-02" rms="2.8223845362663269e-01" purity="8.5610389709472656e-01" nType="0">
            <Node pos="l" depth="3" NCoef="0" IVar="-1" Cut="0.0000000000000000e+00" cType="1" res="3.4831035882234573e-02" rms="2.5352686643600464e-01" purity="9.0245753526687622e-01" nType="-99"/>
            <Node pos="r" depth="3" NCoef="0" IVar="-1" Cut="0.0000000000000000e+00" cType="1" res="-6.2243104912340641e-03" rms="4.7504314780235291e-01" purity="3.7289813160896301e-01" nType="-99"/>
          </Node>
          <Node pos="r" depth="2" NCoef="0" IVar="21" Cut="-5.4344224929809570e+00" cType="0" res="-4.0867619216442108e-02" rms="4.0352085232734680e-01" purity="5.4819518327713013e-01" nType="0">
            <Node pos="l" depth="3" NCoef="0" IVar="-1" Cut="0.0000000000000000e+00" cType="1" res="7.4789691716432571e-03" rms="3.8223019242286682e-01" purity="6.3162118196487427e-01" nType="-99"/>
            <Node pos="r" depth="3" NCoef="0" IVar="-1" Cut="0.0000000000000000e+00" cType="1" res="-2.8248853981494904e-02" rms="4.1234701871871948e-01" purity="4.6666666865348816e-01" nType="-99"/>
          </Node>
        </Node>
        <Node pos="r" depth="1" NCoef="0" IVar="12" Cut="1.3614442348480225e+00" cType="0" res="-7.2966553270816803e-02" rms="1.8297173082828522e-01" purity="4.4682301580905914e-02" nType="0">
          <Node pos="l" depth="2" NCoef="0" IVar="21" Cut="-2.6971743106842041e+00" cType="0" res="-1.8104845657944679e-02" rms="4.1705417633056641e-01" purity="3.5826575756072998e-01" nType="0">
            <Node pos="l" depth="3" NCoef="0" IVar="-1" Cut="0.0000000000000000e+00" cType="1" res="1.3350654393434525e-02" rms="4.2881426215171814e-01" purity="4.5907214283943176e-01" nType="-99"/>
            <Node pos="r" depth="3" NCoef="0" IVar="-1" Cut="0.0000000000000000e+00" cType="1" res="-1.4165926724672318e-02" rms="4.0601181983947754e-01" purity="3.0618646740913391e-01" nType="-99"/>
          </Node>
          <Node pos="r" depth="2" NCoef="0" IVar="14" Cut="-1.2534013949334621e-03" cType="1" res="-7.5831010937690735e-02" rms="1.6118249297142029e-01" purity="2.8309386223554611e-02" nType="0">
            <Node pos="l" depth="3" NCoef="0" IVar="-1" Cut="0.0000000000000000e+00" cType="1" res="3.0438058078289032e-02" rms="3.9059218764305115e-01" purity="4.0340909361839294e-01" nType="-99"/>
            <Node pos="r" depth="3" NCoef="0" IVar="-1" Cut="0.0000000000000000e+00" cType="1" res="-4.1582360863685608e-02" rms="1.5886959433555603e-01" purity="2.6590343564748764e-02" nType="-99"/>
          </Node>
        </Node>
      </Node>
    </BinaryTree>
    <BinaryTree type="DecisionTree" boostWeight="1.0000000000000000e+00" itree="19">
      <Node pos="s" depth="0" NCoef="0" IVar="15" Cut="4.7990387678146362e-01" cType="0" res="-5.9232428669929504e-02" rms="1.9391059875488281e-01" purity="8.5985988378524780e-02" nType="0">
        <Node pos="l" depth="1" NCoef="0" IVar="0" Cut="2.2567965984344482e+00" cType="0" res="7.1187667548656464e-02" rms="2.6562002301216125e-01" purity="8.6631530523300171e-01" nType="0">
          <Node pos="l" depth="2" NCoef="0" IVar="21" Cut="-4.8064761161804199e+00" cType="0" res="9.0355433523654938e-02" rms="1.9084696471691132e-01" purity="9.4030702114105225e-01" nType="0">
            <Node pos="l" depth="3" NCoef="0" IVar="-1" Cut="0.0000000000000000e+00" cType="1" res="4.9767132848501205e-02" rms="1.5365520119667053e-01" purity="9.6648395061492920e-01" nType="-99"/>
            <Node pos="r" depth="3" NCoef="0" IVar="-1" Cut="0.0000000000000000e+00" cType="1" res="2.8847320005297661e-02" rms="2.2444413602352142e-01" purity="9.0965193510055542e-01" nType="-99"/>
          </Node>
          <Node pos="r" depth="2" NCoef="0" IVar="21" Cut="3.7887009978294373e-01" cType="0" res="6.0986760072410107e-03" rms="4.2540767788887024e-01" purity="6.1505788564682007e-01" nType="0">
            <Node pos="l" depth="3" NCoef="0" IVar="-1" Cut="0.0000000000000000e+00" cType="1" res="3.7008848041296005e-02" rms="3.8562417030334473e-01" purity="7.3379629850387573e-01" nType="-99"/>
            <Node pos="r" depth="3" NCoef="0" IVar="-1" Cut="0.0000000000000000e+00" cType="1" res="-5.7665472850203514e-03" rms="4.2694813013076782e-01" purity="5.9128820896148682e-01" nType="-99"/>
          </Node>
        </Node>
        <Node pos="r" depth="1" NCoef="0" IVar="13" Cut="3.8847640991210938e+01" cType="0" res="-6.5262205898761749e-02" rms="1.8776325881481171e-01" purity="4.9908630549907684e-02" nType="0">
          <Node pos="l" depth="2" NCoef="0" IVar="11" Cut="6.2192845344543457e+00" cType="1" res="7.0696741342544556e-02" rms="3.9787775278091431e-01" purity="6.9570225477218628e-01" nType="0">
            <Node pos="l" depth="3" NCoef="0" IVar="-1" Cut="0.0000000000000000e+00" cType="1" res="2.8178809210658073e-02" rms="3.7577641010284424e-01" purity="7.6707440614700317e-01" nType="-99"/>
            <Node pos="r" depth="3" NCoef="0" IVar="-1" Cut="0.0000000000000000e+00" cType="1" res="-1.2359434738755226e-02" rms="4.3613943457603455e-01" purity="4.7826087474822998e-01" nType="-99"/>
          </Node>
          <Node pos="r" depth="2" NCoef="0" IVar="15" Cut="1.4171972870826721e-01" cType="0" res="-6.6716417670249939e-02" rms="1.8368194997310638e-01" purity="4.3001264333724976e-02" nType="0">
            <Node pos="l" depth="3" NCoef="0" IVar="-1" Cut="0.0000000000000000e+00" cType="1" res="-9.7582032904028893e-03" rms="3.8392230868339539e-01" purity="2.5146231055259705e-01" nType="-99"/>
            <Node pos="r" depth="3" NCoef="0" IVar="-1" Cut="0.0000000000000000e+00" cType="1" res="-4.0226608514785767e-02" rms="1.5776072442531586e-01" purity="2.6931203901767731e-02" nType="-99"/>
          </Node>
        </Node>
      </Node>
    </BinaryTree>
    <BinaryTree type="DecisionTree" boostWeight="1.0000000000000000e+00" itree="20">
      <Node pos="s" depth="0" NCoef="0" IVar="14" Cut="-4.5545674860477448e-02" cType="1" res="-5.3493160754442215e-02" rms="1.9337667524814606e-01" purity="8.5985988378524780e-02" nType="0">
        <Node pos="l" depth="1" NCoef="0" IVar="0" Cut="9.3700951337814331e-01" cType="0" res="4.3843746185302734e-02" rms="3.3773145079612732e-01" purity="7.1925067901611328e-01" nType="0">
          <Node pos="l" depth="2" NCoef="0" IVar="10" Cut="4.1033477783203125e+00" cType="0" res="7.4881017208099365e-02" rms="2.8461289405822754e-01" purity="8.7410128116607666e-01" nType="0">
            <Node pos="l" depth="3" NCoef="0" IVar="-1" Cut="0.0000000000000000e+00" cType="1" res="2.4752356112003326e-02" rms="2.7728894352912903e-01" purity="8.8146179914474487e-01" nType="-99"/>
            <Node pos="r" depth="3" NCoef="0" IVar="-1" Cut="0.0000000000000000e+00" cType="1" res="6.3378520309925079e-02" rms="3.5986453294754028e-01" purity="7.1942448616027832e-01" nType="-99"/>
          </Node>
          <Node pos="r" depth="2" NCoef="0" IVar="9" Cut="5.2267050743103027e-01" cType="1" res="-3.6370832473039627e-02" rms="4.3654969334602356e-01" purity="3.1904560327529907e-01" nType="0">
            <Node pos="l" depth="3" NCoef="0" IVar="-1" Cut="0.0000000000000000e+00" cType="1" res="9.9763393402099609e-02" rms="4.0122494101524353e-01" purity="7.7551019191741943e-01" nType="-99"/>
            <Node pos="r" depth="3" NCoef="0" IVar="-1" Cut="0.0000000000000000e+00" cType="1" res="-9.5684509724378586e-03" rms="4.3417608737945557e-01" purity="3.1427353620529175e-01" nType="-99"/>
          </Node>
        </Node>
        <Node pos="r" depth="1" NCoef="0" IVar="12" Cut="1.3627854585647583e+00" cType="0" res="-6.0359273105859756e-02" rms="1.7683590948581696e-01" purity="4.1315719485282898e-02" nType="0">
          <Node pos="l" depth="2" NCoef="0" IVar="0" Cut="8.6847096681594849e-01" cType="0" res="-5.5173891596496105e-03" rms="4.0432599186897278e-01" purity="3.7271115183830261e-01" nType="0">
            <Node pos="l" depth="3" NCoef="0" IVar="-1" Cut="0.0000000000000000e+00" cType="1" res="9.9614011123776436e-03" rms="4.2014619708061218e-01" purity="5.3646206855773926e-01" nType="-99"/>
            <Node pos="r" depth="3" NCoef="0" IVar="-1" Cut="0.0000000000000000e+00" cType="1" res="-1.6409324482083321e-02" rms="3.7795761227607727e-01" purity="1.7626678943634033e-01" nType="-99"/>
          </Node>
          <Node pos="r" depth="2" NCoef="0" IVar="21" Cut="2.9725959897041321e-01" cType="0" res="-6.2776111066341400e-02" rms="1.5907929837703705e-01" purity="2.6711380109190941e-02" nType="0">
            <Node pos="l" depth="3" NCoef="0" IVar="-1" Cut="0.0000000000000000e+00" cType="1" res="-2.3877816274762154e-02" rms="2.1636994183063507e-01" purity="5.1528505980968475e-02" nType="-99"/>
            <Node pos="r" depth="3" NCoef="0" IVar="-1" Cut="0.0000000000000000e+00" cType="1" res="-4.0235176682472229e-02" rms="1.5182113647460938e-01" purity="2.4180941283702850e-02" nType="-99"/>
          </Node>
        </Node>
      </Node>
    </BinaryTree>
    <BinaryTree type="DecisionTree" boostWeight="1.0000000000000000e+00" itree="21">
      <Node pos="s" depth="0" NCoef="0" IVar="13" Cut="1.6188566207885742e+01" cType="0" res="-4.8318415880203247e-02" rms="1.9283325970172882e-01" purity="8.5985988378524780e-02" nType="0">
        <Node pos="l" depth="1" NCoef="0" IVar="11" Cut="5.4341669082641602e+00" cType="1" res="5.5012740194797516e-02" rms="3.0010697245597839e-01" purity="8.1473767757415771e-01" nType="0">
          <Node pos="l" depth="2" NCoef="0" IVar="13" Cut="3.8091827392578125e+01" cType="0" res="7.0201106369495392e-02" rms="2.8089290857315063e-01" purity="8.5609650611877441e-01" nType="0">
            <Node pos="l" depth="3" NCoef="0" IVar="-1" Cut="0.0000000000000000e+00" cType="1" res="3.9092019200325012e-02" rms="2.1636804938316345e-01" purity="9.2647278308868408e-01" nType="-99"/>
            <Node pos="r" depth="3" NCoef="0" IVar="-1" Cut="0.0000000000000000e+00" cType="1" res="1.2707811780273914e-02" rms="3.4659156203269958e-01" purity="7.6207727193832397e-01" nType="-99"/>
          </Node>
          <Node pos="r" depth="2" NCoef="0" IVar="10" Cut="3.4805804443359375e+02" cType="0" res="-7.5069189071655273e-02" rms="4.0838292241096497e-01" purity="4.6051660180091858e-01" nType="0">
            <Node pos="l" depth="3" NCoef="0" IVar="-1" Cut="0.0000000000000000e+00" cType="1" res="1.2602176517248154e-02" rms="3.9882925152778625e-01" purity="6.2300318479537964e-01" nType="-99"/>
            <Node pos="r" depth="3" NCoef="0" IVar="-1" Cut="0.0000000000000000e+00" cType="1" res="-2.8570521622896194e-02" rms="4.0410047769546509e-01" purity="4.1170826554298401e-01" nType="-99"/>
          </Node>
        </Node>
        <Node pos="r" depth="1" NCoef="0" IVar="10" Cut="9.2822694778442383e-01" cType="0" res="-5.3791683167219162e-02" rms="1.8381570279598236e-01" purity="4.7385308891534805e-02" nType="0">
          <Node pos="l" depth="2" NCoef="0" IVar="21" Cut="-1.5318689346313477e+00" cType="0" res="-1.9652144983410835e-02" rms="3.8275364041328430e-01" purity="2.9332634806632996e-01" nType="0">
            <Node pos="l" depth="3" NCoef="0" IVar="-1" Cut="0.0000000000000000e+00" cType="1" res="1.4091689139604568e-02" rms="4.0747892856597900e-01" purity="4.0669268369674683e-01" nType="-99"/>
            <Node pos="r" depth="3" NCoef="0" IVar="-1" Cut="0.0000000000000000e+00" cType="1" res="-1.2201427482068539e-02" rms="3.7239569425582886e-01" purity="2.5901070237159729e-01" nType="-99"/>
          </Node>
          <Node pos="r" depth="2" NCoef="0" IVar="14" Cut="-3.3694756031036377e-01" cType="1" res="-5.6990738958120346e-02" rms="1.5201000869274139e-01" purity="2.4339329451322556e-02" nType="0">
            <Node pos="l" depth="3" NCoef="0" IVar="-1" Cut="0.0000000000000000e+00" cType="1" res="8.1063926219940186e-02" rms="3.7365144491195679e-01" purity="6.8617022037506104e-01" nType="-99"/>
            <Node pos="r" depth="3" NCoef="0" IVar="-1" Cut="0.0000000000000000e+00" cType="1" res="-3.8519993424415588e-02" rms="1.5126456320285797e-01" purity="2.3782681673765182e-02" nType="-99"/>
          </Node>
        </Node>
      </Node>
    </BinaryTree>
    <BinaryTree type="DecisionTree" boostWeight="1.0000000000000000e+00" itree="22">
      <Node pos="s" depth="0" NCoef="0" IVar="15" Cut="6.0727089643478394e-01" cType="0" res="-4.3640609830617905e-02" rms="1.9233803451061249e-01" purity="8.5985988378524780e-02" nType="0">
        <Node pos="l" depth="1" NCoef="0" IVar="0" Cut="1.5189309120178223e+00" cType="0" res="6.9229245185852051e-02" rms="2.2442007064819336e-01" purity="9.1833919286727905e-01" nType="0">
          <Node pos="l" depth="2" NCoef="0" IVar="0" Cut="3.0458033084869385e+00" cType="0" res="7.4652820825576782e-02" rms="2.0667390525341034e-01" purity="9.3566280603408813e-01" nType="0">
            <Node pos="l" depth="3" NCoef="0" IVar="-1" Cut="0.0000000000000000e+00" cType="1" res="4.4771939516067505e-02" rms="1.4132067561149597e-01" purity="9.6964561939239502e-01" nType="-99"/>
            <Node pos="r" depth="3" NCoef="0" IVar="-1" Cut="0.0000000000000000e+00" cType="1" res="1.3400538824498653e-02" rms="3.5306337475776672e-01" purity="8.1107658147811890e-01" nType="-99"/>
          </Node>
          <Node pos="r" depth="2" NCoef="0" IVar="14" Cut="-9.3345338106155396e-01" cType="1" res="-5.2396457642316818e-02" rms="4.5439189672470093e-01" purity="5.2985072135925293e-01" nType="0">
            <Node pos="l" depth="3" NCoef="0" IVar="-1" Cut="0.0000000000000000e+00" cType="1" res="1.3276268728077412e-02" rms="4.1410285234451294e-01" purity="7.5657892227172852e-01" nType="-99"/>
            <Node pos="r" depth="3" NCoef="0" IVar="-1" Cut="0.0000000000000000e+00" cType="1" res="-2.5768039748072624e-02" rms="4.6552833914756775e-01" purity="3.9199998974800110e-01" nType="-99"/>
          </Node>
        </Node>
        <Node pos="r" depth="1" NCoef="0" IVar="6" Cut="4.7758338928222656e+01" cType="0" res="-4.7922715544700623e-02" rms="1.8969714641571045e-01" purity="5.4407820105552673e-02" nType="0">
          <Node pos="l" depth="2" NCoef="0" IVar="21" Cut="-6.7860374450683594e+00" cType="0" res="2.9677709564566612e-02" rms="3.9067700505256653e-01" purity="6.6310888528823853e-01" nType="0">
            <Node pos="l" depth="3" NCoef="0" IVar="-1" Cut="0.0000000000000000e+00" cType="1" res="2.1662332117557526e-02" rms="3.6599647998809814e-01" purity="7.4133950471878052e-01" nType="-99"/>
            <Node pos="r" depth="3" NCoef="0" IVar="-1" Cut="0.0000000000000000e+00" cType="1" res="-1.1108865961432457e-02" rms="4.1317671537399292e-01" purity="5.5136662721633911e-01" nType="-99"/>
          </Node>
          <Node pos="r" depth="2" NCoef="0" IVar="21" Cut="9.7922331094741821e-01" cType="0" res="-4.9567848443984985e-02" rms="1.8270683288574219e-01" purity="4.1503302752971649e-02" nType="0">
            <Node pos="l" depth="3" NCoef="0" IVar="-1" Cut="0.0000000000000000e+00" cType="1" res="-7.7546718530356884e-03" rms="2.5357434153556824e-01" purity="8.5420213639736176e-02" nType="-99"/>
            <Node pos="r" depth="3" NCoef="0" IVar="-1" Cut="0.0000000000000000e+00" cType="1" res="-3.3144090324640274e-02" rms="1.7790858447551727e-01" purity="3.9154667407274246e-02" nType="-99"/>
          </Node>
        </Node>
      </Node>
    </BinaryTree>
    <BinaryTree type="DecisionTree" boostWeight="1.0000000000000000e+00" itree="23">
      <Node pos="s" depth="0" NCoef="0" IVar="15" Cut="2.0924901962280273e-01" cType="0" res="-3.9385065436363220e-02" rms="1.9205945730209351e-01" purity="8.5985988378524780e-02" nType="0">
        <Node pos="l" depth="1" NCoef="0" IVar="14" Cut="1.1143491268157959e+00" cType="1" res="2.6052212342619896e-02" rms="3.3663588762283325e-01" purity="6.0935485363006592e-01" nType="0">
          <Node pos="l" depth="2" NCoef="0" IVar="9" Cut="3.2879409193992615e-01" cType="1" res="5.6819729506969452e-02" rms="3.2656478881835938e-01" purity="7.9385876655578613e-01" nType="0">
            <Node pos="l" depth="3" NCoef="0" IVar="-1" Cut="0.0000000000000000e+00" cType="1" res="1.4445523917675018e-01" rms="2.3408575356006622e-01" purity="1.0000000000000000e+00" nType="-99"/>
            <Node pos="r" depth="3" NCoef="0" IVar="-1" Cut="0.0000000000000000e+00" cType="1" res="1.5705130994319916e-02" rms="3.1864637136459351e-01" purity="7.8866463899612427e-01" nType="-99"/>
          </Node>
          <Node pos="r" depth="2" NCoef="0" IVar="10" Cut="3.1931505203247070e+00" cType="0" res="-3.3363994210958481e-02" rms="3.4765455126762390e-01" purity="2.5305300951004028e-01" nType="0">
            <Node pos="l" depth="3" NCoef="0" IVar="-1" Cut="0.0000000000000000e+00" cType="1" res="6.6501665860414505e-03" rms="4.0205058455467224e-01" purity="5.1842004060745239e-01" nType="-99"/>
            <Node pos="r" depth="3" NCoef="0" IVar="-1" Cut="0.0000000000000000e+00" cType="1" res="-2.1452603861689568e-02" rms="3.1332460045814514e-01" purity="1.2146892398595810e-01" nType="-99"/>
          </Node>
        </Node>
        <Node pos="r" depth="1" NCoef="0" IVar="11" Cut="-5.5995009839534760e-02" cType="1" res="-4.5885987579822540e-02" rms="1.6978068649768829e-01" purity="3.3991456031799316e-02" nType="0">
          <Node pos="l" depth="2" NCoef="0" IVar="14" Cut="9.4831049442291260e-01" cType="1" res="-2.7710730209946632e-02" rms="2.6324212551116943e-01" purity="9.4818972051143646e-02" nType="0">
            <Node pos="l" depth="3" NCoef="0" IVar="-1" Cut="0.0000000000000000e+00" cType="1" res="2.2692466154694557e-02" rms="3.9005392789840698e-01" purity="2.5599545240402222e-01" nType="-99"/>
            <Node pos="r" depth="3" NCoef="0" IVar="-1" Cut="0.0000000000000000e+00" cType="1" res="-3.0023206025362015e-02" rms="2.0518980920314789e-01" purity="4.7434292733669281e-02" nType="-99"/>
          </Node>
          <Node pos="r" depth="2" NCoef="0" IVar="21" Cut="-7.9388236999511719e-01" cType="0" res="-4.8658452928066254e-02" rms="1.5031281113624573e-01" purity="2.4712789803743362e-02" nType="0">
            <Node pos="l" depth="3" NCoef="0" IVar="-1" Cut="0.0000000000000000e+00" cType="1" res="-2.6865389198064804e-02" rms="1.8636523187160492e-01" purity="3.8141105324029922e-02" nType="-99"/>
            <Node pos="r" depth="3" NCoef="0" IVar="-1" Cut="0.0000000000000000e+00" cType="1" res="-3.8719471544027328e-02" rms="1.4117865264415741e-01" purity="2.1811287850141525e-02" nType="-99"/>
          </Node>
        </Node>
      </Node>
    </BinaryTree>
    <BinaryTree type="DecisionTree" boostWeight="1.0000000000000000e+00" itree="24">
      <Node pos="s" depth="0" NCoef="0" IVar="12" Cut="1.3628947734832764e+00" cType="0" res="-3.5578228533267975e-02" rms="1.9141162931919098e-01" purity="8.5985988378524780e-02" nType="0">
        <Node pos="l" depth="1" NCoef="0" IVar="0" Cut="9.3700951337814331e-01" cType="0" res="2.0103087648749352e-02" rms="3.5964339971542358e-01" purity="5.9649658203125000e-01" nType="0">
          <Node pos="l" depth="2" NCoef="0" IVar="21" Cut="-4.0445585250854492e+00" cType="0" res="4.9085874110460281e-02" rms="3.2425194978713989e-01" purity="7.8423136472702026e-01" nType="0">
            <Node pos="l" depth="3" NCoef="0" IVar="-1" Cut="0.0000000000000000e+00" cType="1" res="3.3385660499334335e-02" rms="2.9017549753189087e-01" purity="8.5333502292633057e-01" nType="-99"/>
            <Node pos="r" depth="3" NCoef="0" IVar="-1" Cut="0.0000000000000000e+00" cType="1" res="4.7921789810061455e-03" rms="3.4674793481826782e-01" purity="7.2552239894866943e-01" nType="-99"/>
          </Node>
          <Node pos="r" depth="2" NCoef="0" IVar="21" Cut="1.0823419094085693e+00" cType="0" res="-3.2934244722127914e-02" rms="4.1144344210624695e-01" purity="2.5294944643974304e-01" nType="0">
            <Node pos="l" depth="3" NCoef="0" IVar="-1" Cut="0.0000000000000000e+00" cType="1" res="2.7504282072186470e-02" rms="4.7414308786392212e-01" purity="4.5751634240150452e-01" nType="-99"/>
            <Node pos="r" depth="3" NCoef="0" IVar="-1" Cut="0.0000000000000000e+00" cType="1" res="-1.0787829756736755e-02" rms="4.0641143918037415e-01" purity="2.4225512146949768e-01" nType="-99"/>
          </Node>
        </Node>
        <Node pos="r" depth="1" NCoef="0" IVar="14" Cut="-1.2534013949334621e-03" cType="1" res="-4.1867267340421677e-02" rms="1.6055506467819214e-01" purity="2.8325319290161133e-02" nType="0">
          <Node pos="l" depth="2" NCoef="0" IVar="9" Cut="8.9088326692581177e-01" cType="1" res="9.8744615912437439e-02" rms="3.7844800949096680e-01" purity="4.0302744507789612e-01" nType="0">
            <Node pos="l" depth="3" NCoef="0" IVar="-1" Cut="0.0000000000000000e+00" cType="1" res="8.8218569755554199e-02" rms="3.1401696801185608e-01" purity="8.6480188369750977e-01" nType="-99"/>
            <Node pos="r" depth="3" NCoef="0" IVar="-1" Cut="0.0000000000000000e+00" cType="1" res="-3.4456476569175720e-02" rms="2.7328434586524963e-01" purity="8.7579615414142609e-02" nType="-99"/>
          </Node>
          <Node pos="r" depth="2" NCoef="0" IVar="21" Cut="9.4512510299682617e-01" cType="0" res="-4.2512260377407074e-02" rms="1.5858151018619537e-01" purity="2.6606548577547073e-02" nType="0">
            <Node pos="l" depth="3" NCoef="0" IVar="-1" Cut="0.0000000000000000e+00" cType="1" res="-1.2026839889585972e-02" rms="2.3200356960296631e-01" purity="5.9923853725194931e-02" nType="-99"/>
            <Node pos="r" depth="3" NCoef="0" IVar="-1" Cut="0.0000000000000000e+00" cType="1" res="-3.4515473991632462e-02" rms="1.5337172150611877e-01" purity="2.4762995541095734e-02" nType="-99"/>
          </Node>
        </Node>
      </Node>
    </BinaryTree>
    <BinaryTree type="DecisionTree" boostWeight="1.0000000000000000e+00" itree="25">
      <Node pos="s" depth="0" NCoef="0" IVar="6" Cut="3.7921600341796875e+01" cType="0" res="-3.2127469778060913e-02" rms="1.9094677269458771e-01" purity="8.5985988378524780e-02" nType="0">
        <Node pos="l" depth="1" NCoef="0" IVar="17" Cut="1.2647525787353516e+01" cType="1" res="4.5467656105756760e-02" rms="2.8834420442581177e-01" purity="8.1262153387069702e-01" nType="0">
          <Node pos="l" depth="2" NCoef="0" IVar="11" Cut="5.4341669082641602e+00" cType="1" res="5.4998654872179031e-02" rms="2.7993243932723999e-01" purity="8.3755290508270264e-01" nType="0">
            <Node pos="l" depth="3" NCoef="0" IVar="-1" Cut="0.0000000000000000e+00" cType="1" res="2.7241952717304230e-02" rms="2.6100000739097595e-01" purity="8.7578177452087402e-01" nType="-99"/>
            <Node pos="r" depth="3" NCoef="0" IVar="-1" Cut="0.0000000000000000e+00" cType="1" res="-1.0084994137287140e-02" rms="3.9881631731987000e-01" purity="5.0084745883941650e-01" nType="-99"/>
          </Node>
          <Node pos="r" depth="2" NCoef="0" IVar="15" Cut="1.7984828948974609e+00" cType="0" res="-9.7596205770969391e-02" rms="3.6477982997894287e-01" purity="4.3839168548583984e-01" nType="0">
            <Node pos="l" depth="3" NCoef="0" IVar="-1" Cut="0.0000000000000000e+00" cType="1" res="5.5797886103391647e-02" rms="8.2450583577156067e-03" purity="1.0000000000000000e+00" nType="-99"/>
            <Node pos="r" depth="3" NCoef="0" IVar="-1" Cut="0.0000000000000000e+00" cType="1" res="-4.4399160891771317e-02" rms="3.8333797454833984e-01" purity="3.4789156913757324e-01" nType="-99"/>
          </Node>
        </Node>
        <Node pos="r" depth="1" NCoef="0" IVar="12" Cut="4.5051936060190201e-02" cType="0" res="-3.6032360047101974e-02" rms="1.8382930755615234e-01" purity="4.9418851733207703e-02" nType="0">
          <Node pos="l" depth="2" NCoef="0" IVar="14" Cut="1.1632844209671021e+00" cType="1" res="-1.1164773255586624e-02" rms="3.4614565968513489e-01" purity="2.3793645203113556e-01" nType="0">
            <Node pos="l" depth="3" NCoef="0" IVar="-1" Cut="0.0000000000000000e+00" cType="1" res="1.1658404022455215e-02" rms="4.2811292409896851e-01" purity="4.4794255495071411e-01" nType="-99"/>
            <Node pos="r" depth="3" NCoef="0" IVar="-1" Cut="0.0000000000000000e+00" cType="1" res="-1.6757791861891747e-02" rms="2.8749394416809082e-01" purity="1.2228136509656906e-01" nType="-99"/>
          </Node>
          <Node pos="r" depth="2" NCoef="0" IVar="14" Cut="-2.2083374857902527e-01" cType="1" res="-3.9575159549713135e-02" rms="1.4641404151916504e-01" purity="2.2561399266123772e-02" nType="0">
            <Node pos="l" depth="3" NCoef="0" IVar="-1" Cut="0.0000000000000000e+00" cType="1" res="3.9475560188293457e-02" rms="3.6824497580528259e-01" purity="4.2821159958839417e-01" nType="-99"/>
            <Node pos="r" depth="3" NCoef="0" IVar="-1" Cut="0.0000000000000000e+00" cType="1" res="-3.4489788115024567e-02" rms="1.4548690617084503e-01" purity="2.1809935569763184e-02" nType="-99"/>
          </Node>
        </Node>
      </Node>
    </BinaryTree>
    <BinaryTree type="DecisionTree" boostWeight="1.0000000000000000e+00" itree="26">
      <Node pos="s" depth="0" NCoef="0" IVar="15" Cut="6.5503346920013428e-01" cType="0" res="-2.9013488441705704e-02" rms="1.9061540067195892e-01" purity="8.5985988378524780e-02" nType="0">
        <Node pos="l" depth="1" NCoef="0" IVar="0" Cut="3.0478472709655762e+00" cType="0" res="5.6230720132589340e-02" rms="2.1038541197776794e-01" purity="9.3175172805786133e-01" nType="0">
          <Node pos="l" depth="2" NCoef="0" IVar="9" Cut="1.8071392178535461e-01" cType="0" res="6.8288177251815796e-02" rms="1.3519914448261261e-01" purity="9.7304308414459229e-01" nType="0">
            <Node pos="l" depth="3" NCoef="0" IVar="-1" Cut="0.0000000000000000e+00" cType="1" res="4.2386844754219055e-02" rms="1.2930929660797119e-01" purity="9.7582417726516724e-01" nType="-99"/>
            <Node pos="r" depth="3" NCoef="0" IVar="-1" Cut="0.0000000000000000e+00" cType="1" res="5.1183354109525681e-02" rms="3.1081596016883850e-01" purity="8.0357140302658081e-01" nType="-99"/>
          </Node>
          <Node pos="r" depth="2" NCoef="0" IVar="21" Cut="-8.3003985881805420e-01" cType="0" res="1.3490516692399979e-02" rms="3.6609145998954773e-01" purity="7.8538578748703003e-01" nType="0">
            <Node pos="l" depth="3" NCoef="0" IVar="-1" Cut="0.0000000000000000e+00" cType="1" res="2.6174990460276604e-02" rms="3.2553809881210327e-01" purity="8.3737021684646606e-01" nType="-99"/>
            <Node pos="r" depth="3" NCoef="0" IVar="-1" Cut="0.0000000000000000e+00" cType="1" res="-4.6440903097391129e-03" rms="3.7845477461814880e-01" purity="7.6359683275222778e-01" nType="-99"/>
          </Node>
        </Node>
        <Node pos="r" depth="1" NCoef="0" IVar="15" Cut="6.1677958816289902e-02" cType="0" res="-3.2061487436294556e-02" rms="1.8916039168834686e-01" purity="5.5744729936122894e-02" nType="0">
          <Node pos="l" depth="2" NCoef="0" IVar="14" Cut="1.1576206684112549e+00" cType="1" res="-8.3128623664379120e-03" rms="3.4881395101547241e-01" purity="2.5853756070137024e-01" nType="0">
            <Node pos="l" depth="3" NCoef="0" IVar="-1" Cut="0.0000000000000000e+00" cType="1" res="1.0518169030547142e-02" rms="4.3575420975685120e-01" purity="5.0245594978332520e-01" nType="-99"/>
            <Node pos="r" depth="3" NCoef="0" IVar="-1" Cut="0.0000000000000000e+00" cType="1" res="-1.8017768859863281e-02" rms="2.7261039614677429e-01" purity="9.7752593457698822e-02" nType="-99"/>
          </Node>
          <Node pos="r" depth="2" NCoef="0" IVar="9" Cut="9.8722368478775024e-01" cType="0" res="-3.5930417478084564e-02" rms="1.4724943041801453e-01" purity="2.2707402706146240e-02" nType="0">
            <Node pos="l" depth="3" NCoef="0" IVar="-1" Cut="0.0000000000000000e+00" cType="1" res="-3.6443296819925308e-02" rms="2.8285339474678040e-01" purity="9.7995541989803314e-02" nType="-99"/>
            <Node pos="r" depth="3" NCoef="0" IVar="-1" Cut="0.0000000000000000e+00" cType="1" res="-3.2676920294761658e-02" rms="1.4631919562816620e-01" purity="2.2389987483620644e-02" nType="-99"/>
          </Node>
        </Node>
      </Node>
    </BinaryTree>
    <BinaryTree type="DecisionTree" boostWeight="1.0000000000000000e+00" itree="27">
      <Node pos="s" depth="0" NCoef="0" IVar="15" Cut="6.8687522411346436e-01" cType="0" res="-2.6194237172603607e-02" rms="1.9037471711635590e-01" purity="8.5985988378524780e-02" nType="0">
        <Node pos="l" depth="1" NCoef="0" IVar="0" Cut="3.0478472709655762e+00" cType="0" res="5.2344579249620438e-02" rms="2.0273916423320770e-01" purity="9.3858724832534790e-01" nType="0">
          <Node pos="l" depth="2" NCoef="0" IVar="9" Cut="2.4863667786121368e-01" cType="0" res="6.1942368745803833e-02" rms="1.3400644063949585e-01" purity="9.7442269325256348e-01" nType="0">
            <Node pos="l" depth="3" NCoef="0" IVar="-1" Cut="0.0000000000000000e+00" cType="1" res="4.1189130395650864e-02" rms="1.2807330489158630e-01" purity="9.7746396064758301e-01" nType="-99"/>
            <Node pos="r" depth="3" NCoef="0" IVar="-1" Cut="0.0000000000000000e+00" cType="1" res="4.7265905886888504e-02" rms="2.5532260537147522e-01" purity="8.6559140682220459e-01" nType="-99"/>
          </Node>
          <Node pos="r" depth="2" NCoef="0" IVar="19" Cut="2.1670587062835693e+00" cType="1" res="1.4231938868761063e-02" rms="3.6220839619636536e-01" purity="7.9628556966781616e-01" nType="0">
            <Node pos="l" depth="3" NCoef="0" IVar="-1" Cut="0.0000000000000000e+00" cType="1" res="9.8414765670895576e-03" rms="3.5111004114151001e-01" purity="8.0347591638565063e-01" nType="-99"/>
            <Node pos="r" depth="3" NCoef="0" IVar="-1" Cut="0.0000000000000000e+00" cType="1" res="-3.3490817993879318e-02" rms="4.1432154178619385e-01" purity="7.4889868497848511e-01" nType="-99"/>
          </Node>
        </Node>
        <Node pos="r" depth="1" NCoef="0" IVar="15" Cut="6.1671629548072815e-02" cType="0" res="-2.8895024210214615e-02" rms="1.8935674428939819e-01" purity="5.6666798889636993e-02" nType="0">
          <Node pos="l" depth="2" NCoef="0" IVar="14" Cut="1.1576206684112549e+00" cType="1" res="-7.3482482694089413e-03" rms="3.4851306676864624e-01" purity="2.6316237449645996e-01" nType="0">
            <Node pos="l" depth="3" NCoef="0" IVar="-1" Cut="0.0000000000000000e+00" cType="1" res="9.4826491549611092e-03" rms="4.3403914570808411e-01" purity="5.0879430770874023e-01" nType="-99"/>
            <Node pos="r" depth="3" NCoef="0" IVar="-1" Cut="0.0000000000000000e+00" cType="1" res="-1.6627300530672073e-02" rms="2.7335914969444275e-01" purity="9.8832793533802032e-02" nType="-99"/>
          </Node>
          <Node pos="r" depth="2" NCoef="0" IVar="9" Cut="9.8722368478775024e-01" cType="0" res="-3.2438505440950394e-02" rms="1.4727121591567993e-01" purity="2.2707508876919746e-02" nType="0">
            <Node pos="l" depth="3" NCoef="0" IVar="-1" Cut="0.0000000000000000e+00" cType="1" res="-3.4157350659370422e-02" rms="2.8280001878738403e-01" purity="9.7995541989803314e-02" nType="-99"/>
            <Node pos="r" depth="3" NCoef="0" IVar="-1" Cut="0.0000000000000000e+00" cType="1" res="-3.1257107853889465e-02" rms="1.4635905623435974e-01" purity="2.2390091791749001e-02" nType="-99"/>
          </Node>
        </Node>
      </Node>
    </BinaryTree>
    <BinaryTree type="DecisionTree" boostWeight="1.0000000000000000e+00" itree="28">
      <Node pos="s" depth="0" NCoef="0" IVar="15" Cut="6.8687522411346436e-01" cType="0" res="-2.3645989596843719e-02" rms="1.9018907845020294e-01" purity="8.5985988378524780e-02" nType="0">
        <Node pos="l" depth="1" NCoef="0" IVar="0" Cut="3.0478472709655762e+00" cType="0" res="4.7270663082599640e-02" rms="2.0248383283615112e-01" purity="9.3858724832534790e-01" nType="0">
          <Node pos="l" depth="2" NCoef="0" IVar="9" Cut="2.4863667786121368e-01" cType="0" res="5.5940337479114532e-02" rms="1.3410854339599609e-01" purity="9.7442269325256348e-01" nType="0">
            <Node pos="l" depth="3" NCoef="0" IVar="-1" Cut="0.0000000000000000e+00" cType="1" res="3.9743062108755112e-02" rms="1.2841068208217621e-01" purity="9.7746396064758301e-01" nType="-99"/>
            <Node pos="r" depth="3" NCoef="0" IVar="-1" Cut="0.0000000000000000e+00" cType="1" res="4.3855860829353333e-02" rms="2.5435110926628113e-01" purity="8.6559140682220459e-01" nType="-99"/>
          </Node>
          <Node pos="r" depth="2" NCoef="0" IVar="14" Cut="6.9582521915435791e-02" cType="1" res="1.2843553908169270e-02" rms="3.6181008815765381e-01" purity="7.9628556966781616e-01" nType="0">
            <Node pos="l" depth="3" NCoef="0" IVar="-1" Cut="0.0000000000000000e+00" cType="1" res="1.5855677425861359e-02" rms="3.0325025320053101e-01" purity="8.8691008090972900e-01" nType="-99"/>
            <Node pos="r" depth="3" NCoef="0" IVar="-1" Cut="0.0000000000000000e+00" cType="1" res="-9.7560379654169083e-03" rms="4.4722074270248413e-01" purity="6.2666666507720947e-01" nType="-99"/>
          </Node>
        </Node>
        <Node pos="r" depth="1" NCoef="0" IVar="11" Cut="-4.5571018010377884e-02" cType="1" res="-2.6084667071700096e-02" rms="1.8928015232086182e-01" purity="5.6666798889636993e-02" nType="0">
          <Node pos="l" depth="2" NCoef="0" IVar="14" Cut="9.4259381294250488e-01" cType="1" res="-8.7444819509983063e-03" rms="3.0417481064796448e-01" purity="1.8410974740982056e-01" nType="0">
            <Node pos="l" depth="3" NCoef="0" IVar="-1" Cut="0.0000000000000000e+00" cType="1" res="1.4441208913922310e-02" rms="4.0478268265724182e-01" purity="4.3264129757881165e-01" nType="-99"/>
            <Node pos="r" depth="3" NCoef="0" IVar="-1" Cut="0.0000000000000000e+00" cType="1" res="-1.7591182142496109e-02" rms="2.4615183472633362e-01" purity="7.8957490622997284e-02" nType="-99"/>
          </Node>
          <Node pos="r" depth="2" NCoef="0" IVar="21" Cut="-8.6207872629165649e-01" cType="0" res="-2.9845526441931725e-02" rms="1.5313763916492462e-01" purity="2.9026079922914505e-02" nType="0">
            <Node pos="l" depth="3" NCoef="0" IVar="-1" Cut="0.0000000000000000e+00" cType="1" res="-1.7472939565777779e-02" rms="1.8689486384391785e-01" purity="4.2404148727655411e-02" nType="-99"/>
            <Node pos="r" depth="3" NCoef="0" IVar="-1" Cut="0.0000000000000000e+00" cType="1" res="-3.2205343246459961e-02" rms="1.4439170062541962e-01" purity="2.6034817099571228e-02" nType="-99"/>
          </Node>
        </Node>
      </Node>
    </BinaryTree>
    <BinaryTree type="DecisionTree" boostWeight="1.0000000000000000e+00" itree="29">
      <Node pos="s" depth="0" NCoef="0" IVar="6" Cut="5.1724769592285156e+01" cType="0" res="-2.1341769024729729e-02" rms="1.8996518850326538e-01" purity="8.5985988378524780e-02" nType="0">
        <Node pos="l" depth="1" NCoef="0" IVar="17" Cut="1.4390295028686523e+01" cType="1" res="3.8562044501304626e-02" rms="2.7114993333816528e-01" purity="8.4287500381469727e-01" nType="0">
          <Node pos="l" depth="2" NCoef="0" IVar="0" Cut="7.1896922588348389e-01" cType="0" res="4.5602761209011078e-02" rms="2.6327738165855408e-01" purity="8.5997581481933594e-01" nType="0">
            <Node pos="l" depth="3" NCoef="0" IVar="-1" Cut="0.0000000000000000e+00" cType="1" res="2.7036847546696663e-02" rms="2.3392708599567413e-01" purity="9.1060155630111694e-01" nType="-99"/>
            <Node pos="r" depth="3" NCoef="0" IVar="-1" Cut="0.0000000000000000e+00" cType="1" res="-8.4072053432464600e-03" rms="4.5486074686050415e-01" purity="3.5611906647682190e-01" nType="-99"/>
          </Node>
