<?xml version="1.0"?>
<MethodSetup Method="BDT::PUDisc_v1">
  <GeneralInfo>
    <Info name="TMVA Release" value="4.1.4 [262404]"/>
    <Info name="ROOT Release" value="5.34/05 [336389]"/>
    <Info name="Creator" value="Phil"/>
    <Info name="Date" value="Fri Feb  7 17:00:09 2014"/>
    <Info name="Host" value="Darwin pb-d-128-141-154-76.cern.ch 12.2.1 Darwin Kernel Version 12.2.1: Thu Oct 18 16:32:48 PDT 2012; root:xnu-2050.20.9~2/RELEASE_X86_64 x86_64"/>
    <Info name="Dir" value="/Users/Phil/Physics/JWJ/ProjectPUPPI-master/ana/TMVA"/>
    <Info name="Training events" value="257635"/>
    <Info name="TrainingTime" value="6.62602862e+02"/>
    <Info name="AnalysisType" value="Classification"/>
  </GeneralInfo>
  <Options>
    <Option name="V" modified="Yes">False</Option>
    <Option name="VerbosityLevel" modified="No">Default</Option>
    <Option name="VarTransform" modified="No">None</Option>
    <Option name="H" modified="Yes">False</Option>
    <Option name="CreateMVAPdfs" modified="No">False</Option>
    <Option name="IgnoreNegWeightsInTraining" modified="No">False</Option>
    <Option name="NTrees" modified="Yes">1000</Option>
    <Option name="RenormByClass" modified="No">False</Option>
    <Option name="BoostType" modified="Yes">Grad</Option>
    <Option name="AdaBoostR2Loss" modified="No">quadratic</Option>
    <Option name="UseBaggedGrad" modified="Yes">False</Option>
    <Option name="GradBaggingFraction" modified="No">6.000000e-01</Option>
    <Option name="Shrinkage" modified="Yes">3.000000e-01</Option>
    <Option name="AdaBoostBeta" modified="No">1.000000e+00</Option>
    <Option name="UseRandomisedTrees" modified="No">False</Option>
    <Option name="UseNvars" modified="No">2</Option>
    <Option name="UsePoissonNvars" modified="No">True</Option>
    <Option name="UseNTrainEvents" modified="No">257635</Option>
    <Option name="UseWeightedTrees" modified="No">True</Option>
    <Option name="UseYesNoLeaf" modified="No">True</Option>
    <Option name="NodePurityLimit" modified="No">5.000000e-01</Option>
    <Option name="SeparationType" modified="Yes">giniindex</Option>
    <Option name="nEventsMin" modified="No">2862</Option>
    <Option name="nCuts" modified="Yes">2000</Option>
    <Option name="UseFisherCuts" modified="No">False</Option>
    <Option name="MinLinCorrForFisher" modified="No">8.000000e-01</Option>
    <Option name="UseExclusiveVars" modified="No">False</Option>
    <Option name="PruneStrength" modified="No">0.000000e+00</Option>
    <Option name="PruneMethod" modified="No">nopruning</Option>
    <Option name="PruneBeforeBoost" modified="No">False</Option>
    <Option name="PruningValFraction" modified="No">5.000000e-01</Option>
    <Option name="NNodesMax" modified="Yes">10000</Option>
    <Option name="MaxDepth" modified="Yes">5</Option>
    <Option name="DoBoostMonitor" modified="No">False</Option>
    <Option name="NegWeightTreatment" modified="No">ignorenegweights</Option>
  </Options>
  <Variables NVar="3">
    <Variable VarIndex="0" Expression="pt" Label="pt" Title="pt" Unit="" Internal="pt" Type="F" Min="5.00000954e-01" Max="4.37696899e+02"/>
    <Variable VarIndex="1" Expression="ptodR" Label="ptodR" Title="ptodR" Unit="" Internal="ptodR" Type="F" Min="-4.47387581e+01" Max="2.72734131e+02"/>
    <Variable VarIndex="2" Expression="ptodRSO" Label="ptodRSO" Title="ptodRSO" Unit="" Internal="ptodRSO" Type="F" Min="-1.00489836e+01" Max="5.51948776e+01"/>
  </Variables>
  <Spectators NSpec="0"/>
  <Classes NClass="2">
    <Class Name="Signal" Index="0"/>
    <Class Name="Background" Index="1"/>
  </Classes>
  <Transformations NTransformations="0"/>
  <MVAPdfs/>
  <Weights NTrees="1000" AnalysisType="1">
    <BinaryTree type="DecisionTree" boostWeight="1.0000000000000000e+00" itree="0">
      <Node pos="s" depth="0" NCoef="0" IVar="1" Cut="3.0782028198242188e+01" cType="0" res="-4.1401401162147522e-01" rms="2.8034335374832153e-01" purity="8.5985988378524780e-02" nType="0">
        <Node pos="l" depth="1" NCoef="0" IVar="0" Cut="1.3739879131317139e+00" cType="0" res="2.7649018168449402e-01" rms="4.1659712791442871e-01" purity="7.7649021148681641e-01" nType="0">
          <Node pos="l" depth="2" NCoef="0" IVar="0" Cut="3.1188187599182129e+00" cType="0" res="4.1743788123130798e-01" rms="2.7521923184394836e-01" purity="9.1743785142898560e-01" nType="0">
            <Node pos="l" depth="3" NCoef="0" IVar="0" Cut="7.6810531616210938e+00" cType="0" res="4.6501502394676208e-01" rms="1.8374176323413849e-01" purity="9.6501499414443970e-01" nType="0">
              <Node pos="l" depth="4" NCoef="0" IVar="-1" Cut="0.0000000000000000e+00" cType="1" res="2.9439869523048401e-01" rms="9.6168488264083862e-02" purity="9.9066448211669922e-01" nType="-99"/>
              <Node pos="r" depth="4" NCoef="0" IVar="-1" Cut="0.0000000000000000e+00" cType="1" res="2.6043736934661865e-01" rms="2.4817317724227905e-01" purity="9.3406230211257935e-01" nType="-99"/>
            </Node>
            <Node pos="r" depth="3" NCoef="0" IVar="-1" Cut="0.0000000000000000e+00" cType="1" res="1.8616841733455658e-01" rms="3.9207893610000610e-01" purity="8.1028068065643311e-01" nType="-99"/>
          </Node>
          <Node pos="r" depth="2" NCoef="0" IVar="-1" Cut="0.0000000000000000e+00" cType="1" res="-2.8210023418068886e-02" rms="4.9778452515602112e-01" purity="4.5298328995704651e-01" nType="-99"/>
        </Node>
        <Node pos="r" depth="1" NCoef="0" IVar="1" Cut="1.8924936294555664e+01" cType="0" res="-4.5311447978019714e-01" rms="2.1139360964298248e-01" purity="4.6885509043931961e-02" nType="0">
          <Node pos="l" depth="2" NCoef="0" IVar="0" Cut="1.2867789268493652e+00" cType="0" res="-2.5221893191337585e-01" rms="4.3172398209571838e-01" purity="2.4778106808662415e-01" nType="0">
            <Node pos="l" depth="3" NCoef="0" IVar="-1" Cut="0.0000000000000000e+00" cType="1" res="-7.3165617883205414e-02" rms="4.8490202426910400e-01" purity="3.7805730104446411e-01" nType="-99"/>
            <Node pos="r" depth="3" NCoef="0" IVar="-1" Cut="0.0000000000000000e+00" cType="1" res="-2.0872242748737335e-01" rms="3.5914617776870728e-01" purity="1.5212929248809814e-01" nType="-99"/>
          </Node>
          <Node pos="r" depth="2" NCoef="0" IVar="0" Cut="1.4323600530624390e+00" cType="0" res="-4.5884302258491516e-01" rms="1.9865314662456512e-01" purity="4.1156966239213943e-02" nType="0">
            <Node pos="l" depth="3" NCoef="0" IVar="1" Cut="5.8432922363281250e+00" cType="0" res="-4.1600432991981506e-01" rms="2.7738130092620850e-01" purity="8.3995662629604340e-02" nType="0">
              <Node pos="l" depth="4" NCoef="0" IVar="0" Cut="2.9092304706573486e+00" cType="0" res="-3.7349727749824524e-01" rms="3.3241507411003113e-01" purity="1.2650270760059357e-01" nType="0">
                <Node pos="l" depth="5" NCoef="0" IVar="-1" Cut="0.0000000000000000e+00" cType="1" res="-1.9038659334182739e-01" rms="3.8641136884689331e-01" purity="1.8268901109695435e-01" nType="-99"/>
                <Node pos="r" depth="5" NCoef="0" IVar="-1" Cut="0.0000000000000000e+00" cType="1" res="-2.3414932191371918e-01" rms="3.1257930397987366e-01" purity="1.0975112020969391e-01" nType="-99"/>
              </Node>
              <Node pos="r" depth="4" NCoef="0" IVar="0" Cut="2.5770533084869385e+00" cType="0" res="-4.4240811467170715e-01" rms="2.3297007381916046e-01" purity="5.7591877877712250e-02" nType="0">
                <Node pos="l" depth="5" NCoef="0" IVar="-1" Cut="0.0000000000000000e+00" cType="1" res="-2.4821260571479797e-01" rms="2.8082469105720520e-01" purity="8.6312323808670044e-02" nType="-99"/>
                <Node pos="r" depth="5" NCoef="0" IVar="-1" Cut="0.0000000000000000e+00" cType="1" res="-2.6995751261711121e-01" rms="2.1809113025665283e-01" purity="5.0070825964212418e-02" nType="-99"/>
              </Node>
            </Node>
            <Node pos="r" depth="3" NCoef="0" IVar="1" Cut="8.3862352371215820e+00" cType="0" res="-4.6582323312759399e-01" rms="1.8168297410011292e-01" purity="3.4176755696535110e-02" nType="0">
              <Node pos="l" depth="4" NCoef="0" IVar="0" Cut="9.0998148918151855e-01" cType="0" res="-4.4181063771247864e-01" rms="2.3410114645957947e-01" purity="5.8189347386360168e-02" nType="0">
                <Node pos="l" depth="5" NCoef="0" IVar="-1" Cut="0.0000000000000000e+00" cType="1" res="-2.5174453854560852e-01" rms="2.7195122838020325e-01" purity="8.0425783991813660e-02" nType="-99"/>
                <Node pos="r" depth="5" NCoef="0" IVar="-1" Cut="0.0000000000000000e+00" cType="1" res="-2.7085441350936890e-01" rms="2.1497984230518341e-01" purity="4.8575956374406815e-02" nType="-99"/>
              </Node>
              <Node pos="r" depth="4" NCoef="0" IVar="0" Cut="8.5644960403442383e-01" cType="0" res="-4.6964854001998901e-01" rms="1.7155244946479797e-01" purity="3.0351456254720688e-02" nType="0">
                <Node pos="l" depth="5" NCoef="0" IVar="-1" Cut="0.0000000000000000e+00" cType="1" res="-2.7593675255775452e-01" rms="1.9620639085769653e-01" purity="4.0105391293764114e-02" nType="-99"/>
                <Node pos="r" depth="5" NCoef="0" IVar="-1" Cut="0.0000000000000000e+00" cType="1" res="-2.8409621119499207e-01" rms="1.6063532233238220e-01" purity="2.6506291702389717e-02" nType="-99"/>
              </Node>
            </Node>
          </Node>
        </Node>
      </Node>
    </BinaryTree>
    <BinaryTree type="DecisionTree" boostWeight="1.0000000000000000e+00" itree="1">
      <Node pos="s" depth="0" NCoef="0" IVar="1" Cut="3.5224430084228516e+01" cType="0" res="-2.9286110401153564e-01" rms="2.5055101513862610e-01" purity="8.5985988378524780e-02" nType="0">
        <Node pos="l" depth="1" NCoef="0" IVar="0" Cut="1.1554986238479614e+00" cType="0" res="2.1965380012989044e-01" rms="3.6682805418968201e-01" purity="8.0351835489273071e-01" nType="0">
          <Node pos="l" depth="2" NCoef="0" IVar="0" Cut="2.9017784595489502e+00" cType="0" res="3.0414742231369019e-01" rms="2.6306805014610291e-01" purity="9.1944646835327148e-01" nType="0">
            <Node pos="l" depth="3" NCoef="0" IVar="1" Cut="9.2052101135253906e+01" cType="0" res="3.3669847249984741e-01" rms="1.6646632552146912e-01" purity="9.7116392850875854e-01" nType="0">
              <Node pos="l" depth="4" NCoef="0" IVar="-1" Cut="0.0000000000000000e+00" cType="1" res="2.2616747021675110e-01" rms="1.2254908680915833e-01" purity="9.8459929227828979e-01" nType="-99"/>
              <Node pos="r" depth="4" NCoef="0" IVar="-1" Cut="0.0000000000000000e+00" cType="1" res="2.0684131979942322e-01" rms="2.1028903126716614e-01" purity="9.5317959785461426e-01" nType="-99"/>
            </Node>
            <Node pos="r" depth="3" NCoef="0" IVar="-1" Cut="0.0000000000000000e+00" cType="1" res="1.4273150265216827e-01" rms="3.9294523000717163e-01" purity="8.0367892980575562e-01" nType="-99"/>
          </Node>
          <Node pos="r" depth="2" NCoef="0" IVar="-1" Cut="0.0000000000000000e+00" cType="1" res="-2.6223760098218918e-02" rms="4.9665108323097229e-01" purity="4.4222721457481384e-01" nType="-99"/>
        </Node>
        <Node pos="r" depth="1" NCoef="0" IVar="1" Cut="2.0470794677734375e+01" cType="0" res="-3.1963342428207397e-01" rms="2.1115846931934357e-01" purity="4.8504155129194260e-02" nType="0">
          <Node pos="l" depth="2" NCoef="0" IVar="0" Cut="1.2039657831192017e+00" cType="0" res="-1.4377090334892273e-01" rms="4.4572088122367859e-01" purity="3.0223456025123596e-01" nType="0">
            <Node pos="l" depth="3" NCoef="0" IVar="-1" Cut="0.0000000000000000e+00" cType="1" res="-2.9659837484359741e-02" rms="4.8901063203811646e-01" purity="4.3605440855026245e-01" nType="-99"/>
            <Node pos="r" depth="3" NCoef="0" IVar="-1" Cut="0.0000000000000000e+00" cType="1" res="-1.4401718974113464e-01" rms="3.8130316138267517e-01" purity="1.7894077301025391e-01" nType="-99"/>
          </Node>
          <Node pos="r" depth="2" NCoef="0" IVar="0" Cut="2.0850112438201904e+00" cType="0" res="-3.2415017485618591e-01" rms="1.9953918457031250e-01" purity="4.1987482458353043e-02" nType="0">
            <Node pos="l" depth="3" NCoef="0" IVar="1" Cut="8.2993955612182617e+00" cType="0" res="-2.7264931797981262e-01" rms="3.1365776062011719e-01" purity="1.1243516206741333e-01" nType="0">
              <Node pos="l" depth="4" NCoef="0" IVar="-1" Cut="0.0000000000000000e+00" cType="1" res="-1.4182735979557037e-01" rms="3.7733459472656250e-01" purity="1.7353489995002747e-01" nType="-99"/>
              <Node pos="r" depth="4" NCoef="0" IVar="0" Cut="3.1006844043731689e+00" cType="0" res="-2.9623502492904663e-01" rms="2.7243801951408386e-01" purity="8.1169866025447845e-02" nType="0">
                <Node pos="l" depth="5" NCoef="0" IVar="-1" Cut="0.0000000000000000e+00" cType="1" res="-1.7263031005859375e-01" rms="3.1472045183181763e-01" purity="1.1189279705286026e-01" nType="-99"/>
                <Node pos="r" depth="5" NCoef="0" IVar="-1" Cut="0.0000000000000000e+00" cType="1" res="-1.9692564010620117e-01" rms="2.4968351423740387e-01" purity="6.6955983638763428e-02" nType="-99"/>
              </Node>
            </Node>
            <Node pos="r" depth="3" NCoef="0" IVar="1" Cut="1.0237512588500977e+01" cType="0" res="-3.2742360234260559e-01" rms="1.8951030075550079e-01" purity="3.7509802728891373e-02" nType="0">
              <Node pos="l" depth="4" NCoef="0" IVar="0" Cut="1.0487848520278931e+00" cType="0" res="-2.9915970563888550e-01" rms="2.6337969303131104e-01" purity="7.5643166899681091e-02" nType="0">
                <Node pos="l" depth="5" NCoef="0" IVar="-1" Cut="0.0000000000000000e+00" cType="1" res="-1.7105998098850250e-01" rms="3.1765484809875488e-01" purity="1.1458915472030640e-01" nType="-99"/>
                <Node pos="r" depth="5" NCoef="0" IVar="-1" Cut="0.0000000000000000e+00" cType="1" res="-2.0118120312690735e-01" rms="2.3309619724750519e-01" purity="5.7803098112344742e-02" nType="-99"/>
              </Node>
              <Node pos="r" depth="4" NCoef="0" IVar="0" Cut="9.5703023672103882e-01" cType="0" res="-3.3061590790748596e-01" rms="1.7898359894752502e-01" purity="3.3202756196260452e-02" nType="0">
                <Node pos="l" depth="5" NCoef="0" IVar="-1" Cut="0.0000000000000000e+00" cType="1" res="-2.0713093876838684e-01" rms="2.1103329956531525e-01" purity="4.6810671687126160e-02" nType="-99"/>
                <Node pos="r" depth="5" NCoef="0" IVar="-1" Cut="0.0000000000000000e+00" cType="1" res="-2.1685507893562317e-01" rms="1.6586953401565552e-01" purity="2.8327619656920433e-02" nType="-99"/>
              </Node>
            </Node>
          </Node>
        </Node>
      </Node>
    </BinaryTree>
    <BinaryTree type="DecisionTree" boostWeight="1.0000000000000000e+00" itree="2">
      <Node pos="s" depth="0" NCoef="0" IVar="1" Cut="2.6656944274902344e+01" cType="0" res="-2.1083407104015350e-01" rms="2.3445527255535126e-01" purity="8.5985988378524780e-02" nType="0">
        <Node pos="l" depth="1" NCoef="0" IVar="0" Cut="9.3700951337814331e-01" cType="0" res="1.2683267891407013e-01" rms="3.7871679663658142e-01" purity="7.4022972583770752e-01" nType="0">
          <Node pos="l" depth="2" NCoef="0" IVar="1" Cut="5.4332862854003906e+01" cType="0" res="1.8881371617317200e-01" rms="3.2251083850860596e-01" purity="8.4892147779464722e-01" nType="0">
            <Node pos="l" depth="3" NCoef="0" IVar="1" Cut="8.7623504638671875e+01" cType="0" res="2.3496796190738678e-01" rms="2.4513477087020874e-01" purity="9.2692124843597412e-01" nType="0">
              <Node pos="l" depth="4" NCoef="0" IVar="-1" Cut="0.0000000000000000e+00" cType="1" res="1.8610088527202606e-01" rms="1.9592274725437164e-01" purity="9.5601809024810791e-01" nType="-99"/>
              <Node pos="r" depth="4" NCoef="0" IVar="-1" Cut="0.0000000000000000e+00" cType="1" res="1.3884238898754120e-01" rms="3.1384611129760742e-01" purity="8.7259209156036377e-01" nType="-99"/>
            </Node>
            <Node pos="r" depth="3" NCoef="0" IVar="-1" Cut="0.0000000000000000e+00" cType="1" res="4.7965474426746368e-02" rms="4.4204077124595642e-01" purity="6.5336877107620239e-01" nType="-99"/>
          </Node>
          <Node pos="r" depth="2" NCoef="0" IVar="-1" Cut="0.0000000000000000e+00" cType="1" res="-5.9846390038728714e-02" rms="4.7099858522415161e-01" purity="3.4695121645927429e-01" nType="-99"/>
        </Node>
        <Node pos="r" depth="1" NCoef="0" IVar="1" Cut="1.5595850944519043e+01" cType="0" res="-2.3192788660526276e-01" rms="2.0463573932647705e-01" purity="4.5115821063518524e-02" nType="0">
          <Node pos="l" depth="2" NCoef="0" IVar="0" Cut="1.7008870840072632e+00" cType="0" res="-1.6554740071296692e-01" rms="3.6203160881996155e-01" purity="1.6662096977233887e-01" nType="0">
            <Node pos="l" depth="3" NCoef="0" IVar="-1" Cut="0.0000000000000000e+00" cType="1" res="-5.5551886558532715e-02" rms="4.4852149486541748e-01" purity="2.9856359958648682e-01" nType="-99"/>
            <Node pos="r" depth="3" NCoef="0" IVar="0" Cut="7.9991960525512695e-01" cType="0" res="-1.9439673423767090e-01" rms="3.1997457146644592e-01" purity="1.1849819123744965e-01" nType="0">
              <Node pos="l" depth="4" NCoef="0" IVar="-1" Cut="0.0000000000000000e+00" cType="1" res="-1.1854659020900726e-01" rms="3.5804262757301331e-01" purity="1.5397924184799194e-01" nType="-99"/>
              <Node pos="r" depth="4" NCoef="0" IVar="-1" Cut="0.0000000000000000e+00" cType="1" res="-1.5581470727920532e-01" rms="2.7389863133430481e-01" purity="8.2347013056278229e-02" nType="-99"/>
            </Node>
          </Node>
          <Node pos="r" depth="2" NCoef="0" IVar="0" Cut="1.4323600530624390e+00" cType="0" res="-2.3506449162960052e-01" rms="1.9350267946720123e-01" purity="3.9374466985464096e-02" nType="0">
            <Node pos="l" depth="3" NCoef="0" IVar="1" Cut="4.9510521888732910e+00" cType="0" res="-2.1394446492195129e-01" rms="2.6680591702461243e-01" purity="7.8304663300514221e-02" nType="0">
              <Node pos="l" depth="4" NCoef="0" IVar="2" Cut="1.0841966867446899e+00" cType="1" res="-1.9427329301834106e-01" rms="3.1441608071327209e-01" purity="1.1237900704145432e-01" nType="0">
                <Node pos="l" depth="5" NCoef="0" IVar="-1" Cut="0.0000000000000000e+00" cType="1" res="-1.1426865309476852e-01" rms="3.4032291173934937e-01" purity="1.3544668257236481e-01" nType="-99"/>
                <Node pos="r" depth="5" NCoef="0" IVar="-1" Cut="0.0000000000000000e+00" cType="1" res="-1.4680893719196320e-01" rms="3.0125957727432251e-01" purity="1.0247468948364258e-01" nType="-99"/>
              </Node>
              <Node pos="r" depth="4" NCoef="0" IVar="0" Cut="2.4167969226837158e+00" cType="0" res="-2.2719660401344299e-01" rms="2.2826935350894928e-01" purity="5.5349379777908325e-02" nType="0">
                <Node pos="l" depth="5" NCoef="0" IVar="-1" Cut="0.0000000000000000e+00" cType="1" res="-1.5554954111576080e-01" rms="2.6925677061080933e-01" purity="7.8885316848754883e-02" nType="-99"/>
                <Node pos="r" depth="5" NCoef="0" IVar="-1" Cut="0.0000000000000000e+00" cType="1" res="-1.7244485020637512e-01" rms="2.1294088661670685e-01" purity="4.7615692019462585e-02" nType="-99"/>
              </Node>
            </Node>
            <Node pos="r" depth="3" NCoef="0" IVar="1" Cut="3.8964326381683350e+00" cType="0" res="-2.3839856684207916e-01" rms="1.7898356914520264e-01" purity="3.3228822052478790e-02" nType="0">
              <Node pos="l" depth="4" NCoef="0" IVar="2" Cut="4.2912080883979797e-01" cType="1" res="-2.3119220137596130e-01" rms="2.0386044681072235e-01" purity="4.3611016124486923e-02" nType="0">
                <Node pos="l" depth="5" NCoef="0" IVar="-1" Cut="0.0000000000000000e+00" cType="1" res="-1.6912381350994110e-01" rms="2.1365457773208618e-01" purity="4.8142332583665848e-02" nType="-99"/>
                <Node pos="r" depth="5" NCoef="0" IVar="-1" Cut="0.0000000000000000e+00" cType="1" res="-1.7653599381446838e-01" rms="1.9857731461524963e-01" purity="4.1317537426948547e-02" nType="-99"/>
              </Node>
              <Node pos="r" depth="4" NCoef="0" IVar="0" Cut="7.0548278093338013e-01" cType="0" res="-2.4167878925800323e-01" rms="1.6632972657680511e-01" purity="2.8503026813268661e-02" nType="0">
                <Node pos="l" depth="5" NCoef="0" IVar="-1" Cut="0.0000000000000000e+00" cType="1" res="-1.8032599985599518e-01" rms="1.8105420470237732e-01" purity="3.3955466002225876e-02" nType="-99"/>
                <Node pos="r" depth="5" NCoef="0" IVar="-1" Cut="0.0000000000000000e+00" cType="1" res="-1.8704214692115784e-01" rms="1.5185692906379700e-01" purity="2.3618353530764580e-02" nType="-99"/>
              </Node>
            </Node>
          </Node>
        </Node>
      </Node>
    </BinaryTree>
    <BinaryTree type="DecisionTree" boostWeight="1.0000000000000000e+00" itree="3">
      <Node pos="s" depth="0" NCoef="0" IVar="1" Cut="3.7445629119873047e+01" cType="0" res="-1.5282049775123596e-01" rms="2.2553637623786926e-01" purity="8.5985988378524780e-02" nType="0">
        <Node pos="l" depth="1" NCoef="0" IVar="2" Cut="4.4551897048950195e-01" cType="0" res="1.2209935486316681e-01" rms="3.3397719264030457e-01" purity="8.1157785654067993e-01" nType="0">
          <Node pos="l" depth="2" NCoef="0" IVar="1" Cut="7.0607864379882812e+01" cType="0" res="1.7091785371303558e-01" rms="2.5304123759269714e-01" purity="9.1648095846176147e-01" nType="0">
            <Node pos="l" depth="3" NCoef="0" IVar="1" Cut="1.1648233795166016e+02" cType="0" res="1.9017833471298218e-01" rms="1.8208028376102448e-01" purity="9.6232020854949951e-01" nType="0">
              <Node pos="l" depth="4" NCoef="0" IVar="-1" Cut="0.0000000000000000e+00" cType="1" res="1.7550358176231384e-01" rms="1.4265368878841400e-01" purity="9.7859328985214233e-01" nType="-99"/>
              <Node pos="r" depth="4" NCoef="0" IVar="-1" Cut="0.0000000000000000e+00" cType="1" res="1.5690395236015320e-01" rms="2.0970658957958221e-01" purity="9.4845062494277954e-01" nType="-99"/>
            </Node>
            <Node pos="r" depth="3" NCoef="0" IVar="-1" Cut="0.0000000000000000e+00" cType="1" res="9.6072934567928314e-02" rms="3.5613423585891724e-01" purity="8.1962341070175171e-01" nType="-99"/>
          </Node>
          <Node pos="r" depth="2" NCoef="0" IVar="-1" Cut="0.0000000000000000e+00" cType="1" res="-2.0251758396625519e-02" rms="4.8000887036323547e-01" purity="4.7986575961112976e-01" nType="-99"/>
        </Node>
        <Node pos="r" depth="1" NCoef="0" IVar="0" Cut="3.9050118923187256e+00" cType="0" res="-1.6672499477863312e-01" rms="2.0924149453639984e-01" purity="4.9288019537925720e-02" nType="0">
          <Node pos="l" depth="2" NCoef="0" IVar="-1" Cut="0.0000000000000000e+00" cType="1" res="-2.3921122774481773e-02" rms="4.1624200344085693e-01" purity="2.8979954123497009e-01" nType="-99"/>
          <Node pos="r" depth="2" NCoef="0" IVar="1" Cut="1.6743883132934570e+01" cType="0" res="-1.6860623657703400e-01" rms="2.0423062145709991e-01" purity="4.5914653688669205e-02" nType="0">
            <Node pos="l" depth="3" NCoef="0" IVar="0" Cut="8.9807242155075073e-01" cType="0" res="-1.1297076195478439e-01" rms="3.8685151934623718e-01" purity="2.0947967469692230e-01" nType="0">
              <Node pos="l" depth="4" NCoef="0" IVar="-1" Cut="0.0000000000000000e+00" cType="1" res="-5.8063473552465439e-02" rms="4.3043431639671326e-01" purity="2.8183093667030334e-01" nType="-99"/>
              <Node pos="r" depth="4" NCoef="0" IVar="-1" Cut="0.0000000000000000e+00" cType="1" res="-1.1385438591241837e-01" rms="3.2244214415550232e-01" purity="1.2089327722787857e-01" nType="-99"/>
            </Node>
            <Node pos="r" depth="3" NCoef="0" IVar="0" Cut="8.6068850755691528e-01" cType="0" res="-1.7109598219394684e-01" rms="1.9166332483291626e-01" purity="3.8594961166381836e-02" nType="0">
              <Node pos="l" depth="4" NCoef="0" IVar="1" Cut="5.3810019493103027e+00" cType="0" res="-1.6376607120037079e-01" rms="2.2593159973621368e-01" purity="5.4602380841970444e-02" nType="0">
                <Node pos="l" depth="5" NCoef="0" IVar="-1" Cut="0.0000000000000000e+00" cType="1" res="-1.2814174592494965e-01" rms="2.7009314298629761e-01" purity="8.0314099788665771e-02" nType="-99"/>
                <Node pos="r" depth="5" NCoef="0" IVar="-1" Cut="0.0000000000000000e+00" cType="1" res="-1.5184812247753143e-01" rms="2.0256529748439789e-01" purity="4.2957570403814316e-02" nType="-99"/>
              </Node>
              <Node pos="r" depth="4" NCoef="0" IVar="2" Cut="-3.0799674987792969e-01" cType="0" res="-1.7557798326015472e-01" rms="1.6712756454944611e-01" purity="2.8806928545236588e-02" nType="0">
                <Node pos="l" depth="5" NCoef="0" IVar="-1" Cut="0.0000000000000000e+00" cType="1" res="-1.5946249663829803e-01" rms="1.7546881735324860e-01" purity="3.1851183623075485e-02" nType="-99"/>
                <Node pos="r" depth="5" NCoef="0" IVar="-1" Cut="0.0000000000000000e+00" cType="1" res="-1.6824282705783844e-01" rms="1.4437812566757202e-01" purity="2.1301746368408203e-02" nType="-99"/>
              </Node>
            </Node>
          </Node>
        </Node>
      </Node>
    </BinaryTree>
    <BinaryTree type="DecisionTree" boostWeight="1.0000000000000000e+00" itree="4">
      <Node pos="s" depth="0" NCoef="0" IVar="1" Cut="2.5070373535156250e+01" cType="0" res="-1.1103083938360214e-01" rms="2.2064483165740967e-01" purity="8.5985988378524780e-02" nType="0">
        <Node pos="l" depth="1" NCoef="0" IVar="0" Cut="2.2479445934295654e+00" cType="0" res="6.5978527069091797e-02" rms="3.6243394017219543e-01" purity="7.2073042392730713e-01" nType="0">
          <Node pos="l" depth="2" NCoef="0" IVar="0" Cut="7.6886572837829590e+00" cType="0" res="1.4009365439414978e-01" rms="2.3091880977153778e-01" purity="9.2958754301071167e-01" nType="0">
            <Node pos="l" depth="3" NCoef="0" IVar="-1" Cut="0.0000000000000000e+00" cType="1" res="1.7136578261852264e-01" rms="1.1580126732587814e-01" purity="9.8599135875701904e-01" nType="-99"/>
            <Node pos="r" depth="3" NCoef="0" IVar="-1" Cut="0.0000000000000000e+00" cType="1" res="1.1211681365966797e-01" rms="2.9100775718688965e-01" purity="8.8459056615829468e-01" nType="-99"/>
          </Node>
          <Node pos="r" depth="2" NCoef="0" IVar="1" Cut="6.6162086486816406e+01" cType="0" res="-1.7105508595705032e-02" rms="4.5362511277198792e-01" purity="4.8659875988960266e-01" nType="0">
            <Node pos="l" depth="3" NCoef="0" IVar="-1" Cut="0.0000000000000000e+00" cType="1" res="3.8436766713857651e-02" rms="4.4082775712013245e-01" purity="6.4709991216659546e-01" nType="-99"/>
            <Node pos="r" depth="3" NCoef="0" IVar="-1" Cut="0.0000000000000000e+00" cType="1" res="-4.1919078677892685e-02" rms="4.5547142624855042e-01" purity="3.8673913478851318e-01" nType="-99"/>
          </Node>
        </Node>
        <Node pos="r" depth="1" NCoef="0" IVar="1" Cut="1.0835042953491211e+01" cType="0" res="-1.2261658906936646e-01" rms="2.0270143449306488e-01" purity="4.4440217316150665e-02" nType="0">
          <Node pos="l" depth="2" NCoef="0" IVar="0" Cut="2.5046045780181885e+00" cType="0" res="-9.8840631544589996e-02" rms="3.0366736650466919e-01" purity="1.1002500355243683e-01" nType="0">
            <Node pos="l" depth="3" NCoef="0" IVar="-1" Cut="0.0000000000000000e+00" cType="1" res="-2.7645509690046310e-02" rms="4.2289099097251892e-01" purity="2.5424316525459290e-01" nType="-99"/>
            <Node pos="r" depth="3" NCoef="0" IVar="2" Cut="4.6772217750549316e-01" cType="1" res="-1.0640431940555573e-01" rms="2.8469684720039368e-01" purity="9.2312924563884735e-02" nType="0">
              <Node pos="l" depth="4" NCoef="0" IVar="-1" Cut="0.0000000000000000e+00" cType="1" res="-6.8214498460292816e-02" rms="3.1349003314971924e-01" purity="1.1370620876550674e-01" nType="-99"/>
              <Node pos="r" depth="4" NCoef="0" IVar="0" Cut="9.1072183847427368e-01" cType="0" res="-1.1272250860929489e-01" rms="2.7927875518798828e-01" purity="8.8875718414783478e-02" nType="0">
                <Node pos="l" depth="5" NCoef="0" IVar="-1" Cut="0.0000000000000000e+00" cType="1" res="-8.5820138454437256e-02" rms="3.2789605855941772e-01" purity="1.2664137780666351e-01" nType="-99"/>
                <Node pos="r" depth="5" NCoef="0" IVar="-1" Cut="0.0000000000000000e+00" cType="1" res="-1.3154274225234985e-01" rms="2.1705275774002075e-01" purity="4.9939829856157303e-02" nType="-99"/>
              </Node>
            </Node>
          </Node>
          <Node pos="r" depth="2" NCoef="0" IVar="0" Cut="1.5044680833816528e+00" cType="0" res="-1.2552978098392487e-01" rms="1.8640229105949402e-01" purity="3.6404319107532501e-02" nType="0">
            <Node pos="l" depth="3" NCoef="0" IVar="1" Cut="4.4870166778564453e+00" cType="0" res="-1.1302501708269119e-01" rms="2.5683566927909851e-01" purity="7.2225600481033325e-02" nType="0">
              <Node pos="l" depth="4" NCoef="0" IVar="2" Cut="1.0240594148635864e+00" cType="1" res="-1.0234146565198898e-01" rms="2.9969021677970886e-01" purity="1.0132662206888199e-01" nType="0">
                <Node pos="l" depth="5" NCoef="0" IVar="-1" Cut="0.0000000000000000e+00" cType="1" res="-6.6306345164775848e-02" rms="3.2965749502182007e-01" purity="1.2591303884983063e-01" nType="-99"/>
                <Node pos="r" depth="5" NCoef="0" IVar="-1" Cut="0.0000000000000000e+00" cType="1" res="-1.0834057629108429e-01" rms="2.8245720267295837e-01" purity="8.9282669126987457e-02" nType="-99"/>
              </Node>
              <Node pos="r" depth="4" NCoef="0" IVar="2" Cut="-6.3911896944046021e-01" cType="0" res="-1.1889993399381638e-01" rms="2.2967864573001862e-01" purity="5.6222878396511078e-02" nType="0">
                <Node pos="l" depth="5" NCoef="0" IVar="-1" Cut="0.0000000000000000e+00" cType="1" res="-1.1983661353588104e-01" rms="2.3645836114883423e-01" purity="5.9822224080562592e-02" nType="-99"/>
                <Node pos="r" depth="5" NCoef="0" IVar="-1" Cut="0.0000000000000000e+00" cType="1" res="-1.3293480873107910e-01" rms="2.1210880577564240e-01" purity="4.7516662627458572e-02" nType="-99"/>
              </Node>
            </Node>
            <Node pos="r" depth="3" NCoef="0" IVar="0" Cut="6.6665571928024292e-01" cType="0" res="-1.2714524567127228e-01" rms="1.7518539726734161e-01" purity="3.1776651740074158e-02" nType="0">
              <Node pos="l" depth="4" NCoef="0" IVar="2" Cut="6.1407995223999023e-01" cType="0" res="-1.2491787970066071e-01" rms="1.8738947808742523e-01" purity="3.6528147757053375e-02" nType="0">
                <Node pos="l" depth="5" NCoef="0" IVar="-1" Cut="0.0000000000000000e+00" cType="1" res="-1.4156767725944519e-01" rms="1.8794314563274384e-01" purity="3.6812271922826767e-02" nType="-99"/>
                <Node pos="r" depth="5" NCoef="0" IVar="-1" Cut="0.0000000000000000e+00" cType="1" res="-1.3792182505130768e-01" rms="1.8726722896099091e-01" purity="3.6481942981481552e-02" nType="-99"/>
              </Node>
              <Node pos="r" depth="4" NCoef="0" IVar="1" Cut="7.3351240158081055e+00" cType="0" res="-1.3000275194644928e-01" rms="1.5810966491699219e-01" purity="2.5680914521217346e-02" nType="0">
                <Node pos="l" depth="5" NCoef="0" IVar="-1" Cut="0.0000000000000000e+00" cType="1" res="-1.3625280559062958e-01" rms="1.9232611358165741e-01" purity="3.8496673107147217e-02" nType="-99"/>
                <Node pos="r" depth="5" NCoef="0" IVar="-1" Cut="0.0000000000000000e+00" cType="1" res="-1.4962565898895264e-01" rms="1.5421615540981293e-01" purity="2.4387029930949211e-02" nType="-99"/>
              </Node>
            </Node>
          </Node>
        </Node>
      </Node>
    </BinaryTree>
    <BinaryTree type="DecisionTree" boostWeight="1.0000000000000000e+00" itree="5">
      <Node pos="s" depth="0" NCoef="0" IVar="1" Cut="4.0777427673339844e+01" cType="0" res="-8.0704011023044586e-02" rms="2.1773254871368408e-01" purity="8.5985988378524780e-02" nType="0">
        <Node pos="l" depth="1" NCoef="0" IVar="2" Cut="5.0065428018569946e-01" cType="0" res="6.9822326302528381e-02" rms="3.1834596395492554e-01" purity="8.2025593519210815e-01" nType="0">
          <Node pos="l" depth="2" NCoef="0" IVar="0" Cut="3.7854018211364746e+00" cType="0" res="1.0139073431491852e-01" rms="2.2990104556083679e-01" purity="9.3292754888534546e-01" nType="0">
            <Node pos="l" depth="3" NCoef="0" IVar="-1" Cut="0.0000000000000000e+00" cType="1" res="1.4877565205097198e-01" rms="1.3131038844585419e-01" purity="9.8205631971359253e-01" nType="-99"/>
            <Node pos="r" depth="3" NCoef="0" IVar="-1" Cut="0.0000000000000000e+00" cType="1" res="7.4570216238498688e-02" rms="3.4021985530853271e-01" purity="8.4556478261947632e-01" nType="-99"/>
          </Node>
          <Node pos="r" depth="2" NCoef="0" IVar="-1" Cut="0.0000000000000000e+00" cType="1" res="-1.0820011608302593e-02" rms="4.7353786230087280e-01" purity="5.1087987422943115e-01" nType="-99"/>
        </Node>
        <Node pos="r" depth="1" NCoef="0" IVar="1" Cut="1.9652399063110352e+01" cType="0" res="-8.7979294359683990e-02" rms="2.0893187820911407e-01" purity="5.0497036427259445e-02" nType="0">
          <Node pos="l" depth="2" NCoef="0" IVar="0" Cut="1.4458901882171631e+00" cType="0" res="-2.8976876288652420e-02" rms="4.2420452833175659e-01" purity="3.2088887691497803e-01" nType="0">
            <Node pos="l" depth="3" NCoef="0" IVar="-1" Cut="0.0000000000000000e+00" cType="1" res="1.1194765567779541e-02" rms="4.6691995859146118e-01" purity="4.9700599908828735e-01" nType="-99"/>
            <Node pos="r" depth="3" NCoef="0" IVar="-1" Cut="0.0000000000000000e+00" cType="1" res="-4.8735659569501877e-02" rms="3.8972479104995728e-01" purity="2.0204168558120728e-01" nType="-99"/>
          </Node>
          <Node pos="r" depth="2" NCoef="0" IVar="0" Cut="2.0850112438201904e+00" cType="0" res="-8.9932546019554138e-02" rms="1.9753836095333099e-01" purity="4.1545808315277100e-02" nType="0">
            <Node pos="l" depth="3" NCoef="0" IVar="0" Cut="3.6432220935821533e+00" cType="0" res="-6.8615823984146118e-02" rms="3.0876964330673218e-01" purity="1.1070947349071503e-01" nType="0">
              <Node pos="l" depth="4" NCoef="0" IVar="-1" Cut="0.0000000000000000e+00" cType="1" res="-3.8777511566877365e-02" rms="3.7515109777450562e-01" purity="1.7499203979969025e-01" nType="-99"/>
              <Node pos="r" depth="4" NCoef="0" IVar="2" Cut="1.4866425991058350e+00" cType="0" res="-7.5749814510345459e-02" rms="2.8652763366699219e-01" purity="9.2285245656967163e-02" nType="0">
                <Node pos="l" depth="5" NCoef="0" IVar="-1" Cut="0.0000000000000000e+00" cType="1" res="-9.4456329941749573e-02" rms="2.9965952038764954e-01" purity="1.0109957307577133e-01" nType="-99"/>
                <Node pos="r" depth="5" NCoef="0" IVar="-1" Cut="0.0000000000000000e+00" cType="1" res="-7.5416259467601776e-02" rms="2.8008762001991272e-01" purity="8.8533543050289154e-02" nType="-99"/>
              </Node>
            </Node>
            <Node pos="r" depth="3" NCoef="0" IVar="1" Cut="8.3893041610717773e+00" cType="0" res="-9.1276578605175018e-02" rms="1.8825544416904449e-01" purity="3.7185005843639374e-02" nType="0">
              <Node pos="l" depth="4" NCoef="0" IVar="2" Cut="4.0539538860321045e-01" cType="1" res="-8.1784360110759735e-02" rms="2.4704544246196747e-01" purity="6.6413141787052155e-02" nType="0">
                <Node pos="l" depth="5" NCoef="0" IVar="-1" Cut="0.0000000000000000e+00" cType="1" res="-5.9986989945173264e-02" rms="2.8896144032478333e-01" purity="9.2922903597354889e-02" nType="-99"/>
                <Node pos="r" depth="5" NCoef="0" IVar="-1" Cut="0.0000000000000000e+00" cType="1" res="-1.0184784978628159e-01" rms="2.4130448698997498e-01" purity="6.3278220593929291e-02" nType="-99"/>
              </Node>
              <Node pos="r" depth="4" NCoef="0" IVar="0" Cut="1.0195974111557007e+00" cType="0" res="-9.2910960316658020e-02" rms="1.7611236870288849e-01" purity="3.2152455300092697e-02" nType="0">
                <Node pos="l" depth="5" NCoef="0" IVar="-1" Cut="0.0000000000000000e+00" cType="1" res="-1.1366789042949677e-01" rms="2.1017737686634064e-01" purity="4.6457827091217041e-02" nType="-99"/>
                <Node pos="r" depth="5" NCoef="0" IVar="-1" Cut="0.0000000000000000e+00" cType="1" res="-1.3169610500335693e-01" rms="1.6509062051773071e-01" purity="2.8072867542505264e-02" nType="-99"/>
              </Node>
            </Node>
          </Node>
        </Node>
      </Node>
    </BinaryTree>
    <BinaryTree type="DecisionTree" boostWeight="1.0000000000000000e+00" itree="6">
      <Node pos="s" depth="0" NCoef="0" IVar="1" Cut="2.3483800888061523e+01" cType="0" res="-5.8580622076988220e-02" rms="2.1619580686092377e-01" purity="8.5985988378524780e-02" nType="0">
        <Node pos="l" depth="1" NCoef="0" IVar="0" Cut="1.8109662532806396e+00" cType="0" res="3.4020651131868362e-02" rms="3.5794454813003540e-01" purity="6.9814950227737427e-01" nType="0">
          <Node pos="l" depth="2" NCoef="0" IVar="0" Cut="7.0393834114074707e+00" cType="0" res="7.3173940181732178e-02" rms="2.6241117715835571e-01" purity="8.9807248115539551e-01" nType="0">
            <Node pos="l" depth="3" NCoef="0" IVar="-1" Cut="0.0000000000000000e+00" cType="1" res="1.4704784750938416e-01" rms="1.3148395717144012e-01" purity="9.8088854551315308e-01" nType="-99"/>
            <Node pos="r" depth="3" NCoef="0" IVar="-1" Cut="0.0000000000000000e+00" cType="1" res="6.1079077422618866e-02" rms="3.2582727074623108e-01" purity="8.3759289979934692e-01" nType="-99"/>
          </Node>
          <Node pos="r" depth="2" NCoef="0" IVar="0" Cut="7.8428095579147339e-01" cType="0" res="-1.8636051565408707e-02" rms="4.5054870843887329e-01" purity="4.2927584052085876e-01" nType="0">
            <Node pos="l" depth="3" NCoef="0" IVar="-1" Cut="0.0000000000000000e+00" cType="1" res="1.2441659346222878e-02" rms="4.5637217164039612e-01" purity="5.3224277496337891e-01" nType="-99"/>
            <Node pos="r" depth="3" NCoef="0" IVar="-1" Cut="0.0000000000000000e+00" cType="1" res="-5.0113778561353683e-02" rms="4.3641251325607300e-01" purity="2.7847221493721008e-01" nType="-99"/>
          </Node>
        </Node>
        <Node pos="r" depth="1" NCoef="0" IVar="0" Cut="3.1106061935424805e+00" cType="0" res="-6.4976111054420471e-02" rms="2.0121318101882935e-01" purity="4.3707028031349182e-02" nType="0">
          <Node pos="l" depth="2" NCoef="0" IVar="-1" Cut="0.0000000000000000e+00" cType="1" res="-2.8952499851584435e-02" rms="3.6635524034500122e-01" purity="1.7251735925674438e-01" nType="-99"/>
          <Node pos="r" depth="2" NCoef="0" IVar="1" Cut="1.3868175506591797e+01" cType="0" res="-6.5757997334003448e-02" rms="1.9580706954002380e-01" purity="4.0795370936393738e-02" nType="0">
            <Node pos="l" depth="3" NCoef="0" IVar="2" Cut="1.2886819839477539e+00" cType="0" res="-4.8779625445604324e-02" rms="3.1209900975227356e-01" purity="1.1438911408185959e-01" nType="0">
              <Node pos="l" depth="4" NCoef="0" IVar="-1" Cut="0.0000000000000000e+00" cType="1" res="-8.1357061862945557e-02" rms="3.2696172595024109e-01" purity="1.2521265447139740e-01" nType="-99"/>
              <Node pos="r" depth="4" NCoef="0" IVar="0" Cut="9.6767944097518921e-01" cType="0" res="-3.6970879882574081e-02" rms="3.0650618672370911e-01" purity="1.1113385111093521e-01" nType="0">
                <Node pos="l" depth="5" NCoef="0" IVar="-1" Cut="0.0000000000000000e+00" cType="1" res="1.3929119333624840e-02" rms="3.8618806004524231e-01" purity="1.9440607726573944e-01" nType="-99"/>
                <Node pos="r" depth="5" NCoef="0" IVar="-1" Cut="0.0000000000000000e+00" cType="1" res="-7.5486823916435242e-02" rms="2.6301112771034241e-01" purity="7.6061666011810303e-02" nType="-99"/>
              </Node>
            </Node>
            <Node pos="r" depth="3" NCoef="0" IVar="0" Cut="8.2480561733245850e-01" cType="0" res="-6.6725969314575195e-02" rms="1.8696416914463043e-01" purity="3.6599643528461456e-02" nType="0">
              <Node pos="l" depth="4" NCoef="0" IVar="1" Cut="5.4248619079589844e+00" cType="0" res="-6.2673486769199371e-02" rms="2.1596822142601013e-01" purity="4.9522474408149719e-02" nType="0">
                <Node pos="l" depth="5" NCoef="0" IVar="-1" Cut="0.0000000000000000e+00" cType="1" res="-7.4945993721485138e-02" rms="2.5674271583557129e-01" purity="7.1834266185760498e-02" nType="-99"/>
                <Node pos="r" depth="5" NCoef="0" IVar="-1" Cut="0.0000000000000000e+00" cType="1" res="-1.0313844680786133e-01" rms="1.9848756492137909e-01" purity="4.1168820112943649e-02" nType="-99"/>
              </Node>
              <Node pos="r" depth="4" NCoef="0" IVar="2" Cut="-6.7526751756668091e-01" cType="0" res="-6.9460950791835785e-02" rms="1.6446830332279205e-01" purity="2.7878150343894958e-02" nType="0">
                <Node pos="l" depth="5" NCoef="0" IVar="-1" Cut="0.0000000000000000e+00" cType="1" res="-1.1611027270555496e-01" rms="1.6929729282855988e-01" purity="2.9587185010313988e-02" nType="-99"/>
                <Node pos="r" depth="5" NCoef="0" IVar="-1" Cut="0.0000000000000000e+00" cType="1" res="-1.3169521093368530e-01" rms="1.3757394254207611e-01" purity="1.9302925094962120e-02" nType="-99"/>
              </Node>
            </Node>
          </Node>
        </Node>
      </Node>
    </BinaryTree>
    <BinaryTree type="DecisionTree" boostWeight="1.0000000000000000e+00" itree="7">
      <Node pos="s" depth="0" NCoef="0" IVar="1" Cut="5.2835369110107422e+01" cType="0" res="-4.2454108595848083e-02" rms="2.1520857512950897e-01" purity="8.5985988378524780e-02" nType="0">
        <Node pos="l" depth="1" NCoef="0" IVar="1" Cut="1.0273368835449219e+02" cType="0" res="4.8435062170028687e-02" rms="2.9661422967910767e-01" purity="8.4496879577636719e-01" nType="0">
          <Node pos="l" depth="2" NCoef="0" IVar="-1" Cut="0.0000000000000000e+00" cType="1" res="1.0810906440019608e-01" rms="2.3290151357650757e-01" purity="9.2265307903289795e-01" nType="-99"/>
          <Node pos="r" depth="2" NCoef="0" IVar="-1" Cut="0.0000000000000000e+00" cType="1" res="2.4630706757307053e-02" rms="3.3978641033172607e-01" purity="7.7876108884811401e-01" nType="-99"/>
        </Node>
        <Node pos="r" depth="1" NCoef="0" IVar="0" Cut="4.3345956802368164e+00" cType="0" res="-4.6222250908613205e-02" rms="2.1031086146831512e-01" purity="5.4519582539796829e-02" nType="0">
          <Node pos="l" depth="2" NCoef="0" IVar="-1" Cut="0.0000000000000000e+00" cType="1" res="2.4313269183039665e-02" rms="3.9304900169372559e-01" purity="4.1822966933250427e-01" nType="-99"/>
          <Node pos="r" depth="2" NCoef="0" IVar="2" Cut="2.0898406505584717e+00" cType="0" res="-4.7131840139627457e-02" rms="2.0686224102973938e-01" purity="4.9995906651020050e-02" nType="0">
            <Node pos="l" depth="3" NCoef="0" IVar="-1" Cut="0.0000000000000000e+00" cType="1" res="-8.1392079591751099e-02" rms="3.4375438094139099e-01" purity="2.0180305838584900e-01" nType="-99"/>
            <Node pos="r" depth="3" NCoef="0" IVar="0" Cut="1.9755274057388306e+00" cType="0" res="-4.6617854386568069e-02" rms="2.0461989939212799e-01" purity="4.8182692378759384e-02" nType="0">
              <Node pos="l" depth="4" NCoef="0" IVar="1" Cut="1.0075291633605957e+01" cType="0" res="-2.1839618682861328e-02" rms="3.0271938443183899e-01" purity="1.3442867994308472e-01" nType="0">
                <Node pos="l" depth="5" NCoef="0" IVar="-1" Cut="0.0000000000000000e+00" cType="1" res="4.0607556700706482e-02" rms="4.0497803688049316e-01" purity="3.4357541799545288e-01" nType="-99"/>
                <Node pos="r" depth="5" NCoef="0" IVar="-1" Cut="0.0000000000000000e+00" cType="1" res="-5.7636901736259460e-02" rms="2.6548629999160767e-01" purity="7.7522322535514832e-02" nType="-99"/>
              </Node>
              <Node pos="r" depth="4" NCoef="0" IVar="2" Cut="1.2901208400726318e+00" cType="0" res="-4.8072610050439835e-02" rms="1.9725392758846283e-01" purity="4.3119095265865326e-02" nType="0">
                <Node pos="l" depth="5" NCoef="0" IVar="-1" Cut="0.0000000000000000e+00" cType="1" res="-9.6742182970046997e-02" rms="2.6659017801284790e-01" purity="8.5656926035881042e-02" nType="-99"/>
                <Node pos="r" depth="5" NCoef="0" IVar="-1" Cut="0.0000000000000000e+00" cType="1" res="-8.8992953300476074e-02" rms="1.9555568695068359e-01" purity="4.2266182601451874e-02" nType="-99"/>
              </Node>
            </Node>
          </Node>
        </Node>
      </Node>
    </BinaryTree>
    <BinaryTree type="DecisionTree" boostWeight="1.0000000000000000e+00" itree="8">
      <Node pos="s" depth="0" NCoef="0" IVar="1" Cut="2.0469316482543945e+01" cType="0" res="-3.0597839504480362e-02" rms="2.1466240286827087e-01" purity="8.5985988378524780e-02" nType="0">
        <Node pos="l" depth="1" NCoef="0" IVar="0" Cut="7.1852028369903564e-01" cType="0" res="2.2168392315506935e-02" rms="3.5897693037986755e-01" purity="6.4101886749267578e-01" nType="0">
          <Node pos="l" depth="2" NCoef="0" IVar="0" Cut="2.6845035552978516e+00" cType="0" res="3.4889049828052521e-02" rms="3.4747186303138733e-01" purity="7.1607255935668945e-01" nType="0">
            <Node pos="l" depth="3" NCoef="0" IVar="2" Cut="2.4883155822753906e+00" cType="1" res="5.4497476667165756e-02" rms="2.4048429727554321e-01" purity="9.1086798906326294e-01" nType="0">
              <Node pos="l" depth="4" NCoef="0" IVar="-1" Cut="0.0000000000000000e+00" cType="1" res="1.1126568913459778e-01" rms="2.3654779791831970e-01" purity="9.3293690681457520e-01" nType="-99"/>
              <Node pos="r" depth="4" NCoef="0" IVar="-1" Cut="0.0000000000000000e+00" cType="1" res="6.4785704016685486e-02" rms="2.4180555343627930e-01" purity="8.9778733253479004e-01" nType="-99"/>
            </Node>
            <Node pos="r" depth="3" NCoef="0" IVar="2" Cut="9.5957803726196289e-01" cType="1" res="1.4586738310754299e-02" rms="4.3018183112144470e-01" purity="5.1438391208648682e-01" nType="0">
              <Node pos="l" depth="4" NCoef="0" IVar="-1" Cut="0.0000000000000000e+00" cType="1" res="3.3389147371053696e-02" rms="4.3891453742980957e-01" purity="5.5566680431365967e-01" nType="-99"/>
              <Node pos="r" depth="4" NCoef="0" IVar="-1" Cut="0.0000000000000000e+00" cType="1" res="-2.6801345869898796e-02" rms="4.0992066264152527e-01" purity="4.4234800338745117e-01" nType="-99"/>
            </Node>
          </Node>
          <Node pos="r" depth="2" NCoef="0" IVar="-1" Cut="0.0000000000000000e+00" cType="1" res="-3.8534678518772125e-02" rms="4.0924710035324097e-01" purity="2.3184452950954437e-01" nType="-99"/>
        </Node>
        <Node pos="r" depth="1" NCoef="0" IVar="1" Cut="8.3782587051391602e+00" cType="0" res="-3.4780684858560562e-02" rms="1.9819007813930511e-01" purity="4.1987836360931396e-02" nType="0">
          <Node pos="l" depth="2" NCoef="0" IVar="0" Cut="1.2925101518630981e+00" cType="0" res="-2.3792209103703499e-02" rms="2.6765152812004089e-01" purity="8.1093750894069672e-02" nType="0">
            <Node pos="l" depth="3" NCoef="0" IVar="2" Cut="1.2340440750122070e+00" cType="1" res="-7.8896731138229370e-03" rms="3.3993950486183167e-01" purity="1.3919143378734589e-01" nType="0">
              <Node pos="l" depth="4" NCoef="0" IVar="-1" Cut="0.0000000000000000e+00" cType="1" res="6.2160518020391464e-02" rms="3.6692959070205688e-01" purity="1.6863353550434113e-01" nType="-99"/>
              <Node pos="r" depth="4" NCoef="0" IVar="0" Cut="2.1246304512023926e+00" cType="0" res="-3.0056333169341087e-02" rms="3.2532638311386108e-01" purity="1.2674021720886230e-01" nType="0">
                <Node pos="l" depth="5" NCoef="0" IVar="-1" Cut="0.0000000000000000e+00" cType="1" res="-1.9650038331747055e-02" rms="3.6420094966888428e-01" purity="1.6489115357398987e-01" nType="-99"/>
                <Node pos="r" depth="5" NCoef="0" IVar="-1" Cut="0.0000000000000000e+00" cType="1" res="-6.2746077775955200e-02" rms="2.6527678966522217e-01" purity="7.6759710907936096e-02" nType="-99"/>
              </Node>
            </Node>
            <Node pos="r" depth="3" NCoef="0" IVar="2" Cut="4.0843263268470764e-01" cType="1" res="-3.0042231082916260e-02" rms="2.3288801312446594e-01" purity="5.8260176330804825e-02" nType="0">
              <Node pos="l" depth="4" NCoef="0" IVar="-1" Cut="0.0000000000000000e+00" cType="1" res="4.9605784006416798e-03" rms="2.8919470310211182e-01" purity="9.3380942940711975e-02" nType="-99"/>
              <Node pos="r" depth="4" NCoef="0" IVar="2" Cut="9.3037819862365723e-01" cType="1" res="-3.5028204321861267e-02" rms="2.2265422344207764e-01" purity="5.2915360778570175e-02" nType="0">
                <Node pos="l" depth="5" NCoef="0" IVar="-1" Cut="0.0000000000000000e+00" cType="1" res="-5.8625638484954834e-02" rms="2.2576557099819183e-01" purity="5.4702349007129669e-02" nType="-99"/>
                <Node pos="r" depth="5" NCoef="0" IVar="-1" Cut="0.0000000000000000e+00" cType="1" res="-9.2591099441051483e-02" rms="2.0726457238197327e-01" purity="4.5107718557119370e-02" nType="-99"/>
              </Node>
            </Node>
          </Node>
          <Node pos="r" depth="2" NCoef="0" IVar="0" Cut="8.5039645433425903e-01" cType="0" res="-3.6887187510728836e-02" rms="1.8179289996623993e-01" purity="3.4491192549467087e-02" nType="0">
            <Node pos="l" depth="3" NCoef="0" IVar="2" Cut="-6.4003407955169678e-01" cType="0" res="-3.3500552177429199e-02" rms="2.1232409775257111e-01" purity="4.7742825001478195e-02" nType="0">
              <Node pos="l" depth="4" NCoef="0" IVar="2" Cut="8.1167286634445190e-01" cType="0" res="-3.1714692711830139e-02" rms="2.1756769716739655e-01" purity="5.0306029617786407e-02" nType="0">
                <Node pos="l" depth="5" NCoef="0" IVar="-1" Cut="0.0000000000000000e+00" cType="1" res="-6.8119183182716370e-02" rms="2.3772411048412323e-01" purity="6.1442472040653229e-02" nType="-99"/>
                <Node pos="r" depth="5" NCoef="0" IVar="-1" Cut="0.0000000000000000e+00" cType="1" res="-6.2355276197195053e-02" rms="2.1350541710853577e-01" purity="4.8207417130470276e-02" nType="-99"/>
              </Node>
              <Node pos="r" depth="4" NCoef="0" IVar="1" Cut="-4.8677325248718262e+00" cType="1" res="-4.0254302322864532e-02" rms="1.9104714691638947e-01" purity="3.8049336522817612e-02" nType="0">
                <Node pos="l" depth="5" NCoef="0" IVar="-1" Cut="0.0000000000000000e+00" cType="1" res="-7.8706055879592896e-02" rms="1.9484271109104156e-01" purity="3.9547517895698547e-02" nType="-99"/>
                <Node pos="r" depth="5" NCoef="0" IVar="-1" Cut="0.0000000000000000e+00" cType="1" res="-9.6013478934764862e-02" rms="1.8107727169990540e-01" purity="3.4346103668212891e-02" nType="-99"/>
              </Node>
            </Node>
            <Node pos="r" depth="3" NCoef="0" IVar="2" Cut="-2.0143936574459076e-01" cType="0" res="-3.8931615650653839e-02" rms="1.6054157912731171e-01" purity="2.6491498574614525e-02" nType="0">
              <Node pos="l" depth="4" NCoef="0" IVar="2" Cut="4.3272328376770020e-01" cType="1" res="-3.6985296756029129e-02" rms="1.6874559223651886e-01" purity="2.9346168041229248e-02" nType="0">
                <Node pos="l" depth="5" NCoef="0" IVar="-1" Cut="0.0000000000000000e+00" cType="1" res="-8.7575584650039673e-02" rms="1.7081199586391449e-01" purity="3.0094180256128311e-02" nType="-99"/>
                <Node pos="r" depth="5" NCoef="0" IVar="-1" Cut="0.0000000000000000e+00" cType="1" res="-9.9705189466476440e-02" rms="1.5767182409763336e-01" purity="2.5520376861095428e-02" nType="-99"/>
              </Node>
              <Node pos="r" depth="4" NCoef="0" IVar="0" Cut="6.0454440116882324e-01" cType="0" res="-4.2025219649076462e-02" rms="1.4650633931159973e-01" purity="2.1954102441668510e-02" nType="0">
                <Node pos="l" depth="5" NCoef="0" IVar="-1" Cut="0.0000000000000000e+00" cType="1" res="-1.0034752637147903e-01" rms="1.5354967117309570e-01" purity="2.4168523028492928e-02" nType="-99"/>
                <Node pos="r" depth="5" NCoef="0" IVar="-1" Cut="0.0000000000000000e+00" cType="1" res="-1.1186483502388000e-01" rms="1.3667200505733490e-01" purity="1.9044421613216400e-02" nType="-99"/>
              </Node>
            </Node>
          </Node>
        </Node>
      </Node>
    </BinaryTree>
    <BinaryTree type="DecisionTree" boostWeight="1.0000000000000000e+00" itree="9">
      <Node pos="s" depth="0" NCoef="0" IVar="1" Cut="1.6820203781127930e+01" cType="0" res="-2.2081179544329643e-02" rms="2.1408964693546295e-01" purity="8.5985988378524780e-02" nType="0">
        <Node pos="l" depth="1" NCoef="0" IVar="2" Cut="3.4535527229309082e-01" cType="0" res="1.2276606634259224e-02" rms="3.5351875424385071e-01" purity="5.4036009311676025e-01" nType="0">
          <Node pos="l" depth="2" NCoef="0" IVar="1" Cut="3.4470401763916016e+01" cType="0" res="2.0296376198530197e-02" rms="3.3546945452690125e-01" purity="5.6460851430892944e-01" nType="0">
            <Node pos="l" depth="3" NCoef="0" IVar="1" Cut="7.0673248291015625e+01" cType="0" res="4.1432369500398636e-02" rms="2.7772682905197144e-01" purity="8.8435119390487671e-01" nType="0">
              <Node pos="l" depth="4" NCoef="0" IVar="1" Cut="1.1894387817382812e+02" cType="0" res="4.7427702695131302e-02" rms="2.0570190250873566e-01" purity="9.4857895374298096e-01" nType="0">
                <Node pos="l" depth="5" NCoef="0" IVar="-1" Cut="0.0000000000000000e+00" cType="1" res="1.1393723636865616e-01" rms="1.6578309237957001e-01" purity="9.7007656097412109e-01" nType="-99"/>
                <Node pos="r" depth="5" NCoef="0" IVar="-1" Cut="0.0000000000000000e+00" cType="1" res="7.3261260986328125e-02" rms="2.3032480478286743e-01" purity="9.3294537067413330e-01" nType="-99"/>
              </Node>
              <Node pos="r" depth="4" NCoef="0" IVar="-1" Cut="0.0000000000000000e+00" cType="1" res="2.9802002012729645e-02" rms="3.7347161769866943e-01" purity="7.6900815963745117e-01" nType="-99"/>
            </Node>
            <Node pos="r" depth="3" NCoef="0" IVar="2" Cut="1.4213821887969971e+00" cType="0" res="-1.8285430269315839e-03" rms="3.8554745912551880e-01" purity="2.2990544140338898e-01" nType="0">
              <Node pos="l" depth="4" NCoef="0" IVar="-1" Cut="0.0000000000000000e+00" cType="1" res="-2.9496436938643456e-02" rms="4.2285141348838806e-01" purity="3.2003653049468994e-01" nType="-99"/>
              <Node pos="r" depth="4" NCoef="0" IVar="0" Cut="8.9977055788040161e-01" cType="0" res="1.6000131145119667e-02" rms="3.6502686142921448e-01" purity="1.8680839240550995e-01" nType="0">
                <Node pos="l" depth="5" NCoef="0" IVar="-1" Cut="0.0000000000000000e+00" cType="1" res="5.0418283790349960e-02" rms="4.2675319314002991e-01" purity="2.8868052363395691e-01" nType="-99"/>
                <Node pos="r" depth="5" NCoef="0" IVar="-1" Cut="0.0000000000000000e+00" cType="1" res="-2.0600283518433571e-02" rms="3.0578324198722839e-01" purity="1.0844925045967102e-01" nType="-99"/>
              </Node>
            </Node>
          </Node>
          <Node pos="r" depth="2" NCoef="0" IVar="-1" Cut="0.0000000000000000e+00" cType="1" res="-3.1987108290195465e-02" rms="4.5913031697273254e-01" purity="3.6559140682220459e-01" nType="-99"/>
        </Node>
        <Node pos="r" depth="1" NCoef="0" IVar="0" Cut="9.6618050336837769e-01" cType="0" res="-2.5555826723575592e-02" rms="1.9416300952434540e-01" purity="4.0034532546997070e-02" nType="0">
          <Node pos="l" depth="2" NCoef="0" IVar="1" Cut="5.4341793060302734e+00" cType="0" res="-2.0439522340893745e-02" rms="2.3871760070323944e-01" purity="6.2338095158338547e-02" nType="0">
            <Node pos="l" depth="3" NCoef="0" IVar="2" Cut="8.0989253520965576e-01" cType="1" res="-1.1983076110482216e-02" rms="2.8677761554718018e-01" purity="9.3590922653675079e-02" nType="0">
              <Node pos="l" depth="4" NCoef="0" IVar="0" Cut="1.1727986335754395e+00" cType="0" res="1.4393577352166176e-02" rms="2.9584825038909912e-01" purity="9.9811971187591553e-02" nType="0">
                <Node pos="l" depth="5" NCoef="0" IVar="-1" Cut="0.0000000000000000e+00" cType="1" res="6.2320828437805176e-02" rms="3.2782888412475586e-01" purity="1.2721584737300873e-01" nType="-99"/>
                <Node pos="r" depth="5" NCoef="0" IVar="-1" Cut="0.0000000000000000e+00" cType="1" res="-4.6320422552525997e-03" rms="2.6559227705001831e-01" purity="7.7318117022514343e-02" nType="-99"/>
              </Node>
              <Node pos="r" depth="4" NCoef="0" IVar="0" Cut="1.6155750751495361e+00" cType="0" res="-2.1556314080953598e-02" rms="2.8280588984489441e-01" purity="9.1333031654357910e-02" nType="0">
                <Node pos="l" depth="5" NCoef="0" IVar="-1" Cut="0.0000000000000000e+00" cType="1" res="-1.5709264203906059e-02" rms="3.1967929005622864e-01" purity="1.2030472606420517e-01" nType="-99"/>
                <Node pos="r" depth="5" NCoef="0" IVar="-1" Cut="0.0000000000000000e+00" cType="1" res="-6.0120481997728348e-02" rms="2.3221929371356964e-01" purity="5.7666298002004623e-02" nType="-99"/>
              </Node>
            </Node>
            <Node pos="r" depth="3" NCoef="0" IVar="2" Cut="7.9330497980117798e-01" cType="0" res="-2.4642404168844223e-02" rms="2.1066777408123016e-01" purity="4.6805333346128464e-02" nType="0">
              <Node pos="l" depth="4" NCoef="0" IVar="-1" Cut="0.0000000000000000e+00" cType="1" res="-6.8510577082633972e-02" rms="2.1922433376312256e-01" purity="5.1504630595445633e-02" nType="-99"/>
              <Node pos="r" depth="4" NCoef="0" IVar="1" Cut="2.1784796714782715e+00" cType="0" res="-2.3748310282826424e-02" rms="2.0996613800525665e-01" purity="4.6442534774541855e-02" nType="0">
                <Node pos="l" depth="5" NCoef="0" IVar="-1" Cut="0.0000000000000000e+00" cType="1" res="-3.7316966801881790e-02" rms="2.2497650980949402e-01" purity="5.3867924958467484e-02" nType="-99"/>
                <Node pos="r" depth="5" NCoef="0" IVar="-1" Cut="0.0000000000000000e+00" cType="1" res="-6.0108814388513565e-02" rms="2.0502918958663940e-01" purity="4.4138737022876740e-02" nType="-99"/>
              </Node>
            </Node>
          </Node>
          <Node pos="r" depth="2" NCoef="0" IVar="2" Cut="7.7680242061614990e-01" cType="1" res="-2.7838662266731262e-02" rms="1.7051929235458374e-01" purity="3.0082948505878448e-02" nType="0">
            <Node pos="l" depth="3" NCoef="0" IVar="1" Cut="3.8986446857452393e+00" cType="0" res="-2.7432356029748917e-02" rms="1.7069980502128601e-01" purity="3.0154740437865257e-02" nType="0">
              <Node pos="l" depth="4" NCoef="0" IVar="2" Cut="3.2733571529388428e-01" cType="1" res="-2.3178098723292351e-02" rms="1.9713656604290009e-01" purity="4.0715985000133514e-02" nType="0">
                <Node pos="l" depth="5" NCoef="0" IVar="-1" Cut="0.0000000000000000e+00" cType="1" res="-2.8201876208186150e-02" rms="2.1874777972698212e-01" purity="5.0824176520109177e-02" nType="-99"/>
                <Node pos="r" depth="5" NCoef="0" IVar="-1" Cut="0.0000000000000000e+00" cType="1" res="-6.6086605191230774e-02" rms="1.9067443907260895e-01" purity="3.7956792861223221e-02" nType="-99"/>
              </Node>
              <Node pos="r" depth="4" NCoef="0" IVar="2" Cut="-6.9573545455932617e-01" cType="0" res="-2.9105931520462036e-02" rms="1.5906929969787598e-01" purity="2.6000071316957474e-02" nType="0">
                <Node pos="l" depth="5" NCoef="0" IVar="-1" Cut="0.0000000000000000e+00" cType="1" res="-8.0229826271533966e-02" rms="1.6381791234016418e-01" purity="2.7614599093794823e-02" nType="-99"/>
                <Node pos="r" depth="5" NCoef="0" IVar="-1" Cut="0.0000000000000000e+00" cType="1" res="-9.6734248101711273e-02" rms="1.4189474284648895e-01" purity="2.0570849999785423e-02" nType="-99"/>
              </Node>
            </Node>
            <Node pos="r" depth="3" NCoef="0" IVar="-1" Cut="0.0000000000000000e+00" cType="1" res="-9.4189181923866272e-02" rms="1.6484196484088898e-01" purity="2.8027111664414406e-02" nType="-99"/>
          </Node>
        </Node>
      </Node>
    </BinaryTree>
    <BinaryTree type="DecisionTree" boostWeight="1.0000000000000000e+00" itree="10">
      <Node pos="s" depth="0" NCoef="0" IVar="0" Cut="5.9622311592102051e+00" cType="0" res="-1.5882605686783791e-02" rms="2.1367435157299042e-01" purity="8.5985988378524780e-02" nType="0">
        <Node pos="l" depth="1" NCoef="0" IVar="-1" Cut="0.0000000000000000e+00" cType="1" res="9.8733745515346527e-02" rms="2.2075712680816650e-01" purity="8.7585824728012085e-01" nType="-99"/>
        <Node pos="r" depth="1" NCoef="0" IVar="1" Cut="8.7898590087890625e+01" cType="0" res="-1.7254214733839035e-02" rms="2.1330976486206055e-01" purity="6.9111108779907227e-02" nType="0">
          <Node pos="l" depth="2" NCoef="0" IVar="-1" Cut="0.0000000000000000e+00" cType="1" res="3.8485266268253326e-02" rms="3.2676827907562256e-01" purity="8.2683217525482178e-01" nType="-99"/>
          <Node pos="r" depth="2" NCoef="0" IVar="2" Cut="2.3566017150878906e+00" cType="0" res="-1.7932007089257240e-02" rms="2.1126660704612732e-01" purity="5.8807693421840668e-02" nType="0">
            <Node pos="l" depth="3" NCoef="0" IVar="-1" Cut="0.0000000000000000e+00" cType="1" res="-5.6044235825538635e-02" rms="3.6005824804306030e-01" purity="3.1228312849998474e-01" nType="-99"/>
            <Node pos="r" depth="3" NCoef="0" IVar="0" Cut="2.2541222572326660e+00" cType="0" res="-1.7450580373406410e-02" rms="2.0884820818901062e-01" purity="5.5837873369455338e-02" nType="0">
              <Node pos="l" depth="4" NCoef="0" IVar="1" Cut="7.4338631629943848e+00" cType="0" res="7.5040063820779324e-03" rms="3.1070250272750854e-01" purity="2.0833708345890045e-01" nType="0">
                <Node pos="l" depth="5" NCoef="0" IVar="-1" Cut="0.0000000000000000e+00" cType="1" res="4.6636842191219330e-02" rms="3.6707875132560730e-01" purity="4.1475296020507812e-01" nType="-99"/>
                <Node pos="r" depth="5" NCoef="0" IVar="-1" Cut="0.0000000000000000e+00" cType="1" res="-2.5881705805659294e-02" rms="2.6674011349678040e-01" purity="7.7859237790107727e-02" nType="-99"/>
              </Node>
              <Node pos="r" depth="4" NCoef="0" IVar="2" Cut="1.2881629467010498e+00" cType="0" res="-1.8633337691426277e-02" rms="2.0267835259437561e-01" purity="4.8609957098960876e-02" nType="0">
                <Node pos="l" depth="5" NCoef="0" IVar="-1" Cut="0.0000000000000000e+00" cType="1" res="-6.0161355882883072e-02" rms="2.8039225935935974e-01" purity="1.1037061363458633e-01" nType="-99"/>
                <Node pos="r" depth="5" NCoef="0" IVar="-1" Cut="0.0000000000000000e+00" cType="1" res="-4.7807417809963226e-02" rms="2.0013253390789032e-01" purity="4.6948581933975220e-02" nType="-99"/>
              </Node>
            </Node>
          </Node>
        </Node>
      </Node>
    </BinaryTree>
    <BinaryTree type="DecisionTree" boostWeight="1.0000000000000000e+00" itree="11">
      <Node pos="s" depth="0" NCoef="0" IVar="1" Cut="1.4757659912109375e+01" cType="0" res="-1.1307214386761189e-02" rms="2.1344135701656342e-01" purity="8.5985988378524780e-02" nType="0">
        <Node pos="l" depth="1" NCoef="0" IVar="0" Cut="7.1852028369903564e-01" cType="0" res="1.1810103431344032e-02" rms="3.4202820062637329e-01" purity="4.7056940197944641e-01" nType="0">
          <Node pos="l" depth="2" NCoef="0" IVar="2" Cut="1.1034009456634521e+00" cType="0" res="1.8600363284349442e-02" rms="3.4327983856201172e-01" purity="5.5440974235534668e-01" nType="0">
            <Node pos="l" depth="3" NCoef="0" IVar="0" Cut="2.9074065685272217e+00" cType="0" res="7.6412330381572247e-03" rms="3.0307337641716003e-01" purity="6.3081306219100952e-01" nType="0">
              <Node pos="l" depth="4" NCoef="0" IVar="2" Cut="3.1308577060699463e+00" cType="0" res="2.7880260720849037e-02" rms="2.5953030586242676e-01" purity="8.4379273653030396e-01" nType="0">
                <Node pos="l" depth="5" NCoef="0" IVar="-1" Cut="0.0000000000000000e+00" cType="1" res="2.5591686367988586e-02" rms="2.4347865581512451e-01" purity="8.5536271333694458e-01" nType="-99"/>
                <Node pos="r" depth="5" NCoef="0" IVar="-1" Cut="0.0000000000000000e+00" cType="1" res="7.2203569114208221e-02" rms="2.7748090028762817e-01" purity="8.2915848493576050e-01" nType="-99"/>
              </Node>
              <Node pos="r" depth="4" NCoef="0" IVar="-1" Cut="0.0000000000000000e+00" cType="1" res="-2.5599392130970955e-02" rms="3.6055088043212891e-01" purity="2.8395062685012817e-01" nType="-99"/>
            </Node>
            <Node pos="r" depth="3" NCoef="0" IVar="1" Cut="3.5643962860107422e+01" cType="0" res="3.3880792558193207e-02" rms="3.9201384782791138e-01" purity="4.4787976145744324e-01" nType="0">
              <Node pos="l" depth="4" NCoef="0" IVar="-1" Cut="0.0000000000000000e+00" cType="1" res="1.3421298936009407e-02" rms="4.0324902534484863e-01" purity="7.1837109327316284e-01" nType="-99"/>
              <Node pos="r" depth="4" NCoef="0" IVar="-1" Cut="0.0000000000000000e+00" cType="1" res="6.1615765094757080e-02" rms="3.8106325268745422e-01" purity="2.0873786509037018e-01" nType="-99"/>
            </Node>
          </Node>
          <Node pos="r" depth="2" NCoef="0" IVar="2" Cut="4.8697146773338318e-01" cType="1" res="-1.4314297586679459e-02" rms="3.3589181303977966e-01" purity="1.4800758659839630e-01" nType="0">
            <Node pos="l" depth="3" NCoef="0" IVar="-1" Cut="0.0000000000000000e+00" cType="1" res="-5.6879891781136394e-04" rms="4.0527337789535522e-01" purity="2.2514520585536957e-01" nType="-99"/>
            <Node pos="r" depth="3" NCoef="0" IVar="-1" Cut="0.0000000000000000e+00" cType="1" res="-5.1082141697406769e-02" rms="2.4493017792701721e-01" purity="6.9337978959083557e-02" nType="-99"/>
          </Node>
        </Node>
        <Node pos="r" depth="1" NCoef="0" IVar="0" Cut="7.7970868349075317e-01" cType="0" res="-1.4137268997728825e-02" rms="1.9167603552341461e-01" purity="3.8904741406440735e-02" nType="0">
          <Node pos="l" depth="2" NCoef="0" IVar="2" Cut="1.4898808002471924e+00" cType="0" res="-1.1158894747495651e-02" rms="2.1928745508193970e-01" purity="5.1806479692459106e-02" nType="0">
            <Node pos="l" depth="3" NCoef="0" IVar="-1" Cut="0.0000000000000000e+00" cType="1" res="-4.2517263442277908e-02" rms="2.8751903772354126e-01" purity="9.6054568886756897e-02" nType="-99"/>
            <Node pos="r" depth="3" NCoef="0" IVar="1" Cut="8.8001346588134766e+00" cType="0" res="-1.0107571259140968e-02" rms="2.1494096517562866e-01" purity="4.9419067800045013e-02" nType="0">
              <Node pos="l" depth="4" NCoef="0" IVar="2" Cut="7.1201664209365845e-01" cType="1" res="5.9917098842561245e-03" rms="2.7606067061424255e-01" purity="8.6009994149208069e-02" nType="0">
                <Node pos="l" depth="5" NCoef="0" IVar="-1" Cut="0.0000000000000000e+00" cType="1" res="7.2191439568996429e-02" rms="3.0133789777755737e-01" purity="1.0393646359443665e-01" nType="-99"/>
                <Node pos="r" depth="5" NCoef="0" IVar="-1" Cut="0.0000000000000000e+00" cType="1" res="-6.1050131916999817e-03" rms="2.6609691977500916e-01" purity="7.9764194786548615e-02" nType="-99"/>
              </Node>
              <Node pos="r" depth="4" NCoef="0" IVar="1" Cut="2.1951031684875488e+00" cType="0" res="-1.2127731926739216e-02" rms="2.0590612292289734e-01" purity="4.4827587902545929e-02" nType="0">
                <Node pos="l" depth="5" NCoef="0" IVar="-1" Cut="0.0000000000000000e+00" cType="1" res="-2.1166868507862091e-02" rms="2.2501303255558014e-01" purity="5.4321639239788055e-02" nType="-99"/>
                <Node pos="r" depth="5" NCoef="0" IVar="-1" Cut="0.0000000000000000e+00" cType="1" res="-4.3149124830961227e-02" rms="1.9316500425338745e-01" purity="3.8981948047876358e-02" nType="-99"/>
              </Node>
            </Node>
          </Node>
          <Node pos="r" depth="2" NCoef="0" IVar="0" Cut="6.3908541202545166e-01" cType="0" res="-1.6690732911229134e-02" rms="1.6430810093879700e-01" purity="2.7843635529279709e-02" nType="0">
            <Node pos="l" depth="3" NCoef="0" IVar="1" Cut="-5.4201799631118774e-01" cType="0" res="-1.4447625726461411e-02" rms="1.7148590087890625e-01" purity="3.0403900891542435e-02" nType="0">
              <Node pos="l" depth="4" NCoef="0" IVar="2" Cut="4.9853187799453735e-01" cType="1" res="-1.2353133410215378e-02" rms="1.8309788405895233e-01" purity="3.4823089838027954e-02" nType="0">
                <Node pos="l" depth="5" NCoef="0" IVar="-1" Cut="0.0000000000000000e+00" cType="1" res="-3.2233372330665588e-02" rms="1.8837295472621918e-01" purity="3.6953397095203400e-02" nType="-99"/>
                <Node pos="r" depth="5" NCoef="0" IVar="-1" Cut="0.0000000000000000e+00" cType="1" res="-6.3904322683811188e-02" rms="1.6811889410018921e-01" purity="2.9188161715865135e-02" nType="-99"/>
              </Node>
              <Node pos="r" depth="4" NCoef="0" IVar="1" Cut="-1.0229602813720703e+01" cType="1" res="-1.7215883359313011e-02" rms="1.5476439893245697e-01" purity="2.4563129991292953e-02" nType="0">
                <Node pos="l" depth="5" NCoef="0" IVar="-1" Cut="0.0000000000000000e+00" cType="1" res="-4.9854639917612076e-02" rms="1.6262961924076080e-01" purity="2.7192749083042145e-02" nType="-99"/>
                <Node pos="r" depth="5" NCoef="0" IVar="-1" Cut="0.0000000000000000e+00" cType="1" res="-6.7659184336662292e-02" rms="1.5290895104408264e-01" purity="2.3967640474438667e-02" nType="-99"/>
              </Node>
            </Node>
            <Node pos="r" depth="3" NCoef="0" IVar="2" Cut="5.0659728050231934e-01" cType="1" res="-1.8075173720717430e-02" rms="1.5970136225223541e-01" purity="2.6263445615768433e-02" nType="0">
              <Node pos="l" depth="4" NCoef="0" IVar="1" Cut="7.3237953186035156e+00" cType="0" res="-1.7587482929229736e-02" rms="1.5970966219902039e-01" purity="2.6277579367160797e-02" nType="0">
                <Node pos="l" depth="5" NCoef="0" IVar="-1" Cut="0.0000000000000000e+00" cType="1" res="-2.6248408481478691e-02" rms="2.1698014438152313e-01" purity="4.9769282341003418e-02" nType="-99"/>
                <Node pos="r" depth="5" NCoef="0" IVar="-1" Cut="0.0000000000000000e+00" cType="1" res="-6.7743472754955292e-02" rms="1.5317067503929138e-01" purity="2.4056589230895042e-02" nType="-99"/>
              </Node>
              <Node pos="r" depth="4" NCoef="0" IVar="1" Cut="8.4942073822021484e+00" cType="1" res="-2.3629674687981606e-02" rms="1.5950162708759308e-01" purity="2.6102464646100998e-02" nType="0">
                <Node pos="l" depth="5" NCoef="0" IVar="-1" Cut="0.0000000000000000e+00" cType="1" res="-6.4121358096599579e-02" rms="1.5960794687271118e-01" purity="2.6187151670455933e-02" nType="-99"/>
                <Node pos="r" depth="5" NCoef="0" IVar="-1" Cut="0.0000000000000000e+00" cType="1" res="-8.2831196486949921e-02" rms="1.5925337374210358e-01" purity="2.6029055938124657e-02" nType="-99"/>
              </Node>
            </Node>
          </Node>
        </Node>
      </Node>
    </BinaryTree>
    <BinaryTree type="DecisionTree" boostWeight="1.0000000000000000e+00" itree="12">
      <Node pos="s" depth="0" NCoef="0" IVar="0" Cut="6.8361878395080566e+00" cType="0" res="-8.1136627122759819e-03" rms="2.1316795051097870e-01" purity="8.5985988378524780e-02" nType="0">
        <Node pos="l" depth="1" NCoef="0" IVar="-1" Cut="0.0000000000000000e+00" cType="1" res="9.1925963759422302e-02" rms="2.0225711166858673e-01" purity="9.0663808584213257e-01" nType="-99"/>
        <Node pos="r" depth="1" NCoef="0" IVar="1" Cut="1.2695117950439453e+01" cType="0" res="-8.9416662231087685e-03" rms="2.1327547729015350e-01" purity="7.0835888385772705e-02" nType="0">
          <Node pos="l" depth="2" NCoef="0" IVar="2" Cut="1.8666664361953735e+00" cType="0" res="2.8211483731865883e-03" rms="3.4559568762779236e-01" purity="3.1891047954559326e-01" nType="0">
            <Node pos="l" depth="3" NCoef="0" IVar="-1" Cut="0.0000000000000000e+00" cType="1" res="-2.8169279918074608e-02" rms="3.5433301329612732e-01" purity="4.5890262722969055e-01" nType="-99"/>
            <Node pos="r" depth="3" NCoef="0" IVar="0" Cut="1.6900202035903931e+00" cType="0" res="8.1635946407914162e-03" rms="3.4371873736381531e-01" purity="2.9355382919311523e-01" nType="0">
              <Node pos="l" depth="4" NCoef="0" IVar="-1" Cut="0.0000000000000000e+00" cType="1" res="5.6088976562023163e-02" rms="3.4507340192794800e-01" purity="6.6847509145736694e-01" nType="-99"/>
              <Node pos="r" depth="4" NCoef="0" IVar="2" Cut="1.0072724819183350e+00" cType="1" res="-1.2170480331405997e-03" rms="3.4274080395698547e-01" purity="1.9821639358997345e-01" nType="0">
                <Node pos="l" depth="5" NCoef="0" IVar="-1" Cut="0.0000000000000000e+00" cType="1" res="8.0383671447634697e-03" rms="3.5242724418640137e-01" purity="2.1500730514526367e-01" nType="-99"/>
                <Node pos="r" depth="5" NCoef="0" IVar="-1" Cut="0.0000000000000000e+00" cType="1" res="-4.4963974505662918e-02" rms="2.9581493139266968e-01" purity="1.2681159377098083e-01" nType="-99"/>
              </Node>
            </Node>
          </Node>
          <Node pos="r" depth="2" NCoef="0" IVar="2" Cut="1.4923335313796997e+00" cType="0" res="-1.0528427548706532e-02" rms="1.8838700652122498e-01" purity="3.7371519953012466e-02" nType="0">
            <Node pos="l" depth="3" NCoef="0" IVar="-1" Cut="0.0000000000000000e+00" cType="1" res="-4.3742340058088303e-02" rms="2.7031654119491577e-01" purity="8.2469135522842407e-02" nType="-99"/>
            <Node pos="r" depth="3" NCoef="0" IVar="0" Cut="1.5041180849075317e+00" cType="0" res="-1.0201580822467804e-02" rms="1.8651622533798218e-01" purity="3.6536943167448044e-02" nType="0">
              <Node pos="l" depth="4" NCoef="0" IVar="1" Cut="5.6569118499755859e+00" cType="0" res="-6.8889511749148369e-04" rms="2.5422215461730957e-01" purity="7.1149788796901703e-02" nType="0">
                <Node pos="l" depth="5" NCoef="0" IVar="-1" Cut="0.0000000000000000e+00" cType="1" res="3.3714465796947479e-02" rms="3.2185959815979004e-01" purity="1.2128662317991257e-01" nType="-99"/>
                <Node pos="r" depth="5" NCoef="0" IVar="-1" Cut="0.0000000000000000e+00" cType="1" res="-1.6592690721154213e-02" rms="2.3140333592891693e-01" purity="5.7093624025583267e-02" nType="-99"/>
              </Node>
              <Node pos="r" depth="4" NCoef="0" IVar="2" Cut="6.1360239982604980e-01" cType="0" res="-1.1280394159257412e-02" rms="1.7717990279197693e-01" purity="3.2611571252346039e-02" nType="0">
                <Node pos="l" depth="5" NCoef="0" IVar="-1" Cut="0.0000000000000000e+00" cType="1" res="-4.9044601619243622e-02" rms="1.9255687296390533e-01" purity="3.8872174918651581e-02" nType="-99"/>
                <Node pos="r" depth="5" NCoef="0" IVar="-1" Cut="0.0000000000000000e+00" cType="1" res="-3.9095290005207062e-02" rms="1.7527754604816437e-01" purity="3.1878374516963959e-02" nType="-99"/>
              </Node>
            </Node>
          </Node>
        </Node>
      </Node>
    </BinaryTree>
    <BinaryTree type="DecisionTree" boostWeight="1.0000000000000000e+00" itree="13">
      <Node pos="s" depth="0" NCoef="0" IVar="0" Cut="4.8697848320007324e+00" cType="0" res="-5.7788342237472534e-03" rms="2.1294854581356049e-01" purity="8.5985988378524780e-02" nType="0">
        <Node pos="l" depth="1" NCoef="0" IVar="2" Cut="4.0021028518676758e+00" cType="0" res="2.2725712507963181e-02" rms="2.4437482655048370e-01" purity="8.0941176414489746e-01" nType="0">
          <Node pos="l" depth="2" NCoef="0" IVar="-1" Cut="0.0000000000000000e+00" cType="1" res="1.7416838556528091e-02" rms="2.1330687403678894e-01" purity="8.9209276437759399e-01" nType="-99"/>
          <Node pos="r" depth="2" NCoef="0" IVar="-1" Cut="0.0000000000000000e+00" cType="1" res="6.9199271500110626e-02" rms="2.7052071690559387e-01" purity="7.2846335172653198e-01" nType="-99"/>
        </Node>
        <Node pos="r" depth="1" NCoef="0" IVar="2" Cut="2.1999342441558838e+00" cType="0" res="-6.5515767782926559e-03" rms="2.1197839081287384e-01" purity="6.6374309360980988e-02" nType="0">
          <Node pos="l" depth="2" NCoef="0" IVar="-1" Cut="0.0000000000000000e+00" cType="1" res="-4.2802687734365463e-02" rms="3.4421959519386292e-01" purity="2.8414022922515869e-01" nType="-99"/>
          <Node pos="r" depth="2" NCoef="0" IVar="1" Cut="1.0156603813171387e+01" cType="0" res="-6.1462931334972382e-03" rms="2.0983862876892090e-01" purity="6.3742734491825104e-02" nType="0">
            <Node pos="l" depth="3" NCoef="0" IVar="0" Cut="6.4631247520446777e-01" cType="0" res="3.0224977526813745e-03" rms="3.1969711184501648e-01" purity="2.2474448382854462e-01" nType="0">
              <Node pos="l" depth="4" NCoef="0" IVar="2" Cut="7.5826054811477661e-01" cType="1" res="8.6737861856818199e-03" rms="3.3361354470252991e-01" purity="2.6737609505653381e-01" nType="0">
                <Node pos="l" depth="5" NCoef="0" IVar="-1" Cut="0.0000000000000000e+00" cType="1" res="2.6071574538946152e-02" rms="3.6396151781082153e-01" purity="2.9728260636329651e-01" nType="-99"/>
                <Node pos="r" depth="5" NCoef="0" IVar="-1" Cut="0.0000000000000000e+00" cType="1" res="1.4095512451604009e-03" rms="3.1240174174308777e-01" purity="2.4823147058486938e-01" nType="-99"/>
              </Node>
              <Node pos="r" depth="4" NCoef="0" IVar="2" Cut="5.4507285356521606e-01" cType="1" res="-1.4950557611882687e-02" rms="2.6993831992149353e-01" purity="8.9161232113838196e-02" nType="0">
                <Node pos="l" depth="5" NCoef="0" IVar="-1" Cut="0.0000000000000000e+00" cType="1" res="-1.3455583713948727e-02" rms="3.0926698446273804e-01" purity="1.2020003795623779e-01" nType="-99"/>
                <Node pos="r" depth="5" NCoef="0" IVar="-1" Cut="0.0000000000000000e+00" cType="1" res="-6.7389748990535736e-02" rms="1.8434935808181763e-01" purity="3.6418817937374115e-02" nType="-99"/>
              </Node>
            </Node>
            <Node pos="r" depth="3" NCoef="0" IVar="0" Cut="2.5783870220184326e+00" cType="0" res="-7.7645196579396725e-03" rms="1.8370491266250610e-01" purity="3.5327065736055374e-02" nType="0">
              <Node pos="l" depth="4" NCoef="0" IVar="-1" Cut="0.0000000000000000e+00" cType="1" res="1.1673117987811565e-02" rms="2.9077193140983582e-01" purity="9.5545381307601929e-02" nType="-99"/>
              <Node pos="r" depth="4" NCoef="0" IVar="2" Cut="1.0836540460586548e+00" cType="0" res="-8.0920923501253128e-03" rms="1.8043631315231323e-01" purity="3.3921770751476288e-02" nType="0">
                <Node pos="l" depth="5" NCoef="0" IVar="-1" Cut="0.0000000000000000e+00" cType="1" res="-5.3475357592105865e-02" rms="2.1015840768814087e-01" purity="4.6586517244577408e-02" nType="-99"/>
                <Node pos="r" depth="5" NCoef="0" IVar="-1" Cut="0.0000000000000000e+00" cType="1" res="-2.9389383271336555e-02" rms="1.7967560887336731e-01" purity="3.3628564327955246e-02" nType="-99"/>
              </Node>
            </Node>
          </Node>
        </Node>
      </Node>
    </BinaryTree>
    <BinaryTree type="DecisionTree" boostWeight="1.0000000000000000e+00" itree="14">
      <Node pos="s" depth="0" NCoef="0" IVar="0" Cut="1.0768993377685547e+01" cType="0" res="-4.1089127771556377e-03" rms="2.1282687783241272e-01" purity="8.5985988378524780e-02" nType="0">
        <Node pos="l" depth="1" NCoef="0" IVar="-1" Cut="0.0000000000000000e+00" cType="1" res="1.2222375720739365e-01" rms="1.4903409779071808e-01" purity="9.7034484148025513e-01" nType="-99"/>
        <Node pos="r" depth="1" NCoef="0" IVar="2" Cut="2.8340260982513428e+00" cType="0" res="-4.5343944802880287e-03" rms="2.1340571343898773e-01" purity="7.5918108224868774e-02" nType="0">
          <Node pos="l" depth="2" NCoef="0" IVar="-1" Cut="0.0000000000000000e+00" cType="1" res="-4.0732681751251221e-02" rms="3.3303484320640564e-01" purity="5.5492299795150757e-01" nType="-99"/>
          <Node pos="r" depth="2" NCoef="0" IVar="0" Cut="1.3928318023681641e+00" cType="0" res="-4.1810213588178158e-03" rms="2.1155610680580139e-01" purity="7.0236623287200928e-02" nType="0">
            <Node pos="l" depth="3" NCoef="0" IVar="1" Cut="1.1817181587219238e+01" cType="0" res="4.4212080538272858e-03" rms="2.7986592054367065e-01" purity="1.9845472276210785e-01" nType="0">
              <Node pos="l" depth="4" NCoef="0" IVar="2" Cut="1.2901607751846313e+00" cType="1" res="1.7967373132705688e-02" rms="3.4494659304618835e-01" purity="5.3645378351211548e-01" nType="0">
                <Node pos="l" depth="5" NCoef="0" IVar="-1" Cut="0.0000000000000000e+00" cType="1" res="4.4042002409696579e-02" rms="3.6838716268539429e-01" purity="6.6900092363357544e-01" nType="-99"/>
                <Node pos="r" depth="5" NCoef="0" IVar="-1" Cut="0.0000000000000000e+00" cType="1" res="8.8102957233786583e-03" rms="3.2973656058311462e-01" purity="4.5769762992858887e-01" nType="-99"/>
              </Node>
              <Node pos="r" depth="4" NCoef="0" IVar="2" Cut="1.3333632946014404e+00" cType="0" res="-7.5979897519573569e-04" rms="2.5035062432289124e-01" purity="6.9180086255073547e-02" nType="0">
                <Node pos="l" depth="5" NCoef="0" IVar="-1" Cut="0.0000000000000000e+00" cType="1" res="-2.5835154578089714e-02" rms="2.7355667948722839e-01" purity="8.5209004580974579e-02" nType="-99"/>
                <Node pos="r" depth="5" NCoef="0" IVar="-1" Cut="0.0000000000000000e+00" cType="1" res="4.2509492486715317e-03" rms="2.4611768126487732e-01" purity="6.6464319825172424e-02" nType="-99"/>
              </Node>
            </Node>
            <Node pos="r" depth="3" NCoef="0" IVar="2" Cut="9.9918305873870850e-01" cType="0" res="-5.8812261559069157e-03" rms="1.9520160555839539e-01" purity="4.4894695281982422e-02" nType="0">
              <Node pos="l" depth="4" NCoef="0" IVar="1" Cut="1.2060386657714844e+01" cType="0" res="-2.4081297218799591e-02" rms="2.2531767189502716e-01" purity="5.8804094791412354e-02" nType="0">
                <Node pos="l" depth="5" NCoef="0" IVar="-1" Cut="0.0000000000000000e+00" cType="1" res="-5.8457557111978531e-02" rms="2.5814780592918396e-01" purity="8.1967212259769440e-02" nType="-99"/>
                <Node pos="r" depth="5" NCoef="0" IVar="-1" Cut="0.0000000000000000e+00" cType="1" res="-3.7990797311067581e-02" rms="1.8864275515079498e-01" purity="3.7108127027750015e-02" nType="-99"/>
              </Node>
              <Node pos="r" depth="4" NCoef="0" IVar="0" Cut="8.6899405717849731e-01" cType="0" res="-5.3415065631270409e-03" rms="1.9421121478080750e-01" purity="4.4482216238975525e-02" nType="0">
                <Node pos="l" depth="5" NCoef="0" IVar="-1" Cut="0.0000000000000000e+00" cType="1" res="-1.4936034567654133e-03" rms="2.2686693072319031e-01" purity="6.7650310695171356e-02" nType="-99"/>
                <Node pos="r" depth="5" NCoef="0" IVar="-1" Cut="0.0000000000000000e+00" cType="1" res="-2.6974506676197052e-02" rms="1.8120463192462921e-01" purity="3.6273896694183350e-02" nType="-99"/>
              </Node>
            </Node>
          </Node>
        </Node>
      </Node>
    </BinaryTree>
    <BinaryTree type="DecisionTree" boostWeight="1.0000000000000000e+00" itree="15">
      <Node pos="s" depth="0" NCoef="0" IVar="1" Cut="6.6661472320556641e+00" cType="0" res="-2.9037697240710258e-03" rms="2.1268790960311890e-01" purity="8.5985988378524780e-02" nType="0">
        <Node pos="l" depth="1" NCoef="0" IVar="0" Cut="3.7773430347442627e+00" cType="0" res="2.5114179588854313e-03" rms="2.8171268105506897e-01" purity="2.2180680930614471e-01" nType="0">
          <Node pos="l" depth="2" NCoef="0" IVar="2" Cut="3.1676557064056396e+00" cType="0" res="1.7917886376380920e-02" rms="2.5580388307571411e-01" purity="8.0462342500686646e-01" nType="0">
            <Node pos="l" depth="3" NCoef="0" IVar="-1" Cut="0.0000000000000000e+00" cType="1" res="-1.6878059832379222e-03" rms="2.4136610329151154e-01" purity="8.2895022630691528e-01" nType="-99"/>
            <Node pos="r" depth="3" NCoef="0" IVar="-1" Cut="0.0000000000000000e+00" cType="1" res="7.9943209886550903e-02" rms="2.7189624309539795e-01" purity="7.7213352918624878e-01" nType="-99"/>
          </Node>
          <Node pos="r" depth="2" NCoef="0" IVar="2" Cut="1.7797119617462158e+00" cType="0" res="5.7162618031725287e-04" rms="2.8474873304367065e-01" purity="1.4842575788497925e-01" nType="0">
            <Node pos="l" depth="3" NCoef="0" IVar="-1" Cut="0.0000000000000000e+00" cType="1" res="-3.5775929689407349e-02" rms="3.2585188746452332e-01" purity="2.2448037564754486e-01" nType="-99"/>
            <Node pos="r" depth="3" NCoef="0" IVar="2" Cut="2.6444041728973389e-01" cType="1" res="2.7922138106077909e-03" rms="2.8139811754226685e-01" purity="1.4289790391921997e-01" nType="0">
              <Node pos="l" depth="4" NCoef="0" IVar="-1" Cut="0.0000000000000000e+00" cType="1" res="-2.8869265690445900e-02" rms="4.1379347443580627e-01" purity="2.5521558523178101e-01" nType="-99"/>
              <Node pos="r" depth="4" NCoef="0" IVar="1" Cut="1.8101472854614258e+01" cType="0" res="4.5386613346636295e-03" rms="2.7286073565483093e-01" purity="1.3720060884952545e-01" nType="0">
                <Node pos="l" depth="5" NCoef="0" IVar="-1" Cut="0.0000000000000000e+00" cType="1" res="2.0370475947856903e-02" rms="3.8642716407775879e-01" purity="4.4065096974372864e-01" nType="-99"/>
                <Node pos="r" depth="5" NCoef="0" IVar="-1" Cut="0.0000000000000000e+00" cType="1" res="1.9402266480028629e-03" rms="2.3607444763183594e-01" purity="6.1618786305189133e-02" nType="-99"/>
              </Node>
            </Node>
          </Node>
        </Node>
        <Node pos="r" depth="1" NCoef="0" IVar="2" Cut="-6.8750447034835815e-01" cType="0" res="-5.0020692870020866e-03" rms="1.7887744307518005e-01" purity="3.3357568085193634e-02" nType="0">
          <Node pos="l" depth="2" NCoef="0" IVar="2" Cut="4.5215272903442383e-01" cType="0" res="-4.0469639934599400e-03" rms="1.8312422931194305e-01" purity="3.5026837140321732e-02" nType="0">
            <Node pos="l" depth="3" NCoef="0" IVar="1" Cut="3.6150250434875488e+00" cType="0" res="-8.5923736914992332e-03" rms="2.0213019847869873e-01" purity="4.3649941682815552e-02" nType="0">
              <Node pos="l" depth="4" NCoef="0" IVar="0" Cut="1.8359584808349609e+00" cType="0" res="-5.9379129670560360e-03" rms="2.0646895468235016e-01" purity="4.5605354011058807e-02" nType="0">
                <Node pos="l" depth="5" NCoef="0" IVar="-1" Cut="0.0000000000000000e+00" cType="1" res="1.6293259337544441e-02" rms="2.8590309619903564e-01" purity="9.1946735978126526e-02" nType="-99"/>
                <Node pos="r" depth="5" NCoef="0" IVar="-1" Cut="0.0000000000000000e+00" cType="1" res="-3.1765624880790710e-02" rms="1.8478260934352875e-01" purity="3.5614192485809326e-02" nType="-99"/>
              </Node>
              <Node pos="r" depth="4" NCoef="0" IVar="-1" Cut="0.0000000000000000e+00" cType="1" res="-5.0610952079296112e-02" rms="1.8720391392707825e-01" purity="3.7345901131629944e-02" nType="-99"/>
            </Node>
            <Node pos="r" depth="3" NCoef="0" IVar="0" Cut="7.1023827791213989e-01" cType="0" res="-3.1984869856387377e-03" rms="1.7934076488018036e-01" purity="3.3417191356420517e-02" nType="0">
              <Node pos="l" depth="4" NCoef="0" IVar="1" Cut="4.6469569206237793e+00" cType="0" res="-5.3248077165335417e-04" rms="1.9865754246711731e-01" purity="4.1348677128553391e-02" nType="0">
                <Node pos="l" depth="5" NCoef="0" IVar="-1" Cut="0.0000000000000000e+00" cType="1" res="7.0117235183715820e-02" rms="2.4195827543735504e-01" purity="6.2912754714488983e-02" nType="-99"/>
                <Node pos="r" depth="5" NCoef="0" IVar="-1" Cut="0.0000000000000000e+00" cType="1" res="-5.8881859295070171e-03" rms="1.9609402120113373e-01" purity="4.0229469537734985e-02" nType="-99"/>
              </Node>
              <Node pos="r" depth="4" NCoef="0" IVar="1" Cut="4.5808005332946777e+00" cType="0" res="-5.5358675308525562e-03" rms="1.6046729683876038e-01" purity="2.6463380083441734e-02" nType="0">
                <Node pos="l" depth="5" NCoef="0" IVar="-1" Cut="0.0000000000000000e+00" cType="1" res="-7.3653585277497768e-03" rms="1.8048296868801117e-01" purity="3.3730734139680862e-02" nType="-99"/>
                <Node pos="r" depth="5" NCoef="0" IVar="-1" Cut="0.0000000000000000e+00" cType="1" res="-2.9314417392015457e-02" rms="1.5798945724964142e-01" purity="2.5625115260481834e-02" nType="-99"/>
              </Node>
            </Node>
          </Node>
          <Node pos="r" depth="2" NCoef="0" IVar="2" Cut="-2.3857829570770264e+00" cType="0" res="-8.7674520909786224e-03" rms="1.6099245846271515e-01" purity="2.6776684448122978e-02" nType="0">
            <Node pos="l" depth="3" NCoef="0" IVar="0" Cut="1.1800422668457031e+00" cType="0" res="-8.0061266198754311e-03" rms="1.6117700934410095e-01" purity="2.6885034516453743e-02" nType="0">
              <Node pos="l" depth="4" NCoef="0" IVar="1" Cut="-5.2770514488220215e+00" cType="1" res="-2.3080231621861458e-03" rms="2.1251434087753296e-01" purity="4.7815073281526566e-02" nType="0">
                <Node pos="l" depth="5" NCoef="0" IVar="-1" Cut="0.0000000000000000e+00" cType="1" res="2.4116184562444687e-02" rms="2.2603431344032288e-01" purity="5.4302953183650970e-02" nType="-99"/>
                <Node pos="r" depth="5" NCoef="0" IVar="-1" Cut="0.0000000000000000e+00" cType="1" res="-3.5429187119007111e-02" rms="1.9770602881908417e-01" purity="4.1364066302776337e-02" nType="-99"/>
              </Node>
              <Node pos="r" depth="4" NCoef="0" IVar="2" Cut="-8.1821119785308838e-01" cType="1" res="-9.3028014525771141e-03" rms="1.4698070287704468e-01" purity="2.2122140973806381e-02" nType="0">
                <Node pos="l" depth="5" NCoef="0" IVar="-1" Cut="0.0000000000000000e+00" cType="1" res="-4.1662182658910751e-02" rms="1.4988705515861511e-01" purity="2.3025434464216232e-02" nType="-99"/>
                <Node pos="r" depth="5" NCoef="0" IVar="-1" Cut="0.0000000000000000e+00" cType="1" res="-6.3747406005859375e-02" rms="1.3405428826808929e-01" purity="1.8334891647100449e-02" nType="-99"/>
              </Node>
            </Node>
            <Node pos="r" depth="3" NCoef="0" IVar="-1" Cut="0.0000000000000000e+00" cType="1" res="-6.1136260628700256e-02" rms="1.5899378061294556e-01" purity="2.5721635669469833e-02" nType="-99"/>
          </Node>
        </Node>
      </Node>
    </BinaryTree>
    <BinaryTree type="DecisionTree" boostWeight="1.0000000000000000e+00" itree="16">
      <Node pos="s" depth="0" NCoef="0" IVar="0" Cut="8.5841016769409180e+00" cType="0" res="-2.0803518127650023e-03" rms="2.1250253915786743e-01" purity="8.5985988378524780e-02" nType="0">
        <Node pos="l" depth="1" NCoef="0" IVar="-1" Cut="0.0000000000000000e+00" cType="1" res="8.1591762602329254e-02" rms="1.6253399848937988e-01" purity="9.5060706138610840e-01" nType="-99"/>
        <Node pos="r" depth="1" NCoef="0" IVar="2" Cut="2.5949974060058594e+00" cType="0" res="-2.4273698218166828e-03" rms="2.1311061084270477e-01" purity="7.3650352656841278e-02" nType="0">
          <Node pos="l" depth="2" NCoef="0" IVar="-1" Cut="0.0000000000000000e+00" cType="1" res="-3.2592933624982834e-02" rms="3.4465119242668152e-01" purity="4.6962544322013855e-01" nType="-99"/>
          <Node pos="r" depth="2" NCoef="0" IVar="0" Cut="2.5268242359161377e+00" cType="0" res="-2.0904187113046646e-03" rms="2.1089757978916168e-01" purity="6.8635031580924988e-02" nType="0">
            <Node pos="l" depth="3" NCoef="0" IVar="1" Cut="7.4615483283996582e+00" cType="0" res="1.2530518695712090e-02" rms="2.9624608159065247e-01" purity="3.6337867379188538e-01" nType="0">
              <Node pos="l" depth="4" NCoef="0" IVar="-1" Cut="0.0000000000000000e+00" cType="1" res="4.3198157101869583e-02" rms="3.1169310212135315e-01" purity="6.2006908655166626e-01" nType="-99"/>
              <Node pos="r" depth="4" NCoef="0" IVar="-1" Cut="0.0000000000000000e+00" cType="1" res="-8.7246950715780258e-03" rms="2.7753645181655884e-01" purity="8.5579380393028259e-02" nType="-99"/>
            </Node>
            <Node pos="r" depth="3" NCoef="0" IVar="2" Cut="1.3726502656936646e+00" cType="0" res="-2.7345311827957630e-03" rms="2.0630346238613129e-01" purity="5.5650364607572556e-02" nType="0">
              <Node pos="l" depth="4" NCoef="0" IVar="1" Cut="1.3562647819519043e+01" cType="0" res="-2.0829992368817329e-02" rms="2.9246529936790466e-01" purity="1.3282795250415802e-01" nType="0">
                <Node pos="l" depth="5" NCoef="0" IVar="-1" Cut="0.0000000000000000e+00" cType="1" res="-3.3344618976116180e-02" rms="3.4441286325454712e-01" purity="2.1210061013698578e-01" nType="-99"/>
                <Node pos="r" depth="5" NCoef="0" IVar="-1" Cut="0.0000000000000000e+00" cType="1" res="-2.8946515172719955e-02" rms="2.3293356597423553e-01" purity="5.8221369981765747e-02" nType="-99"/>
              </Node>
              <Node pos="r" depth="4" NCoef="0" IVar="1" Cut="9.3633184432983398e+00" cType="0" res="-2.2656510118395090e-03" rms="2.0356540381908417e-01" purity="5.3650580346584320e-02" nType="0">
                <Node pos="l" depth="5" NCoef="0" IVar="-1" Cut="0.0000000000000000e+00" cType="1" res="5.9879878535866737e-03" rms="3.0977758765220642e-01" purity="1.7147254943847656e-01" nType="-99"/>
                <Node pos="r" depth="5" NCoef="0" IVar="-1" Cut="0.0000000000000000e+00" cType="1" res="-1.4089563861489296e-02" rms="1.7897336184978485e-01" purity="3.3337503671646118e-02" nType="-99"/>
              </Node>
            </Node>
          </Node>
        </Node>
      </Node>
    </BinaryTree>
    <BinaryTree type="DecisionTree" boostWeight="1.0000000000000000e+00" itree="17">
      <Node pos="s" depth="0" NCoef="0" IVar="1" Cut="1.2200987243652344e+02" cType="0" res="-1.4670758973807096e-03" rms="2.1240165829658508e-01" purity="8.5985988378524780e-02" nType="0">
        <Node pos="l" depth="1" NCoef="0" IVar="-1" Cut="0.0000000000000000e+00" cType="1" res="6.0275536030530930e-02" rms="2.0509959757328033e-01" purity="9.4066315889358521e-01" nType="-99"/>
        <Node pos="r" depth="1" NCoef="0" IVar="0" Cut="1.3739577531814575e+00" cType="0" res="-1.7398770432919264e-03" rms="2.1246659755706787e-01" purity="7.6374769210815430e-02" nType="0">
          <Node pos="l" depth="2" NCoef="0" IVar="2" Cut="1.7995085716247559e+00" cType="0" res="2.3839401546865702e-03" rms="2.8131181001663208e-01" purity="2.2590440511703491e-01" nType="0">
            <Node pos="l" depth="3" NCoef="0" IVar="1" Cut="4.0815200805664062e+01" cType="0" res="-7.0267105475068092e-03" rms="3.0656996369361877e-01" purity="4.9821373820304871e-01" nType="0">
              <Node pos="l" depth="4" NCoef="0" IVar="-1" Cut="0.0000000000000000e+00" cType="1" res="4.1472367942333221e-02" rms="1.7724800109863281e-01" purity="9.6477663516998291e-01" nType="-99"/>
              <Node pos="r" depth="4" NCoef="0" IVar="0" Cut="3.1630148887634277e+00" cType="0" res="-1.7415257170796394e-02" rms="3.5823953151702881e-01" purity="2.3980967700481415e-01" nType="0">
                <Node pos="l" depth="5" NCoef="0" IVar="-1" Cut="0.0000000000000000e+00" cType="1" res="-5.7977195829153061e-03" rms="3.9280778169631958e-01" purity="3.3313503861427307e-01" nType="-99"/>
                <Node pos="r" depth="5" NCoef="0" IVar="-1" Cut="0.0000000000000000e+00" cType="1" res="-3.9062220603227615e-02" rms="3.1365409493446350e-01" purity="1.3319741189479828e-01" nType="-99"/>
              </Node>
            </Node>
            <Node pos="r" depth="3" NCoef="0" IVar="1" Cut="4.9509916305541992e+00" cType="0" res="4.9230093136429787e-03" rms="2.7404320240020752e-01" purity="1.5243314206600189e-01" nType="0">
              <Node pos="l" depth="4" NCoef="0" IVar="1" Cut="3.1158863067626953e+01" cType="0" res="1.2686061672866344e-02" rms="3.2861483097076416e-01" purity="2.8399741649627686e-01" nType="0">
                <Node pos="l" depth="5" NCoef="0" IVar="-1" Cut="0.0000000000000000e+00" cType="1" res="-1.8675507977604866e-02" rms="3.3444646000862122e-01" purity="8.4808498620986938e-01" nType="-99"/>
                <Node pos="r" depth="5" NCoef="0" IVar="-1" Cut="0.0000000000000000e+00" cType="1" res="2.9008682817220688e-02" rms="3.2682466506958008e-01" purity="1.4325864613056183e-01" nType="-99"/>
              </Node>
              <Node pos="r" depth="4" NCoef="0" IVar="2" Cut="6.9220930337905884e-01" cType="0" res="-8.9806370669975877e-04" rms="2.2440972924232483e-01" purity="5.3780540823936462e-02" nType="0">
                <Node pos="l" depth="5" NCoef="0" IVar="-1" Cut="0.0000000000000000e+00" cType="1" res="-2.6199040934443474e-02" rms="2.2431704401969910e-01" purity="5.4452054202556610e-02" nType="-99"/>
                <Node pos="r" depth="5" NCoef="0" IVar="-1" Cut="0.0000000000000000e+00" cType="1" res="2.0052716135978699e-03" rms="2.2438615560531616e-01" purity="5.3670573979616165e-02" nType="-99"/>
              </Node>
            </Node>
          </Node>
          <Node pos="r" depth="2" NCoef="0" IVar="2" Cut="6.3668596744537354e-01" cType="0" res="-2.6511161122471094e-03" rms="1.9397360086441040e-01" purity="4.3333236128091812e-02" nType="0">
            <Node pos="l" depth="3" NCoef="0" IVar="0" Cut="1.0616254806518555e+00" cType="0" res="-1.0335391387343407e-02" rms="2.2517760097980499e-01" purity="6.2816888093948364e-02" nType="0">
              <Node pos="l" depth="4" NCoef="0" IVar="2" Cut="9.7215503454208374e-01" cType="1" res="-3.0225035734474659e-03" rms="2.5986164808273315e-01" purity="9.1454803943634033e-02" nType="0">
                <Node pos="l" depth="5" NCoef="0" IVar="-1" Cut="0.0000000000000000e+00" cType="1" res="1.0941755957901478e-02" rms="2.6840749382972717e-01" purity="1.0543863475322723e-01" nType="-99"/>
                <Node pos="r" depth="5" NCoef="0" IVar="-1" Cut="0.0000000000000000e+00" cType="1" res="-2.8543695807456970e-02" rms="2.4791803956031799e-01" purity="7.3302678763866425e-02" nType="-99"/>
              </Node>
              <Node pos="r" depth="4" NCoef="0" IVar="1" Cut="1.5120670318603516e+01" cType="0" res="-1.3918247073888779e-02" rms="2.0596998929977417e-01" purity="4.8786114901304245e-02" nType="0">
                <Node pos="l" depth="5" NCoef="0" IVar="-1" Cut="0.0000000000000000e+00" cType="1" res="-3.9118174463510513e-02" rms="2.8414320945739746e-01" purity="1.0592316091060638e-01" nType="-99"/>
                <Node pos="r" depth="5" NCoef="0" IVar="-1" Cut="0.0000000000000000e+00" cType="1" res="-3.7692993879318237e-02" rms="1.7833104729652405e-01" purity="3.3031705766916275e-02" nType="-99"/>
              </Node>
            </Node>
            <Node pos="r" depth="3" NCoef="0" IVar="2" Cut="2.1129705011844635e-01" cType="0" res="-1.5651670983061194e-03" rms="1.8912395834922791e-01" purity="4.0579788386821747e-02" nType="0">
              <Node pos="l" depth="4" NCoef="0" IVar="1" Cut="1.6877380371093750e+01" cType="0" res="2.5411834940314293e-03" rms="2.1898430585861206e-01" purity="5.8724217116832733e-02" nType="0">
                <Node pos="l" depth="5" NCoef="0" IVar="-1" Cut="0.0000000000000000e+00" cType="1" res="3.2781869173049927e-02" rms="4.1317099332809448e-01" purity="2.9715704917907715e-01" nType="-99"/>
